eval_DH_0157 0.5944006 -0.8313473 1.117379 -0.6884313 -0.5961239 -1.182132 -1.505125 -0.1308397 1.173049 -0.9152746 -0.03662414 0.8038276 0.1547413 0.5238103 -0.5488898 -0.9877238 3.335295 -0.8107153 0.5223417 0.05059042 0.3503103 -0.3038516 -0.4938737 -0.3291712 -0.2266904 0.3422667 2.904819 -0.4998176 -0.23903 0.964864 1.18311 0.01576835 0.8590177 0.2392649 -2.961908 0.9044095 -1.00593 0.05137079 -0.5544916 -0.6767232 1.270154 0.1760098 0.1604199 0.9781872 1.194404 -0.1512689 -0.6813588 -0.5984441 0.6394715 1.238378 -1.352929 1.098738 0.8685572 1.618427 0.9456666 0.5650985 0.6217209 -0.1077702 0.2936254 1.204814 0.05963704 0.02974613 1.47772 0.9097184 0.7314581 0.2676681 -0.4496427 0.2585505 -0.8579824 1.629155 -0.5190567 0.4443581 -1.471866 0.6391696 0.5848583 -0.2655312 -1.192438 0.3792323 0.4285684 0.2042168 -0.01497805 0.8522519 -0.6115114 -0.301182 0.1520869 0.8447785 -1.064641 0.07237203 -0.5850644 0.7691509 0.8728324 0.5402071 -0.6617506 -0.6637768 0.68185 -0.08398337 0.2793275 -0.2674231 1.206223 1.539851 -0.2018205 -1.643228 -0.2052623 0.7013105 -0.1765675 -1.158251 0.8541661 -0.2495948 -0.06515863 0.1986071 -0.7448889 -0.7049363 -1.048658 -1.311801 -0.1074435 1.49832 0.07902356 0.06524524 1.156981 -0.3222467 -0.2815281 0.7332842 1.247926 -0.07946994 -0.5156153 0.3418062 0.7389624 -0.09784602 -0.1126123 -0.3780322 -0.9800504 0.08311158 -1.875879 0.844166 -0.02533086 0.9418369 -0.7753794 0.4094264 -0.5558526 -0.128906 1.218295 0.1721891 -0.6303363 -0.8706826 0.4253075 0.6385839 0.4166499 0.4554519 0.09232046 1.071242 -0.2664677 -1.416135 0.1735442 -0.2870924 0.2802958 -0.583437 1.689996 0.6956173 0.01709299 -0.6473929 -0.8178155 -0.6952987 -0.782002 1.415993 -0.5295732 -1.473969 -0.2977326 0.2901035 -0.5327796 -0.01888589 -0.6362491 0.1059451 0.4592136 0.2956684 -0.2484574 0.4564611 -0.376063 -0.6146723 0.2367755 -0.9641781 1.754759 0.1872773 -1.325042 -0.6071989 1.507458 -0.322992 -0.71543 -1.316539 -0.2121577 -0.5572618 -0.9571804 0.2947904 0.8960208 0.9608563 -0.007747387 -0.3241943 1.116758 -0.9548755 1.37511 -0.4655941 -0.1405734 0.5397089 0.3455717 -1.380185 0.1711385 -0.5364702 -1.139935 0.5581471 0.7608412 0.3611302 -0.4672268 0.722248 -0.3145366 0.7611624 0.27546 -0.2322134 0.6352812 -0.4117881 0.1547968 -0.7553208 0.4676282 1.625945 0.05855227 -1.223007 -0.2025972 -0.9191327 0.154065 1.547733 0.1910023 -0.4592322 0.5744363 -0.02019197 -1.265962 0.7711694 0.8520215 0.2150962 0.2709232 -0.212619 0.8255084 -0.4006298 0.02243 -0.267889 0.5924017 -0.3875927 -0.06870709 0.03830654 -0.04196404 0.192396 0.5426366 0.4899015 -1.132356 0.4915619 -0.1219915 0.3567269 -0.5910789 -0.3277668 0.8907261 -1.670836 -0.06051701 -0.7074039 -0.5256526 0.0250478 0.79729 0.3288834 0.222666 -0.3079293 0.7299463 0.1907671 -0.1378204 0.2509642 -0.1409236 -0.248765 0.2714009 -0.379737 0.9861485 0.1856147 -0.5024431 0.409154 -0.230072 1.039083 -0.3276658 -0.1055098 -0.632633 0.6577518 -0.3108297 0.4895986 0.6925077 -0.2064875 -0.5051817 0.06482369 -0.008574204 -0.3257351 1.243911 0.1654521 -0.6369876 0.5926732 -0.2064724 -1.036008 0.7900527 0.8583028 0.3151853 0.07551833 0.496583 -0.02774868 -0.1933219 -0.9459975 0.5399761 0.3323248 0.2470212 0.3039869 -0.01655654 -0.02183392 -0.1051361 1.245968 0.5711795 0.4000584 -0.4286079 -0.6425143 -1.206523 -0.4834137 0.5904953 1.273957 -0.7386492 0.3319144 0.3882068 0.126511 -0.4330593 -0.4103698 -0.1127043 -0.05227562 -0.2187732 0.9270146 0.5155428 1.037397 -0.113468 0.3754791 0.1317679 -0.3680434 0.5991749 0.2233083 0.3522308 -0.08830183 0.03857327 -0.3069417 -0.1776863 -0.7186656 -0.4497796 0.02637464 0.298219 -1.040305 -0.9962215 -0.5084038 -0.1129171 0.05813109 0.07032019 -0.115439 0.08203392 1.27108 -0.8864862 -0.7263717 0.2758912 -0.9965958 -0.4126102 -0.7241868 -0.04160853 0.1390943 0.3165017 -0.3128613 -0.04519876 -0.5507398 0.3125426 0.1953306 0.7980096 -0.4355406 -0.3698139 -0.09597645 0.8751376 -0.2736909 0.1025154 -0.6555119 0.1310592 -0.1627264 -0.1743849 -0.1282158 -0.2617474 -0.4417999 0.3992499 0.003243015 1.067829 0.2347422 0.6407621 0.6376833 0.6577456 -0.3889695 0.4696015 0.4512028 0.7555997 -0.3321539 -0.6018336 0.4186044
eval_DH_0158 -0.2119764 -0.8303672 0.246256 0.7804233 -0.3796588 1.459031 -1.13878 -1.382085 -0.2895973 0.09050213 -0.4572674 0.2874672 1.583111 2.81189 1.532534 1.812435 1.820332 -0.4352851 0.2822423 0.5174068 0.3208125 -1.617385 -0.1128205 2.159038 -0.5183226 0.1779559 1.114983 1.259335 0.4778317 1.606863 -0.3339925 -0.5970768 -0.7378081 -0.5810561 0.9372067 -0.8167085 -1.418283 1.457332 1.100274 1.57721 -1.453589 -0.05732983 -0.04705103 0.8061774 -0.4827399 -0.3567431 0.5538312 -0.8697456 -0.9252633 0.0469007 -0.377326 -0.1145293 1.438956 -1.719541 0.2130501 -0.6247295 1.501576 -0.9522343 1.39526 0.127733 -1.627793 0.4200776 0.1472396 1.081441 1.403519 -0.7872285 -1.015255 -0.6924858 1.236892 -0.1767354 0.9471105 0.472062 0.2342056 -0.1964304 0.5982916 0.2583563 0.876358 0.8841043 -0.5913477 -0.09375279 1.540726 0.7032546 -1.167905 0.00858274 -0.3430386 -0.7978435 1.135841 0.8569108 0.8516965 1.061697 -0.2638287 0.1896757 0.05054286 0.5537745 -1.519531 -0.2984153 0.6918774 1.030798 1.717864 -0.1663163 0.4332396 -0.03306707 -0.1177374 0.4100272 -0.3155943 -0.3098278 -0.4879956 1.201043 -1.050756 0.1310217 1.524401 -0.4521889 1.380733 -1.072944 0.1298733 -0.4453305 0.3013928 0.8629375 -0.008876991 -0.03135085 1.08061 0.6196853 0.4705434 -0.0228787 0.625599 -1.087606 0.345061 -0.02409163 0.3889537 0.7812527 -0.9046903 -0.3439837 -1.012235 0.4423066 -1.033472 -1.403428 0.2052982 -1.231708 -0.04210179 0.1305912 0.1546784 1.26114 -0.5508112 -0.03071857 -0.4000801 -0.04504037 0.3425261 -0.726723 0.7836397 0.7070119 0.3817857 -1.628643 -0.2526019 0.9445794 -0.87368 -0.6816093 -0.9029993 -1.098244 -0.7089528 -1.317291 1.149728 -0.9896719 1.923751 0.4874296 -0.5270627 0.4202252 -0.9084099 0.7577996 0.7076535 2.023679 -0.395044 0.07418853 0.4394118 0.5072792 0.3202891 1.365764 -0.304738 -0.7366346 0.07931572 0.5559388 -0.2935747 -0.4539737 0.5642026 -0.5641831 -0.6474397 -0.1015779 -0.1424514 0.5853759 0.9992148 -1.653654 -1.241399 0.2509871 1.683007 0.5363662 -0.5456419 -0.9681169 -0.876586 -0.4323995 -0.1962589 -0.1555541 -0.4428011 -1.503788 1.486162 -0.02327134 -0.01670049 0.4333747 -0.247245 1.009992 -0.4640029 0.7943904 -0.7751665 0.3697495 0.136333 0.5647174 -0.3061904 1.134211 -0.7086133 -0.3210112 -0.5906037 1.837182 1.012914 -0.883588 0.7342795 -0.2456618 -0.5521351 -0.745483 0.3591079 0.3818651 -0.3070111 -0.385521 0.1873512 0.677024 -0.2999454 -1.06938 -0.2186897 -0.7637128 0.5988767 -1.352941 0.1010122 -0.5890816 0.1093234 0.1508864 -0.2050715 -1.048414 0.7478594 0.337907 -0.5771836 0.4621125 0.1686105 0.3135254 0.7046683 -0.4069088 0.1260403 0.0001455637 0.6511092 -1.009097 -0.06588109 0.4615941 0.121614 0.04762986 0.3997269 0.5084252 -0.4187272 0.03015158 0.6096067 0.04390314 -0.02364845 -0.3141579 -0.01265792 0.4830642 0.3676615 -0.3483993 -0.6083464 0.6378118 0.8088941 -0.4484733 -0.07703599 -0.3161898 0.1190357 -0.1182703 0.07043298 0.1295653 0.2727016 -0.4965132 -0.08171882 -0.1529244 1.315688 0.2347795 0.3689614 -0.2534967 0.2713207 0.08955037 -0.674564 0.406863 -0.1037433 -0.777971 -0.7238787 0.3293326 1.219085 -0.273252 0.06515276 -0.6098743 -0.1463057 -0.01816355 0.2372817 0.2568164 -0.005382047 -0.728316 -0.9976161 -1.411763 -0.8784218 -0.5171662 -0.6580248 -0.5202269 -0.1019915 -0.5863275 -0.07796806 -0.09599682 -0.3755845 -0.4951591 1.278557 -0.06394858 0.2727606 0.3554496 -0.01992312 0.1449213 0.7074115 -0.5817919 0.9094394 0.6815529 0.1654927 -0.2196964 -0.08352679 0.04900935 0.6920947 -0.2637386 0.05147907 1.081756 0.1124778 0.01838598 -0.5291144 -0.5111042 0.1010464 0.0002082819 0.5200853 0.6763676 -0.1949841 1.043479 -0.2550048 -0.9640087 0.08516963 -0.08514921 0.4472687 0.01435359 0.156424 0.09323839 -0.05848053 0.05231389 0.125443 -0.05112546 0.2039345 0.8098223 -0.8981087 0.04539513 -0.2592823 -0.0400442 0.1097108 1.316455 -0.6363794 0.4035066 -0.03143228 0.4176848 0.1301751 0.3796265 0.117264 0.7631195 1.017623 -0.03857315 -0.1966742 0.4908393 -0.4314938 1.052538 0.3148634 0.158597 0.3131744 -0.6588728 -0.2794266 0.2006083 0.7212846 -0.1341116 0.4934952 -0.3310234 -0.04574397 -0.367895 -0.3426333 -0.02051792 -0.03378754 -0.5163428 -0.8387127 -0.6908713
eval_DH_0159 -0.07611339 -0.2717624 1.943564 -0.8734945 0.4813857 -2.512807 1.589165 1.768625 -0.4743941 0.2722345 0.1783627 0.4652049 -1.924923 -0.02434207 -0.2463893 -0.5365928 0.6470431 -0.2593848 0.1414332 1.430212 0.01141912 -0.5087801 0.5109459 0.09976604 0.1003265 -0.56291 0.08379947 -0.7102378 0.1962307 0.2303536 -0.7125788 -0.09187482 -0.649699 0.7238709 -0.4227562 0.4555789 -1.283727 0.5595555 -0.7614282 -0.1672304 1.689942 1.053293 -0.7499014 -0.2979673 -0.02326678 0.3339218 -0.9202436 -0.1997365 -0.9223389 0.7282755 -0.2086982 -0.0730776 -0.3878686 -1.086352 0.2471063 -0.2918851 1.435888 0.3612446 0.7266887 -0.9661869 -0.02827423 0.3938261 -0.2917137 0.4047684 0.09854957 0.7126632 -0.01528916 0.7042581 0.07683828 -0.0792487 0.1940958 0.6234923 -1.013713 0.306816 -0.5958257 0.9564641 0.4167989 0.6808001 -0.08337616 -1.388998 -0.5903408 -0.466969 0.09791103 0.6841589 -0.7783992 0.3416169 -0.4939627 -0.1338011 0.09421963 -0.1743792 0.2938841 0.7419644 1.123217 -1.22298 -0.2684878 0.9424801 0.6529604 -0.09322226 -0.8050814 0.7059235 0.5370672 -1.231651 -0.1344472 -0.1688233 -0.3300323 0.9808645 0.03636298 -0.369956 0.005073913 -0.02833921 -0.7859334 0.9228944 0.536854 0.6381258 -0.6826919 0.5625315 -0.3340689 0.08188786 -0.2912316 0.6625794 -0.01036881 0.5811649 0.9304464 -1.333283 -0.3022444 -1.243688 0.03491963 -0.01819011 -0.2337081 -0.7840074 0.07485525 -1.625064 -0.4742804 -0.1654479 0.8900927 -0.1835437 -0.1096149 -1.124349 -0.6354303 -0.6200508 -0.9840386 0.768087 0.8923051 0.1727383 0.01139819 0.7317637 -0.2942607 -0.104741 0.2203344 0.8773021 -0.842222 -0.3243064 -0.4656066 0.0973616 -0.2378003 -0.4557555 -0.09111494 -0.220669 -0.2665502 -0.2064948 0.8737387 -0.5707114 -0.04786642 0.336253 -1.02977 -0.1700342 0.3634553 0.469786 -0.6368892 -0.2959658 0.1606215 0.9923597 -0.8050724 -0.328828 0.7801308 0.3212589 -0.7388153 0.5761632 0.7330721 -0.5417137 -0.04318487 -1.139293 -1.032436 -0.5799304 0.02384353 0.3973579 -0.09624013 -0.4359961 0.4721608 0.294538 0.2745068 0.06366672 0.3967619 -0.1003153 -0.2781622 0.7919806 -0.8802744 0.5012373 0.08620918 -1.1985 0.1380448 0.03807445 -1.426917 -0.4136352 0.04655129 -0.7995303 -1.237303 0.2510075 -0.9353862 -1.778228 -0.9996806 -0.4592208 -0.7091504 0.5791261 -0.09700052 0.02851532 0.03818839 -0.5390294 0.7349108 0.3895408 -0.7612787 0.3576434 0.3315239 -1.172879 -0.7833535 0.05045397 -0.5037596 -0.3100372 -0.3412102 0.07044192 -0.4401662 -0.1745357 -0.980909 0.02421146 0.6370968 0.07991038 0.6243956 -0.2159777 0.230959 -1.045287 0.816301 -0.5185028 -0.8567808 0.1145331 0.3209749 -0.0391232 -0.1317043 0.0270847 -0.4335411 0.3751799 -0.01317865 0.1621228 -0.452272 0.4427246 0.2916763 0.7299275 -1.144766 0.2391416 -0.8669515 -0.02433404 0.5395473 -0.1424369 0.1895899 0.3822811 -0.4773657 -0.3908406 -0.07845148 -0.09518185 0.4563763 0.4668116 0.228448 0.3678294 -0.3545322 -0.409274 0.2628161 0.5726736 -1.486571 -0.5798579 -0.6126719 -0.2762456 -0.6041442 0.9195424 -0.1324949 0.04940929 -0.1756418 0.08869957 -0.3242607 0.9818166 1.32549 1.372289 -0.231132 0.5879239 0.03679419 0.03938377 -0.09717143 -0.2107181 -0.3593351 -0.9663811 -0.7402204 0.1843039 -0.7332264 -0.5473546 1.106363 0.835828 0.2112471 0.2804477 -0.3027122 0.1517047 0.2638273 1.143118 -0.1506742 0.2627724 1.112861 -0.4288411 -0.4030151 0.4905105 0.03378262 -0.640361 -0.4394945 -0.05317033 -0.3004073 0.7664576 0.5722154 -0.1154909 0.2365231 -0.2002908 0.111129 0.2624085 0.8063465 -0.6063971 -0.9823583 0.8084743 -0.08118853 1.176305 -0.4204441 0.6556144 0.3524028 0.2314369 0.3541721 -0.1897444 0.1006428 -0.4603019 0.5502169 -0.8981054 1.244861 -0.5161514 -0.6563846 -0.4841941 -0.68659 0.6045511 -0.4636861 -0.7721077 -0.01305381 0.020973 0.5589314 -1.355322 -0.4540276 0.1790728 -0.05931128 -0.03541357 -0.3814252 0.4245846 0.5965267 0.8102041 -0.2211422 0.4145675 -0.310189 -0.7833159 0.3242281 0.4370461 -0.1725471 -0.5607098 -0.1200469 0.6580573 -0.2612024 0.3616446 0.6373037 0.2064256 -0.06461215 0.6159301 -0.1917825 0.3375942 0.1968071 0.09407474 0.5908954 0.03929325 0.8718851 -0.8429485 -0.3353161 -0.2770101 -0.0701642 0.4723482 0.2370899 -0.6946426 -0.07709068 0.3231765 0.09927683 1.469659 0.5355963 -0.4134253
eval_DH_0160 0.4905753 1.335934 -1.020457 0.4888093 -0.381731 -0.3502919 1.726887 0.5802359 0.6586581 1.367793 1.517135 2.925813 0.0756889 2.223974 1.634342 -0.2422347 2.799757 -0.08686973 0.2291596 -0.2133398 -1.295798 -1.029478 1.229815 -0.03994323 0.3027934 -0.4141207 -1.798184 0.4877279 -0.7502193 0.08869894 -2.14108 -0.5111771 0.2117579 0.6833217 -0.9319355 0.3287187 -0.8207759 -1.161779 -0.7158172 -0.3327781 -0.1150784 -0.09103467 1.217012e-05 0.3439825 -0.8929585 -1.00116 -0.7060713 -1.201012 0.04509943 1.016171 -0.5593812 -0.131538 1.391815 -0.08561195 0.1249172 0.1878888 1.735387 1.19166 0.2593074 -0.7944379 1.571031 -1.566955 -0.5118001 -1.89381 1.658173 1.149879 -0.0845164 0.1112069 0.8723289 2.791124 -0.5456091 1.084339 -1.562336 -0.8967173 0.04162608 0.7643884 -0.2241602 -0.1962282 1.072002 0.7222448 0.3674468 0.3890329 0.4612908 0.04213908 1.152521 -0.11623 -0.6532726 0.7234219 0.08871477 0.4363862 -0.183373 -0.2475541 -0.1597835 0.606481 -0.8204843 -1.527682 0.4455699 -2.486891 -0.1776757 -0.8418533 -0.2141892 1.022221 1.244639 -0.1090981 -0.9696777 0.3950473 0.2767022 0.1586987 0.3266206 -0.08955342 -0.6041951 -0.9170069 0.6360722 -0.8531418 1.090583 -0.3912346 0.9721366 -0.5225638 -2.201478 0.5085108 -0.5884565 0.1184128 1.091326 0.6982461 -0.8138768 -0.4932838 0.8024677 0.7635434 -0.4378692 0.6133991 -0.2174952 0.353996 -0.3724343 1.95664 1.810602 0.18021 1.167246 -1.644433 1.568709 0.9828214 -0.5110819 0.02648993 -1.686128 -0.1453204 -0.2001351 1.252942 0.1301312 0.3382486 0.2896312 1.701592 -0.1520922 -2.08241 -0.8277134 -0.4930248 -1.409439 1.317181 -0.09012691 -0.8005881 0.08739185 1.193391 0.9942765 0.6777397 0.8154213 -0.07370263 0.4554768 1.345832 0.5535274 -0.2462828 -1.340127 -1.227909 0.4290884 -0.8425702 0.1673325 -1.01845 0.1742834 -0.1150303 -0.6324893 0.4976525 0.46901 0.818618 -0.7952662 -0.04603416 -0.4437763 0.5146503 -0.139413 -1.645563 -0.4082406 1.378525 0.277888 -0.7209082 1.291901 -0.1475004 0.1330291 -0.6617907 1.315838 0.7160494 -0.8884968 -0.8062918 0.7482339 0.6584316 -1.414298 0.07753746 0.2433208 0.02549261 -0.869558 -0.5029209 -0.455824 -0.3216399 -0.07976184 0.02658355 -0.3202192 -0.04411876 -1.092516 0.8964702 -0.280318 -0.2334624 0.1423481 -0.5528968 0.5561252 -0.3506844 -1.085698 -0.9632751 -0.03629874 -1.345818 0.3795735 -0.04368635 0.7867348 -0.06480847 1.007283 0.3493586 0.8781826 0.5897779 -0.4041312 -0.3767971 0.6244137 0.2326045 -0.1635177 0.1984621 -0.6431557 0.3707774 -0.3254975 0.3638751 1.349275 1.132264 -0.1230507 0.3956762 -0.6685977 -1.689139 0.6305798 0.7341945 1.488769 -0.1943431 0.007714514 -1.222721 -0.3325866 -0.1494705 0.3254662 0.06621387 -0.1323493 -1.701349 -0.5836155 -1.037491 1.23652 -0.2346722 -0.05509429 0.2428215 0.9817393 -0.9664611 -0.2855549 1.961203 0.233924 0.1994506 0.0871589 0.8691694 -0.2114712 0.268774 -0.01085783 0.3227497 -0.1530097 -0.3090831 -0.7631751 1.401055 -0.72903 -0.2989912 0.03391303 -0.5158928 0.4226602 -0.3960267 0.1718742 -1.501545 0.529604 -0.3396523 0.7972538 -0.3950724 0.5504708 -1.11789 -0.1914708 1.121471 0.1533791 -0.06621301 -1.425797 0.03111683 -1.098621 0.5874513 -0.3632412 0.377183 -0.532087 1.005482 -1.389251 -0.5753056 -1.15607 -1.468456 0.1375404 0.2956207 0.7581831 0.6782322 0.2818613 -0.3455082 0.7537866 0.4051283 -1.14604 0.1888424 -0.4231607 -1.087129 -0.4460498 -0.1019415 0.1645302 1.08925 0.08851749 0.160756 -0.2620363 -0.8689851 0.2653185 0.5761236 -0.0368062 0.2333502 -0.04334049 1.098404 0.5650886 -0.5375485 -0.3165238 -0.3301372 0.06293157 0.1893281 0.1233174 0.5267442 0.3367961 0.3221849 0.3372202 1.090888 -0.3583207 1.181682 0.3026923 0.5998294 0.2161511 -0.5880905 0.1326581 -0.1153247 0.4458248 0.4607155 0.504142 1.094035 -0.170368 -0.2877147 0.4483959 -0.1255215 0.1916277 0.1804963 -1.042041 0.186478 -0.065455 -0.4059877 0.4530382 0.167187 -0.01731135 -1.177658 0.3013025 0.5545459 -0.09751546 0.2086179 0.3774841 0.8435248 -1.054317 0.4734464 0.6085074 0.559335 -0.1241456 0.358826 -0.07089469 0.4384367 0.03328625 0.9809622 0.4055561 -0.3539838 -0.05522445 0.1448134 -1.515292 -0.2065529 0.1579243 -0.1899847
eval_DH_0161 -0.2503357 -0.7031359 1.71706 -1.325047 -0.5201022 -2.532767 -0.5014373 0.03484348 0.9215106 -0.5507882 -0.0524263 -0.2809462 -0.2949056 1.560817 -0.5457962 -0.1458144 1.667302 0.2994704 1.524597 -0.6197022 0.6111122 -0.1574398 0.2916554 0.6819779 -1.128314 0.5239267 1.942745 -0.4751617 -0.361786 0.9499858 0.1373304 1.259071 -0.7284913 -1.316684 -1.053795 -0.1533997 -0.5191905 -0.267204 -0.5975638 -0.1736342 -0.5894206 0.4283758 -0.5157238 -0.3038175 -0.3625033 0.08998217 -0.4535369 -0.8526494 -0.470218 0.6292018 -0.486231 0.7643929 0.7071277 0.4479237 -0.3052557 -0.08074435 0.5543371 -0.492264 0.4026274 1.024044 -0.06217578 0.4081775 0.5629809 -0.715449 0.7415307 0.5387203 0.1791873 0.9090704 0.1806693 -0.9273252 0.2796371 0.2504837 -0.3027566 1.223915 -0.009839989 0.03563765 -0.0949816 -0.04719327 0.5703171 0.1931636 -0.1492391 -0.150606 0.4772825 -0.8086433 -0.4684764 0.85058 0.2194527 0.08703098 -0.01642041 0.7684927 0.1856071 -0.1122333 1.022964 -1.188064 -0.77494 0.6479881 2.189876 -0.5682017 1.011595 0.02889675 -0.4706015 -0.8128266 -0.6816281 0.1469214 0.0969613 -0.8545786 -0.8291144 -0.8518528 0.3162439 -0.6799575 0.2244735 0.1227198 -0.0485606 -0.2418853 -0.8311906 -0.2418487 0.6041839 0.4845915 0.4139192 0.4065854 -0.5965511 0.4105213 0.414852 0.984106 0.04842738 0.6454452 -0.168735 -0.03823381 0.08851618 1.14013 -0.7180073 -0.7020485 -0.9444261 0.2248077 -0.6449693 -0.008887061 -0.89496 0.7094349 0.070194 -0.1514113 -0.94545 1.029478 -0.5331209 0.3812055 -0.04007606 1.219162 0.4037538 0.2404584 0.4613284 -1.032483 0.03735597 -0.9384424 0.9487718 -0.4845912 -0.2704413 0.3001886 -0.06646897 0.743581 0.614673 -0.05344485 0.0569368 -0.05808917 -0.9344509 -0.109878 -0.392324 0.04625048 -0.7138201 0.1606307 -0.2036793 0.8790019 -0.2708456 1.027584 0.3360007 0.8090587 0.1998053 0.4329855 -1.012335 0.4323839 -0.3759154 -0.4019674 1.647088 -0.5977241 -0.6324047 0.5069823 0.4462132 0.5305947 0.5903813 -0.3315644 -0.473179 0.1340472 -0.3468526 0.4899556 -0.06127961 -0.3375897 0.01989918 0.6058909 0.8634061 0.2942252 1.101999 -0.5156727 -0.3850449 -0.9437806 -1.225457 -0.1113329 -0.6864665 0.3760372 -0.4751914 0.1312069 -0.548642 -1.442639 0.5292993 -0.3951052 -0.0127879 -0.3589567 -0.02930004 0.5413702 0.3748 -0.6961523 -0.1601265 0.05781192 0.4496426 0.01703141 0.4258388 -0.386145 0.4964319 0.3890315 -0.1261678 0.8565427 -0.08571611 0.9466318 -1.172801 -0.8236939 -0.5679953 0.1141952 0.8318475 1.630949 0.3796495 -0.4361659 0.5830348 0.06156157 -0.594881 0.6407204 0.2272724 0.2418657 0.8493224 0.352311 -0.731968 -0.3523469 -0.5576748 0.619528 0.0302403 -0.2235987 0.3647311 0.6264708 0.06167029 -0.4915748 -0.02861174 -0.5829911 0.02362304 0.4451121 0.6897702 -0.4863786 -0.4159287 -0.1231859 0.02453511 0.3555331 0.261593 0.2066951 0.2368616 -0.1108813 -0.09522596 -0.412616 -0.2140111 -0.1517862 0.04642754 -0.308754 0.3168746 -0.3224708 -0.2129709 1.138591 0.4064194 0.4160022 0.1510253 0.3376825 0.3978107 -0.1828196 0.8177906 0.5941907 0.1068161 0.5844519 0.8849271 -0.2860216 -0.04682722 0.4064748 0.6682161 -0.1416146 -0.2722963 -0.008781119 0.4395225 0.05030604 0.3739369 -0.03515384 0.7243125 -0.03099397 0.5901536 0.8795474 -0.8429283 -0.001074599 0.3080643 -0.005212876 0.02645895 0.315652 0.3176902 -0.2169029 -0.2246098 0.3920636 0.4904105 -0.48378 0.6651374 -0.204102 -0.2114824 -0.03204671 0.03733627 -0.2894693 1.429611 -0.320733 0.4349327 -0.1283083 0.7645485 0.1567052 0.2674454 0.1435702 0.4231158 0.6541415 0.2741808 0.08551656 0.8303179 0.624266 0.3843252 0.03156157 -0.456785 0.03855348 -0.5065078 -0.6599238 -0.3643809 0.1401787 -0.1764397 -0.8484717 0.2446724 -0.2113118 -0.01919131 -0.8062115 -0.4326327 0.09199032 -0.1818186 0.5918284 -0.5400423 -0.6787131 -0.1567148 -0.1349202 -1.052775 -0.05081845 1.620461 0.4549173 -1.056891 -0.2479353 -0.1861591 0.5246981 -0.4569925 0.2870939 0.313732 -0.1830273 -0.06927455 -0.03848262 -0.230757 0.7557621 -0.00939663 -0.3839966 -0.3452888 0.195109 -0.04825768 0.09625237 0.1238001 0.09137706 -0.1805056 0.7701923 0.4490289 -0.2563663 0.08306926 0.302546 0.5789244 -0.1027513 -0.2440702 0.5191713 0.7083201 0.3494552 0.03221925 -0.2839067 -0.09427794 0.7077952
eval_DH_0162 0.5919076 0.07934561 0.1939705 -0.8725704 -0.314084 -1.871223 1.24735 -0.8361193 0.7907779 0.2477051 1.460161 0.507181 1.260931 2.180607 -0.02477852 0.8708574 1.401608 -0.1311665 0.8499301 1.441609 -0.1736855 -0.5295026 1.208105 0.8431767 0.2560869 1.026191 1.534488 0.6137828 -0.4636453 1.460413 -0.5605534 0.7942564 -1.388252 0.08134837 -0.9321674 -0.5905943 -1.118356 0.6182614 0.9424521 0.02334384 0.09456222 0.2036719 0.07825711 0.1067187 0.1615545 0.1078807 -0.489624 -1.360289 -0.06891996 -0.7302666 -0.7723866 0.1042077 0.4328519 1.599175 -0.6619856 0.209643 1.256053 0.1158154 0.6494973 -0.04409772 -0.700601 -0.1384281 -0.4980334 -0.9529674 0.9019138 0.5489554 0.3310127 0.5402361 0.2586531 0.5644818 -0.3681682 1.330339 -0.5371827 0.8422742 -0.2631516 0.8716605 0.4997847 0.0963405 -0.03225745 0.09235993 0.3033265 -0.2716081 0.2612508 -0.9610374 0.3403748 -0.06168043 0.03746358 -0.1687387 0.1531993 -0.8220485 0.4238807 0.813014 0.2870902 -0.5135535 -0.6455788 -0.3359534 0.5886661 -0.3745367 -0.05650777 0.5441393 -0.1816929 0.924681 -0.5564881 0.0815965 0.6575696 -0.2139519 0.01036842 0.1119629 -1.702253 0.003331262 0.8040655 0.1960745 0.1310292 -0.1274409 -1.098237 -0.7468981 0.1976831 0.759122 0.3839612 -0.3530843 0.7447022 -0.2467807 0.1068448 0.4915071 0.5357206 -0.2840531 0.7904191 -0.3497578 0.566747 0.6678229 0.2260691 -0.2347247 -1.144391 -0.1897048 -0.1365483 0.4757668 -0.8289115 0.6183639 -0.2892267 0.7212195 -0.9067376 0.2171728 -0.07501111 0.01632305 -1.202486 -0.1000072 -0.4962995 -0.2265006 0.6013173 0.5728015 -0.3173547 -0.220624 0.2821003 0.6232697 -1.097715 0.3877108 0.4166756 -0.04224215 0.5482304 0.129078 -0.7534499 -0.6444465 -0.747736 -0.197587 0.6810696 0.7033819 -0.4413342 -0.2334716 -0.09116657 -0.009492536 -0.5463473 0.4736278 0.3218735 0.381479 -0.3473743 0.6993605 -0.6006438 -0.05863581 0.7144743 -0.4338825 0.3264262 0.5557114 0.09760508 0.533206 0.8641453 0.3330663 0.267244 0.5562952 0.3567116 -1.155333 0.3637032 -0.2124547 0.2312716 0.4019277 0.7618913 0.2954507 1.157263 0.1134738 0.6679105 -0.7739476 0.09011266 -0.4372226 0.9609999 0.556048 0.1953363 -1.921793 -0.1556814 0.1185258 -0.3691847 -0.343679 1.27103 0.0629918 -0.07838787 -1.296337 0.1687314 -0.9806271 -1.162868 -0.3824341 0.3295929 0.2237998 0.4939335 -0.3381014 0.30499 0.40159 -0.4033076 -0.437606 -0.4536681 -0.7441423 0.6058469 -0.3927802 -0.3382586 -0.5028929 0.4179471 -0.4467945 0.2001368 -0.04525587 -0.5193477 -0.1871657 0.2326077 -0.1897089 -1.029878 -0.6210827 0.2182481 0.4688848 -0.1025421 0.001441737 0.06487928 -0.1857892 -0.4150254 0.3820701 -0.349616 0.2865568 0.2058216 -0.7274762 0.2239432 -0.2976404 1.112148 0.03122946 -0.2847756 0.06811895 0.3581748 0.2027117 0.7219028 -0.1384295 0.06608484 -0.7021797 0.006757728 0.5291021 -0.0633821 0.1153572 0.4211061 0.7904968 0.1428795 0.8523699 -0.513709 -0.2131694 -0.614346 0.01693614 0.528816 0.08261637 1.335824 -0.3716784 0.002191067 -0.2819834 -0.5958883 0.08898935 0.01143105 -0.02927807 0.1901891 -0.3650169 -0.2319134 -0.6045702 -0.1341963 0.0825774 0.6926127 0.7962473 -0.7463354 0.01068083 0.5001072 0.06929217 0.7603241 -0.5800313 0.347738 -0.9006156 -0.8901301 0.01160375 0.8046576 0.1503673 -0.337752 0.1270503 -0.1584574 0.208041 -0.3521099 1.044679 -0.1997683 0.1116121 -0.6479801 0.612867 -0.878938 0.02532206 -0.3891163 0.3760621 -0.5190408 -0.1949485 0.6675792 -0.6512452 -0.05960254 -0.529515 0.3640195 0.6913782 -0.1229279 -0.6858113 -0.4204716 0.1382674 0.2289383 0.2708541 -0.2627349 0.119618 -0.8730385 -0.6595304 -0.1072112 -0.1079374 0.1517948 -0.8175212 -0.2236345 0.5470978 -0.6980731 0.1568119 0.4029696 -0.4306308 0.2330454 -0.2198241 0.1412482 0.6630527 -0.3058611 0.838873 0.006518928 0.6839368 0.5796444 0.1460899 -0.2932132 -0.46605 -0.2204347 0.03031848 -0.2684293 0.8647355 -0.0799351 0.9893944 -0.2999388 0.133122 -0.8558653 0.125919 0.2381661 -0.3816976 0.8033782 0.3551714 0.9755772 -0.3604167 0.3684895 -0.3831094 -0.3522474 0.0967023 0.3918481 0.1034671 -1.101925 -0.1816863 0.1267449 0.1877318 0.08269711 -0.1988699 -0.4559148 -0.2613143 -0.6445884 -0.8474663 -0.1875558 0.5058586 -0.3357688 -0.4865583 0.4656465 1.2864
eval_DH_0163 -1.328413 0.05189513 2.204077 -0.6088613 0.6482125 -1.908498 0.9172865 1.720561 -0.7175809 -0.9898382 0.3371759 -0.3796718 -2.16137 -0.6243655 -0.440899 -1.366682 0.3842379 -0.1550671 -0.1647623 1.654872 -0.1118917 -0.1381275 0.1277985 0.4902679 1.380871 -0.8080621 -0.402474 0.01811378 0.1132019 0.5448762 -0.7388444 0.9281794 -0.912959 0.3799534 -0.8736305 0.6499323 -1.175666 -0.09769489 -0.06860084 0.7048529 1.248795 0.6457126 -0.4618215 -0.9845806 1.044056 0.5565313 -0.6742893 -0.5801761 -0.6141259 0.0983005 0.2807234 0.8308155 0.2179333 -0.8551957 0.5807052 -0.6188468 0.7177914 0.2935578 0.3715962 -0.6128915 -0.6279685 0.4395928 -0.4261783 0.2798643 0.5967129 0.08407579 -0.6519953 -0.5063441 -0.5148426 0.2816199 -0.04270128 -0.2697464 -1.168291 -0.3007517 -0.7548487 0.6444164 -0.3069822 0.7603256 -0.3988566 -0.8985306 -0.4527146 0.008351458 0.08991041 0.6565634 -0.01830085 0.1693304 0.02122785 0.07141414 -0.2355441 0.8385865 -0.6939765 0.6436849 0.6006941 -0.1314567 0.3467934 -0.1876513 0.626016 -0.1621898 -0.3757159 -0.3465449 0.0179841 -0.2938512 -0.347974 0.02556896 -0.4983317 1.085015 0.353233 0.0186194 -0.233442 -0.4640314 -0.2103028 0.5189989 0.4667139 0.142028 -1.169614 0.05708107 0.2477942 0.565762 -0.3430783 0.6128168 -0.1537305 1.095288 -0.3128369 -0.3044011 -0.5168937 -0.603504 -0.4091216 -0.7956473 0.8843544 -0.4037266 0.2547097 -0.7459568 0.1538139 -0.2143497 1.112631 -0.1848806 -0.07391192 -0.3032481 0.1902761 -0.2221206 -0.6831513 0.1858551 1.102897 0.03410434 0.1287065 0.8579754 -0.5157486 0.1953836 -0.117917 0.8961023 -0.8052667 -0.7471247 -0.4062648 0.05868721 -0.365979 -0.210753 -0.6827645 -0.1952225 0.5202287 -0.6912497 0.03229482 -0.4507589 -0.2044452 -0.1191469 -0.4059261 0.05483786 0.251265 0.2172064 -0.4539506 -0.1661911 -0.0346578 0.7770722 0.1291401 0.7303819 0.3826832 0.3774689 -0.130384 0.0427951 -0.2091655 -0.2808362 -0.2866964 -0.6602567 -0.4462225 -0.3359616 0.6097143 0.1787789 -0.3782836 -0.3521097 0.1211492 0.6765019 -0.02267353 0.6422814 -0.111509 -0.8148255 0.3855823 -0.455244 -0.1889329 0.03878696 0.3077743 -0.4543146 -0.8792921 -0.2368476 -0.8844957 0.07832426 0.7173693 -0.08782111 -0.9363135 -0.6648814 -1.009998 -1.285955 0.2667001 -0.04677494 -0.3674425 0.517882 0.5736069 0.359209 0.2865639 -0.5721935 -0.4169057 0.1690495 -0.1553407 0.1967962 -0.334803 -0.3739284 -1.250945 -0.07209966 0.6123461 1.04787 -0.2625996 0.05851455 -1.116418 0.04706179 -0.336973 -0.2788399 0.9773925 0.03952931 0.4369397 0.1476342 0.2886521 -0.05435029 0.7161687 -0.9198409 0.006224878 -0.2723815 0.4353084 0.2179056 0.2642235 0.2819132 -0.4958091 0.0787307 -0.03996188 -0.1701192 -0.3960454 -0.07654753 -0.003672399 0.3921178 0.3813509 -0.31256 -0.2808115 -0.5975483 0.06205878 0.1959696 -0.4806633 0.2624055 0.02582513 -0.5132513 0.7020223 0.3619358 -0.2538932 0.7471341 0.07419968 -0.2100177 -0.5309203 -0.03517609 -0.1944196 0.8025872 0.06096588 -0.6071034 -0.2341645 -0.01117114 -0.08868071 0.8050777 0.3952446 0.2220521 -0.5212168 -0.4260314 -1.051931 0.6945847 0.9123028 0.9932973 0.3115862 -0.0334319 -0.2455834 -0.3349464 0.2623613 -0.132061 -0.1284524 -0.2351464 -0.2656239 0.4363928 -1.078364 -0.3463538 0.09296746 0.5849296 -0.387753 0.2327517 0.4576789 -0.337132 -0.3391382 1.137696 0.09081747 -0.1638003 0.871916 -0.8964229 -0.5956266 -0.3558572 -0.2102486 -0.4830267 -0.1014319 -0.09341327 -0.1419792 0.07961986 0.0323098 0.1360214 0.06390462 -0.3347173 0.1352267 0.2052571 0.5287976 -0.935655 -0.5705287 0.305152 0.4068101 0.4602529 -0.492362 -0.01835424 0.3933688 0.6935156 0.9374074 -0.6162794 0.3686809 -0.388094 0.3879886 -0.7934031 0.7303886 0.1328265 0.444633 -0.7030967 0.6121501 0.2593001 0.2056904 -0.7525211 -0.1844874 0.3097771 0.2590521 -1.211324 -0.6339982 -0.3543482 0.1786234 -0.4776335 -0.3773644 -0.09966764 0.5231153 -0.05143902 0.6070839 0.2788463 -0.3646256 -0.1795626 0.8260853 0.5661347 -0.1392991 0.0745294 -0.02796747 0.1421775 -0.5468774 0.894056 0.1486721 -0.3996197 0.002471014 0.4572014 -0.3211295 0.5862544 0.3203462 -0.1685016 0.652258 -0.005543196 0.4947048 0.3605034 0.07553419 -0.1687748 -0.3193749 1.051917 -0.09957264 -0.7078047 0.2214338 -0.3318628 -0.7442669 0.7315018 0.1295794 -0.2299471
eval_DH_0164 1.227595 0.8136724 0.8733974 0.4892953 -0.7962211 0.02529695 0.1111516 -0.3233338 0.5459121 -0.639029 0.4056562 0.9105206 1.796767 -0.3111391 0.02766388 0.005814304 1.394188 -0.235652 0.6708587 1.584507 -0.1824593 1.392434 0.09993856 -0.04591123 -1.06061 0.03473737 -0.2050785 0.2848222 -0.2052326 -0.2761013 0.2997805 0.06479646 -0.715164 -0.01792753 0.1134018 -0.567492 0.004225681 -1.581637 0.7699478 0.4179887 -0.1996763 -1.406306 0.1691188 -0.4369714 0.4453314 1.067945 0.1542595 -0.1231352 -1.601633 -0.6555915 0.5782846 0.1325164 0.3087814 0.3261549 0.100419 -0.5530415 0.1016602 1.097724 0.4329385 -1.010943 -1.312832 0.4322996 0.1030336 -0.02747296 -0.2011208 0.4459333 -0.2254071 0.9727697 -0.004197098 -0.3797305 -0.08807091 -0.374653 0.4793764 -0.3526145 0.0374757 0.1733197 -0.2425904 1.471373 -0.3480367 -0.5987958 -0.1628886 -0.7895896 0.1705368 -0.6990924 -0.1440319 0.382125 0.4327325 -1.525895 -0.8355336 0.4266958 0.7993626 -0.3128709 0.02253538 0.7398845 -1.266632 0.1832632 0.8850162 -0.5051396 0.03595144 0.6248965 -1.080463 1.498114 -0.398073 0.8397819 -0.00300582 0.1297023 -0.1810649 -0.4947378 -0.8858043 0.2016244 0.04844319 -1.036236 1.175537 -0.693383 -0.685405 -1.574638 -0.3930767 0.4099015 0.4833935 -0.1997142 -0.7583367 0.6263929 -0.4353094 0.02880559 0.3404346 -0.6214572 -0.005630022 -0.992308 0.04061649 -0.3088694 0.14533 -0.06050045 -0.6257361 -2.024031 0.421002 -0.2953617 -0.4291614 -0.8600334 -0.6202244 -0.1619678 0.3599049 -1.97647 -0.9645574 -0.2753594 0.7488661 -0.557514 0.1043185 0.5496258 0.4238268 0.9868006 0.2176931 -0.04117354 0.4967695 -0.4506045 -0.6032811 0.8009846 -0.3630092 0.6951585 0.03052187 -0.7342467 -0.5445564 0.6955284 -0.553987 0.1417451 -1.112428 0.518276 0.1965097 -0.07644111 -0.1927411 -0.9129884 -0.8003636 0.5506583 0.4739276 0.5837343 0.4616984 0.8427055 0.08514844 -0.3239295 -0.3018447 0.02522229 0.06659339 0.8524094 -0.3787936 -0.1849208 0.880995 -0.1388364 -0.664161 0.3029121 -0.287945 -0.01255463 -0.09461108 0.1047131 0.8084132 -0.5607941 -0.3300665 -0.05601555 -0.05412382 0.7865435 -0.0115777 -1.047383 -0.05250782 -0.1166673 0.1447205 0.8121396 0.6106834 -0.008541653 0.2067867 -0.04524279 0.1130927 -0.02979532 -0.1296816 -0.2310784 -0.5487524 -0.02223366 0.3828436 -0.2502369 -0.150708 -0.5196616 -0.4354308 -0.3425827 0.3591554 0.3462645 -0.6123518 0.177148 -0.06632148 0.2619637 0.6974638 -0.02886121 -0.2417195 0.4557401 -0.5838758 -0.1125552 0.1656135 0.07107102 -0.4505318 -0.4666027 -0.1313619 -0.8102543 -0.6506947 1.281589 0.2429568 -0.009093171 0.04817279 0.3059644 -0.6767134 -0.1384346 0.3967163 0.2505823 0.7032007 -0.3479184 -0.4371227 0.08097073 -0.6529517 0.03817121 -0.3520662 0.1549535 0.996774 -0.1261233 -0.7761785 -0.03415386 1.472964 -0.1420437 0.7134423 -0.8099754 -0.2270142 -0.4476944 0.2404494 -0.3868429 0.1545407 0.66564 0.2097832 -0.06041344 0.252923 0.3728563 -0.3473788 0.2480012 0.3316762 -0.04798255 0.3426576 0.2401123 0.004398521 0.2769555 0.3008316 0.02169103 -0.6026403 0.6756061 0.1382107 0.3350855 0.2839522 0.372173 -0.3471215 0.1016246 -0.324222 0.5420558 -0.1178358 -0.112844 -0.4872116 -0.2470931 -0.2848963 0.4076172 0.4119769 -0.7816703 -0.4253288 0.3342066 -0.4178433 -0.1860916 -0.07363137 -0.275503 -0.5678952 0.0886664 0.04280298 -0.3085369 -0.08403409 -0.2888871 -0.6209414 -0.3669045 -0.257117 0.2549968 0.5361978 0.02596552 -0.3585485 0.1485768 -0.3064484 -0.5730723 -0.1345465 0.01129288 -0.4308088 -0.2888422 -0.2428102 0.1546062 0.1323416 0.2785832 1.183906 -0.02902002 -0.07475635 0.6495743 -0.3179545 0.7042415 -0.6035805 0.01272858 0.1629145 0.2266377 0.03352995 -0.1615976 -0.06532705 0.7513492 -0.7264488 0.198172 0.1323743 0.2415659 0.4049914 0.2514056 -0.02666077 0.1559872 0.356776 0.7983785 0.3174519 0.08545414 0.44489 -0.6858945 -0.6289539 -0.3904189 -0.3928373 0.3936428 -0.2720201 0.3073787 -0.4078667 0.05266003 -0.551191 -0.3705041 -0.6280519 -0.0687454 0.0438678 -0.0392475 -0.1396079 -0.4062883 0.1637804 -0.343612 0.3974367 -0.03351306 -0.2874415 0.1031453 -0.05786047 0.8031038 -0.7194769 0.3372583 0.2089646 -0.3453545 -0.14505 0.0589863 -0.2259258 -0.1656948 -0.02262758 -0.5265843 -0.08552045 0.2712125 0.1564533 0.593744 -0.1310641 0.3519692
eval_DH_0165 -0.01388978 -0.3953615 0.109387 -0.7126676 0.1727579 -1.728927 1.020994 -1.017466 1.147635 -0.3562067 1.813482 -0.1723628 0.1215417 1.65665 0.7063628 -0.1317767 0.8378012 0.2899978 1.100333 1.266161 -0.07673417 0.1574433 2.492707 0.5789564 -0.6130791 -0.7198392 0.9796473 -0.2856807 -0.8660871 0.5290677 -1.035264 0.6268146 -1.050916 -0.08557031 1.154177 -1.132661 -0.7902335 0.548955 0.2421406 1.040643 -1.34272 0.2953107 -0.9628292 -1.284358 -1.109824 0.6003177 -0.4843735 -0.2552965 -0.4352459 -0.5273932 -0.7233853 0.3150233 0.6644329 0.6051601 -0.3049113 -0.7506115 0.5280641 0.2071742 -0.1879053 0.4431171 -1.154049 -1.077114 -0.6322709 -0.1325357 0.9127519 0.009158527 -0.09430133 -0.3058381 0.5323999 -0.3753465 -0.3825 0.4635817 -0.3806089 0.8735225 -0.2540936 0.04753974 0.4508264 0.2360585 0.6468502 -0.04450118 0.4693224 -1.160314 0.2950677 -0.7389989 -0.8744952 -0.1946909 0.21289 -0.02102954 0.07376529 -0.07927459 -0.1163568 0.1987347 0.1280704 -0.06382763 0.2376994 -0.1966763 -0.2177717 -0.486563 1.133246 0.6817917 -0.5846512 0.232904 -0.6059957 0.3285242 -0.2962008 0.4635575 -0.7704416 -0.6172088 -0.6174818 -0.2463766 1.166608 -0.2094575 -0.07311539 -0.07883731 -0.4265702 -0.3362105 -0.1627553 1.099612 0.6239593 1.30305 -0.8005001 0.9271512 0.1230032 0.376234 0.09794437 -0.4396294 0.6153265 -0.3213673 -0.1459601 -0.4342168 -0.9883279 -0.5437506 -0.9601615 -0.7151982 -0.605195 -0.3103451 0.3014804 0.3376556 0.2923702 -0.1992093 -0.5672503 0.23026 0.07418358 0.2536003 -0.250038 0.200221 0.08473755 -0.1677712 0.5911705 0.3142471 0.1051711 0.05942511 0.8135452 -0.06007528 -0.5200557 1.096025 0.2336981 0.04248998 0.5480176 -0.2185269 -0.6051313 0.07337251 -0.4982767 -0.1573936 -0.09516788 -0.04876926 -0.01221411 0.4372493 0.5392924 -0.04550611 -0.2745 0.03078825 -0.2055646 0.02339373 0.07518655 -0.199145 -0.3899817 0.4145578 0.8784925 -0.4612169 1.17794 -0.463865 -0.3404825 0.6495324 1.159659 0.6657774 -0.6843363 1.07475 0.8859121 -0.8147853 -0.3545749 0.1574448 0.6155118 0.1385979 0.06776992 -0.4708347 1.311879 0.6224085 -0.4289498 -0.6451273 0.4738451 -0.3504626 0.3376858 0.6229897 0.6813666 -0.3322342 0.563581 0.03125398 -0.02583464 0.01901386 0.02690287 -0.4382906 0.5085106 -0.258722 0.1824468 -0.6746957 -0.2619648 -0.4029345 0.3612255 -0.839855 0.4477356 -0.1457891 0.4341679 -1.152596 0.2527037 -0.2155712 -0.2411421 -0.7446935 0.3357727 0.4060789 0.4122013 -0.6188052 -0.3633494 0.5907824 -0.7761198 1.246097 0.09747887 -0.501157 0.06826717 -0.2892842 -0.659234 0.4924645 -0.09078702 -0.1838319 -0.07092456 0.4598165 -0.359432 0.3898351 -0.5275857 0.3153817 0.1041671 -0.0673677 0.3855378 -0.201105 0.7448224 -0.3137047 0.6466886 -0.5783449 0.4730711 -0.1657279 -0.3166947 -0.1408421 1.054114 -0.2184551 0.01507122 -0.04727862 0.02489362 0.1301813 0.1097932 -0.2807072 0.2122086 0.7036232 -0.805848 0.06501584 0.007704407 -0.1233167 -0.3331856 0.1072423 -0.2837082 0.7487947 0.1352028 -0.1856612 0.07861549 0.2520737 0.1513418 -0.1916896 0.5050145 -0.4439042 -0.1585558 0.3016155 0.1412755 -0.1653928 -0.1704521 0.2076712 0.1763054 0.7813113 -0.6534705 -0.1241684 1.148904 -0.2720577 -0.2299478 -0.5969382 0.4386091 -0.3791767 -0.6061675 -0.06591989 0.2749771 0.8463852 -0.4750553 0.1947996 0.1032054 0.1583643 -0.720279 -0.4933765 0.03786456 0.3085574 -0.2109673 0.4593933 0.1540359 0.04404144 -0.139 -0.1072546 0.2406542 0.1317168 0.3314446 0.317802 0.07950099 -0.6315397 -0.4877816 1.18528 0.3053267 -0.9715807 -0.1997681 1.177594 0.2367707 -0.04010099 -0.731993 0.698325 -0.3162266 -0.7369488 0.3175636 0.2040397 0.2983992 -0.3104564 1.140988 0.7877513 -0.1663759 0.1402028 0.1940234 -0.3407349 0.2153142 0.03875767 0.02687144 -0.3866435 -0.2102609 0.4579446 -0.03972791 -0.03037972 0.2332696 -0.4883977 -0.4342299 -0.1186825 -0.2672317 0.2133902 0.3806805 -0.2203424 0.2631864 0.6975278 0.05354884 0.3363424 0.2367563 -0.05483754 0.7689603 0.03879891 0.3564377 0.189694 0.4389672 -0.1224264 -0.1874484 0.8276536 0.2203359 0.3885935 0.400911 -0.3538603 -0.9773668 -0.7458518 0.1306359 -0.3494433 0.713479 -0.3629898 -0.807952 -0.2809085 0.08400138 -0.2951873 -0.2117479 0.4857221 -0.1371158 0.08873593 -0.353198 0.147136
eval_DH_0166 0.4312998 -0.3842741 0.4751294 -0.02272494 -0.7461687 -0.4312004 0.1495814 0.4424905 -0.3008968 0.5584629 -0.5940852 0.6224985 0.7963241 1.111848 0.1745596 1.042102 0.778055 0.06806917 0.6792796 -0.4351542 0.4568872 0.09287512 0.328766 0.8483639 0.1230004 0.02813442 0.2162073 0.03529688 0.03312176 0.8408499 -0.1870942 -0.04081578 1.338493 -0.1444821 -0.6351536 1.001162 -0.6899077 -0.0878826 0.8278556 -0.5635614 0.5817192 -0.651742 0.7227665 1.065344 -0.4051821 -0.03079412 -0.9847498 -0.6522754 0.4003119 0.1977575 -0.2515854 -0.5037208 -0.1954471 0.4223553 0.7134944 0.3988836 -0.546388 -0.5033226 0.9838293 0.3126194 -0.7083179 0.423725 0.627463 0.2016102 -0.4826317 0.4616519 -0.7118864 0.6599 -0.2876589 -0.4026193 -0.7139266 0.233502 0.8862852 0.5667241 -1.270083 0.271229 0.5030674 -0.3526352 -0.5042648 -0.3787338 -0.225343 -0.7157233 0.8824214 -0.3192761 -1.001237 0.4097218 0.1084091 0.05365915 0.09756574 0.5464572 -0.2031873 0.7310483 1.352966 -0.2733899 0.4228098 0.2330072 0.3096034 1.369862 1.374103 -0.6623166 -0.4283494 -0.6610143 0.1142968 -0.0676984 -0.299908 -0.1220765 -0.1855793 0.3233202 0.5285583 -0.3030534 0.1269538 0.4722733 0.1636481 -0.8065733 -0.148114 0.4266872 0.162839 -0.5067532 -0.2207934 1.034151 0.3159941 0.02200832 -0.9280897 -0.9472324 0.3127445 0.5423607 0.1478711 -0.2613093 0.3310632 0.5584347 0.06132683 0.2382074 -0.864016 0.4189423 -0.3725182 0.238693 0.6677986 0.08923197 0.2361358 -0.005433614 -0.6328383 -0.6303734 -1.97736 -0.08665225 0.7238755 0.3393731 -0.2301989 0.4453624 0.1066596 0.5831199 -0.4877917 0.2031929 -0.7848901 0.6132515 -0.1958307 -0.1414412 0.5008713 0.09300886 -0.7807539 -0.4409758 0.3467157 0.570859 -0.5643206 -0.4835262 0.2119613 0.6708243 0.09233898 -0.3948739 0.2021456 -1.096894 0.02646011 -0.1421687 0.2350397 0.05768605 -0.7741985 -0.3219468 0.6901634 0.4330671 -0.3154477 -0.1875633 0.02910921 0.3501545 0.08932751 -0.5793725 -0.009540625 0.7076364 0.06369258 -0.4778473 0.2611597 -0.1763278 -0.6924803 0.3783409 0.3002415 0.2082433 -0.3036624 0.1853808 0.1595693 0.273437 -0.1034779 -0.2505341 -0.4706673 -0.03150342 0.6835498 0.3506961 0.06323576 0.2456967 0.1388524 0.2335243 0.4230638 0.969867 -0.4310948 -0.2086854 0.1663066 0.2245076 0.1774575 -0.06459177 0.0972499 -0.2640556 -0.6645902 -0.1260642 0.6431905 -0.2316432 0.1476734 -0.3373972 0.1015626 0.427172 -0.1591677 -0.3517227 -0.4706195 0.6242657 -0.03288477 0.02083137 1.115616 0.1927818 1.107678 0.09005207 0.04364086 -0.02806948 0.02815854 -0.1543507 0.2689537 0.1935595 0.05857426 0.1068649 0.1129764 0.1267066 0.01358266 -0.1813525 1.221671 -0.3391742 -0.204825 0.01376968 0.4310773 0.06609596 -0.2637291 0.1984737 0.06398998 0.5137349 -0.3278758 0.7249806 -0.1342239 0.3455943 -0.5272412 1.04465 -0.6518864 -0.07427992 0.3556288 -0.1156933 0.2760709 0.222944 -0.3206636 0.04659135 -0.3055564 0.0377922 0.1866674 0.0006762571 0.3310398 -0.1363891 0.2763555 0.04129623 -0.1615516 -0.2076018 -0.4365079 -0.4526139 -0.2264773 0.1742328 0.572375 0.6398392 0.3223083 0.1316298 0.2011109 -0.1602691 -0.2918481 0.3806106 -0.1836814 -0.03160629 -0.4412289 -0.1657611 0.3950761 -0.4729613 0.3623753 0.1043079 0.05304615 0.1588351 0.03705064 -0.7801434 0.2162 -0.08439039 -0.08792772 -0.2446266 -0.7856205 -0.7777344 -0.2958605 0.2058218 0.1769606 0.1031048 0.07680921 0.1962531 0.1341338 -0.009870317 -0.09752823 -0.2316084 -0.5037836 0.2194804 0.08492521 -0.03401043 -0.1903071 0.2910252 0.4169578 -0.4663777 0.02416793 1.126733 0.1934995 0.3647168 0.1053318 -0.1540191 0.3628983 -0.05945009 -0.493091 -0.3824807 -0.5349265 -0.5629451 0.4436758 -0.2201888 -0.36701 0.3917744 -0.2740695 -0.2915287 -0.9416186 0.002218606 -0.02592228 -0.1281215 0.4246641 0.3863688 0.1561021 -0.1775211 -0.04813259 0.07356645 0.0388853 -0.1482314 -0.2750189 -0.1366082 -0.05908384 -0.1539971 0.1230401 -0.01323199 -0.06918477 -0.5674126 0.3289716 -0.09623629 -0.3494384 0.05159236 -0.08552097 -0.03835507 -0.1173803 -0.0157776 0.2316276 0.07988978 -0.5474226 0.3375577 -0.2500986 -0.6612899 0.4077863 0.0004213226 -0.1649581 -0.7662338 0.4341573 -0.1192397 -0.3793424 0.6358343 0.1288254 -0.2969234 -0.19514 0.5677149 -0.4500196 -0.03421918 -0.1358777 -0.3308175 0.1817402 0.1486458
eval_DH_0167 0.0649697 0.2389336 2.134857 -1.805852 -0.1612116 -0.3573448 0.9688792 -0.6616839 -0.07908499 -0.3597617 1.406154 0.2206308 1.433092 -0.5866441 -1.143101 0.6670883 0.1840932 -0.594592 0.3224849 0.4136699 -0.2867793 -0.3840388 0.4184576 -0.2764349 -0.7577718 -0.3199129 1.02134 -0.1413038 -0.9690523 0.02554549 -0.4939373 1.05793 -0.9186652 -0.1249633 -0.5618014 0.07386708 -0.2214485 -0.2457001 0.5096105 0.02418787 -0.4778499 1.061172 -0.5786585 -0.09309442 1.112783 0.166197 0.4262235 -1.249036 0.3534618 -0.4979486 -0.2798454 -0.3373757 0.1096584 0.3508543 1.217424 0.6021668 0.8718766 0.1564774 -1.280898 0.1396282 0.2263784 -0.06527569 0.1266873 0.4457099 -1.209988 -1.046578 -1.663036 0.6921664 1.048576 -0.4568776 -0.05257297 0.2688345 -1.241199 -0.6261923 -0.114538 -0.5004278 -0.7048554 1.132058 0.9531313 0.06020879 0.3721709 -1.241823 -0.3175185 -0.3309607 0.2768601 0.4122435 -0.1502224 0.2994137 0.4722254 0.8860446 0.785493 0.2310809 0.9019285 -0.04290252 1.825009 -1.021543 -0.5055073 0.1205821 -0.8442101 0.02330375 0.1584317 -0.4364703 0.4281631 -0.8148409 0.4170929 0.3722283 0.769727 0.03698702 0.3273669 -0.5134935 0.6316292 -0.2973422 0.03181084 -0.09199065 0.4638194 -0.6347016 0.2014596 0.650619 -0.3580022 0.1230604 -0.558704 0.165243 -1.386565 -0.9578644 0.009499104 -0.3872916 -0.695546 -0.2424918 0.6268866 0.7247041 -0.1588521 0.9467301 -0.2176151 -0.5113513 0.08023225 1.078499 -0.4511675 -1.046006 1.511091 1.01466 -0.6142186 0.7594234 -0.7181947 0.6742291 -0.8311848 -0.774252 0.2565765 1.424292 -0.3440505 -0.1764697 -0.3209881 0.2647764 -0.3872288 -0.2382126 -0.1540161 -0.5237746 0.1676666 0.009679507 0.06355699 -0.9982103 0.584366 0.1501878 -0.6350877 0.573064 1.045281 -0.007770777 0.3100699 -0.7046818 -0.1213398 -0.2705879 -0.3631466 -1.146355 -0.3164689 0.3091075 0.6371506 0.4992232 0.0809184 -0.5728716 0.05850784 0.3406616 -0.9118614 -0.1447998 0.2499228 0.7272931 0.00377969 0.7838895 0.5931763 0.2053878 0.04625406 0.474915 0.1711394 -1.07226 0.6569349 -1.044549 0.3341595 -0.2784851 0.1706672 0.2853512 -1.173759 -0.6945217 -0.4370258 -0.2792678 -1.122985 0.02671266 -0.3086876 0.8983805 1.679609 -0.3518751 -0.4675618 -0.2956806 -0.01036746 0.5050704 0.298577 0.6533086 -0.3164467 0.2637627 1.258691 0.02662945 0.2657849 -0.07169351 -0.5962903 0.5578527 -0.4271033 0.5088081 -0.4105809 1.002167 0.1938649 0.1274786 0.5606018 -1.5945 -0.6847489 -0.01569528 0.8639681 -0.61493 -0.3310504 -0.5686014 0.3866412 -1.074838 -0.9668643 0.9970496 -0.4543439 -0.3958791 -0.2788318 0.3352075 0.09591502 -0.3095129 0.06169291 0.5975744 0.5570527 0.4058192 -0.4390483 0.1661261 -0.5250937 -0.823775 0.5021101 -0.3940795 0.4022286 -0.5840439 -0.8647045 0.5835096 0.02263596 0.4877674 0.6488091 -0.1603876 -0.3497546 0.8384547 -0.2620417 0.06217315 -0.235572 -0.1624911 0.08617293 -0.1170249 -0.9350337 0.9088086 0.3081898 0.5125245 -0.167148 0.5234609 -0.009138191 -0.1509188 -0.7174594 -0.1587312 -0.8195663 -0.4236408 0.3437348 0.4748259 0.1980111 -0.6794486 -0.3142547 0.9623655 -1.103619 -0.1913883 0.02751528 -0.07447797 0.02315044 -0.215884 0.1495183 -0.2229085 0.3726481 -0.3681763 -0.1498801 0.5690593 0.3585347 0.6293893 0.8535224 -0.02141335 -0.517487 -0.205411 0.5562583 -0.3458764 -1.235808 -0.5129009 0.8117731 -0.5663202 0.1768938 0.1359903 -0.05428302 -0.7448171 -0.1579199 -0.1034137 -0.2006614 0.1553607 -0.7065829 -0.2868289 0.36144 0.2518682 0.07210117 -0.0769219 0.7826307 0.5720037 -0.1723211 0.4576083 -0.85436 1.085938 -0.1718837 -0.3979513 -1.208847 0.9599268 -0.2410988 0.3401616 1.10432 0.3530924 0.2184974 0.1692983 0.1407988 0.4770137 -0.2775428 0.3664662 0.4614141 -0.04802196 0.07723239 0.8486183 -0.3359714 -0.05703464 0.5026091 -0.7749239 -0.06334783 -0.3462712 -0.02329811 -0.7465891 -0.4473371 -0.2783499 0.5770907 -0.5275639 0.354737 -0.2692944 -0.4519148 -0.4953942 0.6129899 0.05587725 0.2768972 -0.8053923 -0.1026984 -0.6762328 0.6843891 -0.4788075 -0.9083538 0.5023464 -0.1510737 -0.01428092 -0.7176609 0.2135816 0.8121353 0.691604 0.2260144 0.4211387 -0.0311485 0.1963054 0.1046394 0.3352334 -0.06833342 0.1115605 0.3960861 -1.108384 -0.1126433 0.2407285 0.2529651 -0.2919661 -0.5824655 0.8985977
eval_DH_0168 0.4467674 -0.7546594 0.1189234 -0.8324353 0.04122191 -1.238435 -0.4643195 0.8301337 -1.092557 0.7609062 0.6784705 0.3630958 1.564973 0.8353635 1.603335 0.594815 0.937994 -0.9947155 0.2361688 -0.3890116 -0.09763478 0.2522295 0.9870241 0.8768679 -1.178982 0.2576054 0.2034788 0.03955726 1.108249 0.5675078 1.733063 -0.1809606 -0.8392634 -1.147041 -0.8477389 -0.466521 -0.4633358 0.5658454 -0.275778 1.780601 0.6987035 0.8404735 1.920629 0.1119191 0.1837964 0.1187982 -0.1557271 -1.37538 0.5851473 0.02466672 -0.2328915 0.9527448 0.4538347 0.8917255 0.5380871 -1.669651 0.9368156 -0.2615323 1.07269 -0.9144869 -0.07322522 0.3020245 -0.3278858 -1.002865 0.2829992 0.6311605 0.4528043 -0.07309587 0.9566588 0.1466495 0.4611805 0.7869737 0.2115529 -0.820734 -0.27009 -0.8054644 0.1559631 1.049917 -0.6983821 -0.291227 0.3539367 -0.5425307 -0.30876 -0.5114198 -0.4571398 1.155878 0.6633466 -0.08827944 -1.106481 -0.3785942 0.4333232 -0.66698 0.2803371 -0.1507088 -0.7822439 -0.9132452 1.478707 0.4802404 0.32545 0.6009344 0.9103304 0.4334083 -0.6821975 -1.083552 1.19457 0.2680461 -0.523652 0.4302061 -0.8952959 1.230533 0.389203 -0.2378342 -0.4458916 -0.02723191 -0.1625018 -0.08367141 1.141872 0.05031882 -0.2218474 1.12493 0.3299632 0.8908308 1.096211 -0.01581909 0.1577395 0.1316599 -0.4196846 -0.9916034 -1.954153 -0.4306556 0.3254614 -0.1097059 -1.413322 -0.05989698 -0.1429783 -0.06878202 0.3929965 0.1687179 -0.283343 0.844974 -0.07767555 -1.612613 -0.515074 0.1898585 0.8646444 0.7203965 0.7340503 -0.08471367 0.3089279 0.7038689 -0.2160356 -0.1574112 -0.6241756 -0.1138943 0.6827335 1.134236 0.5135767 -0.5672112 -0.05507617 -1.088392 -1.09585 0.07912282 0.07341775 0.01696671 -0.751902 0.5280305 -0.7349391 0.4097802 0.3495417 -0.160071 0.0581186 -0.04064254 -0.5137202 0.6921248 -0.2676947 -1.446013 -1.131236 1.016237 1.21793 -0.3701564 0.5614433 -0.2485408 -0.2900297 0.2146126 0.3736723 -0.003825253 -0.4888133 0.2827564 0.5147806 -0.3356279 0.0923733 0.01401143 -0.6204305 -0.215055 0.8600006 0.7187045 0.06645679 0.2879029 0.737911 -0.2822643 0.1908861 0.4398615 -0.05359015 0.384084 0.4020959 -0.3925886 0.3615986 1.155112 -0.06309564 -0.9367872 -0.6287047 0.6757237 -0.1012663 0.1181483 -0.8458856 0.6179766 1.085309 0.08389436 0.4545493 -0.5430992 -0.0142241 0.8240216 -0.1876018 0.3708638 -0.7953429 0.1663815 0.425925 0.1174722 -0.4108501 -0.09932227 0.03058284 1.24589 -0.3116308 -0.3607377 -0.1058448 0.6180433 0.9534927 -0.04986984 0.003080632 0.4697498 0.4195363 0.2419506 0.5262676 -0.5987622 0.6136463 -0.4237669 -0.07248683 0.1543805 -0.2626776 -0.3362519 0.1441389 0.3569567 0.441743 0.2552195 -0.3426985 -0.3135022 -0.4973742 0.1754977 0.5992522 -0.2544076 0.08784699 0.1832536 0.4173899 0.2666572 -0.2479689 -0.2328909 0.3102135 0.5368429 1.424377 -0.3250706 0.3588889 0.2961487 -0.2562828 0.09750959 -0.2188379 0.1019231 0.2841056 0.02087062 -0.5482696 0.2307684 -0.4123453 0.8892783 -1.52311 0.3956693 0.05459603 -0.06498322 -0.1821906 -0.2839493 0.147181 -0.7707903 0.4401194 0.2119941 -0.2607581 -0.9102023 -0.1479772 0.4609914 0.1561922 -0.7243503 0.4475179 0.3080836 0.3053096 -0.4786354 -0.2269241 -0.2220904 0.3946828 -0.5148587 0.5146608 0.5824521 0.4586038 0.5497391 0.03158924 -0.147684 -0.209682 -0.1586286 0.05217153 0.3565332 0.6496722 -0.3183538 0.2614806 0.09311208 0.1676324 0.03999403 0.0003269824 -0.1973555 0.04739667 0.3145832 -0.8077682 0.2818776 0.5060286 0.2813886 -0.2137521 -0.8175662 -0.5168388 0.7545864 0.3031657 0.07598338 0.1459613 0.01465634 0.5665314 -0.6203825 -0.4310559 -0.3920312 -0.001075476 -0.9335466 -0.3104031 0.5240443 0.1891736 -0.1391163 -0.5903213 -0.06024181 -0.5529626 -0.2802856 -0.309964 0.6011139 0.6934993 -0.2704437 -0.09881613 0.5712076 0.2724409 -0.1916764 0.03247763 -0.35286 -0.681731 -0.1744557 0.3621601 -0.4179223 -0.7364626 0.1995976 -0.2540964 -0.4386171 -0.2086282 -0.009344238 -0.3390471 -0.00939786 -0.2746886 -0.1280882 -0.1527968 -0.07106177 0.02681882 0.02725866 0.3475136 0.1060094 -0.681549 0.3281447 -0.1856517 -0.1382997 -0.2441377 0.2486522 0.08615533 -0.5284215 0.4259475 -0.5561943 0.1075778 -0.004910392 0.4238312 0.06105645 0.3726594 -0.1072861 -0.09691076 0.2859297
eval_DH_0169 -0.6240552 0.2918163 1.352494 -1.041715 0.4969265 -2.373152 1.031645 1.258578 0.09208457 -0.6295366 0.6205422 0.4934123 0.1535387 0.004009667 -0.8249044 0.1399949 0.9030296 0.5568353 0.249234 0.5588918 -1.159818 -0.512949 0.6041012 1.104185 0.9781554 0.02184746 0.826712 -0.1361252 -0.7298233 0.9312034 0.2946631 0.5938458 -0.9931908 0.4825324 -0.2417902 0.3796447 -0.6126649 0.2336751 -0.2874188 0.1284866 -0.3356318 0.5286545 -0.4035634 0.04178441 0.3115216 0.6773382 0.1336895 -1.067946 -0.7300134 0.6044449 0.4397641 0.8307602 0.2843337 -0.5798942 -0.8746457 -0.04299036 1.458731 0.5465584 -0.02267634 0.4599449 -0.08742028 0.4111146 -0.3200158 -0.05871316 0.612018 0.2405535 -0.3639283 1.279094 -0.5209512 -0.3635834 -0.5022224 0.368509 -0.305003 -0.6046112 0.06830504 -0.1456748 0.141211 1.109707 -0.2234025 0.5068507 -0.591186 0.3833002 0.4181168 -0.256053 0.3673458 0.7247387 -0.1397565 0.01752895 -0.0837322 0.1538449 -0.4587638 0.7285236 0.2942392 0.2378443 0.8851395 0.1298499 -0.06326243 -0.001262682 -0.3596679 0.8724433 -0.1045467 0.3339389 0.1334374 -0.7905561 0.04603586 1.335362 -0.4868047 -0.4853278 0.2893017 -0.6259991 0.9598284 -0.1500004 0.8125505 0.6826637 0.05580154 -0.3877251 0.003812233 0.5698534 0.04181952 0.2732003 0.235773 1.214941 0.3122727 -0.5982583 -0.3699854 -1.53523 -0.02803296 -0.5380219 -0.07516598 -1.126934 0.006557251 0.3468297 0.6979066 0.1504485 0.09232251 0.05061864 -0.8117469 -0.4170437 0.03281473 -0.3342369 -0.3609464 -0.6652876 0.07290975 -0.1202539 0.05378672 0.6526943 -0.04139575 -0.4757925 0.208603 0.7002102 -0.6393515 -0.7909481 0.2148632 -0.04503282 0.3444706 0.2152056 -0.2958426 0.3331725 0.01873268 -1.237299 -0.9125079 0.5150993 -0.2252411 -0.4647009 0.08951898 -0.01124497 -0.558705 1.100415 -0.3076922 0.2287346 0.5050597 0.3432395 -0.1523305 -0.8888534 1.149603 -0.00609854 -0.3393579 -0.2424721 0.3764251 -0.7542326 -0.6904488 0.3814816 0.008908391 0.8798351 1.00886 -0.5780271 -0.3340539 0.8718022 -0.2187859 -0.4194575 -0.1682254 -0.3111947 0.2988658 -0.9370186 -0.02145314 0.2945286 0.3589287 -0.07111302 0.6189191 1.054394 -0.4180624 -0.8661722 -0.9463673 0.5461235 -0.07474916 -0.4642986 -0.138868 -0.1340158 -0.9953911 0.2290598 -0.6321847 -0.1248626 -1.761411 -0.08387207 0.6311361 -0.3240809 -0.6692725 -0.6461319 -0.2684755 0.2444937 -0.4526504 0.6528434 0.1540216 0.7446188 -0.4669665 -0.7449051 -0.2490612 -0.1263668 -0.470247 -0.7697031 -0.2117485 -0.2435222 -0.6292 0.4160252 0.5156478 0.3054237 0.3616577 1.068797 -0.9546741 0.02279787 -0.02535882 -0.01042232 0.276528 0.3411135 -0.3268022 -0.4273076 0.5670066 -0.1778945 0.1181751 -0.06120868 -0.2041364 -0.1578972 0.02889715 0.2903935 0.2548946 -0.1023138 0.3081833 0.02073254 0.1060354 0.3566264 0.226616 0.05450123 0.5621508 0.2953348 -0.006523363 0.008322765 -0.3755586 -0.4729536 -0.3100105 0.1570299 -0.7126316 0.6931269 0.06345212 0.8149948 -0.850388 0.330827 0.1911491 -0.4285262 0.3512861 0.6831664 -0.01187195 -0.1906589 -0.8842478 -0.4514403 0.390661 -0.1198732 -0.02933582 0.2074006 -0.02574308 0.2583365 -0.1208747 -0.5730431 -0.02575818 0.03593129 0.178638 0.04159356 0.05164654 -0.4456576 0.7558626 0.5835164 -0.3490062 0.2733007 0.3897727 -0.2433037 0.2040593 0.2095446 -0.01308328 -0.03121396 -0.0714021 -1.184327 -0.2988987 0.537968 0.6780407 0.2646498 -1.321246 -0.005819262 0.4067647 0.2466813 -0.1908903 -0.9288359 0.6186219 -0.6800324 -0.2586854 -0.6418426 0.1941111 -0.2356607 -0.1662281 0.8158597 0.6378582 0.4250305 0.09763452 -0.5135013 0.08555442 0.3439831 -0.5854045 0.09638066 0.256355 -0.04465799 0.652756 -0.5896204 -0.03408857 -0.1169078 -0.1311326 -0.6881245 0.5316361 -0.1485299 -0.1577082 -0.295498 0.2150459 0.1345622 -0.1960305 -0.01713642 0.1407919 -0.1299903 0.1409079 0.1134961 0.5977194 0.1829789 0.818962 -0.2860611 -0.04048924 -0.7613096 0.1168643 -0.2009049 0.3795887 0.2710901 -0.04523389 0.1052007 0.1742619 0.04567604 0.375891 0.1703123 -0.1671521 0.2781619 -0.4730164 0.5189144 -0.45946 0.4530888 -0.2807794 0.6109043 0.4941486 0.8256795 0.5877085 0.4121716 0.6442072 0.2405474 0.5781943 0.01518407 0.2054428 -0.05571313 -0.4433089 0.215397 0.2406563 -0.5820994 0.06437922 0.9006053 0.1642932 -0.4250591 0.5815678 0.3803027
eval_DH_0170 -0.2811324 0.2433842 1.353051 -0.6908548 1.320545 -1.76751 -0.09053501 1.897335 1.09679 -1.51259 0.6849654 -0.9124275 -0.7572721 0.5422512 0.3460338 -0.9057252 2.228487 -0.02725362 -1.099179 2.945085 -1.010868 0.03987173 0.2678982 -0.9552064 0.8365536 -0.1379259 0.613753 -0.8214031 1.651241 1.606338 -0.5846609 -0.1994132 -0.4133907 -0.1075581 -0.03267316 -0.3757363 0.4910494 0.4071456 -0.9103753 0.6093409 1.462562 -0.6167241 0.3759755 0.5351987 -0.1565891 -0.654202 -0.00535664 0.6010373 0.06267516 1.435146 1.007457 1.077668 -0.3292819 -0.8903583 0.1906891 0.2441384 1.144661 -0.06412505 0.1557953 -0.02497955 -0.1652784 -0.7769024 0.4497765 -0.792966 0.5022187 1.052444 0.1799827 1.429126 -0.5019027 -0.6163791 -0.1052088 -0.2395131 -1.24271 -0.6900523 -0.6870237 0.3483958 0.02210063 0.01639202 1.077659 -0.5349404 -0.2964551 -0.1866957 -0.3520225 0.06155235 1.205529 0.8197845 0.8878034 -0.1858576 0.2041831 0.9787629 0.1172876 0.8409454 0.4232267 -0.1257498 0.1401598 -0.08871037 0.3517642 -1.729381 -0.5618178 0.09533032 -1.103551 -0.009557075 -2.022013 -0.242717 -0.1044626 0.9387985 0.04085284 -0.4066115 -0.8193946 -0.915464 -0.59781 0.01955766 0.5287333 1.680898 -0.2219507 1.09089 0.01841497 -1.630723 0.4100016 1.466088 0.8938429 0.6567225 1.472827 0.08938952 -0.8617378 -0.2449308 -0.1306827 -0.6406737 0.4561557 -0.1184073 1.31133 -0.4970515 -0.305826 -0.2843529 -0.7742455 -0.2445398 -1.399124 -0.7158993 0.1434938 0.1479425 0.0954771 0.2970889 -0.5451047 0.1709713 0.6017135 1.015609 0.1580355 -0.3894723 0.7793884 0.03780698 0.6795965 0.1413329 1.063308 0.2244461 -0.08425154 -0.6255763 0.07336843 0.3222826 0.4851958 -0.04960468 0.4973367 0.4870661 0.02716383 -0.3596838 0.1727839 0.02093408 0.9678918 0.6294965 -1.118754 0.8630686 -0.3019076 1.393158 -0.1949082 1.182917 -0.1175559 -0.3523815 -1.251158 0.4695826 -0.5894682 -0.1486617 0.4385249 0.7441548 0.5183398 -0.5550578 0.7903281 0.9037547 -1.64647 -0.2161391 0.8511475 0.0773043 1.368587 -0.6820242 0.9505968 -0.4225989 1.020224 -0.2818211 0.1718981 -0.6962637 -0.3106804 -0.5944102 -0.7581106 -0.707599 -0.756417 -0.7160915 -0.393651 -0.4263636 -1.538581 -0.04351196 -0.1437412 -0.5101067 -0.6524112 -1.080291 -1.024182 0.4376768 -0.987512 1.391814 0.3580143 -1.069489 -0.1743568 0.02268255 -0.1388082 1.633463 -0.3588453 -1.518154 0.4317166 -0.3804806 0.3717976 0.2253212 -0.3590009 -0.04653748 -0.1460614 1.345223 0.3883304 0.4624173 0.3822704 -0.02952003 0.2231784 -0.9992799 -0.03422659 -0.5238712 0.4569243 -1.109609 -0.4670674 -0.3440399 -0.9087597 0.3579977 0.7872267 0.4284688 -0.5806831 -0.8196691 -0.918777 -0.7408633 -0.3465284 0.1731641 0.7285221 -0.2412416 1.052137 0.7539596 -0.09968107 -1.147605 -0.1466281 -0.7303038 -0.4506367 -0.7155223 0.2501816 -0.7055299 0.03148048 0.6297309 -0.5267027 -0.002677693 0.440437 0.2118318 -0.7121482 -0.8079548 0.9106776 0.2113555 -0.8428215 -0.3396036 0.09879498 -0.6214201 -0.4592587 0.6698081 0.7860163 -0.710194 0.3623241 0.5103029 -0.5761732 0.6654716 0.6558701 0.1720969 -0.0447394 0.06407594 0.79711 0.276899 -0.8482758 -0.9872279 -1.109794 -0.8908163 0.6667087 0.3006342 -0.2430256 -0.5248682 0.01734761 0.4608784 -0.8211187 0.1047227 0.4982594 -0.08755646 0.1207783 0.2836872 -0.8939373 -0.07052524 0.7909725 -1.331803 0.1626006 -0.2835249 -0.09806637 -0.7241284 -0.6864886 0.7175385 -0.07677964 -0.002991734 0.0595484 0.3759619 0.9359521 0.1167924 0.2235885 -0.3381481 0.05912787 0.4203396 1.094624 -1.06595 0.202129 0.08543476 0.08618386 -1.123528 -0.004276786 1.166623 0.1869625 0.8251947 0.6139233 -0.1947232 -0.01560843 -0.07609995 0.449708 0.6123606 0.4660982 -0.7440109 -0.7420589 0.9001445 -0.6197501 -0.2973798 -0.02184048 0.2812645 0.5369158 0.3578348 0.5117406 0.1630819 -0.227073 -0.3478807 -0.3698821 0.2206456 -0.220563 -0.619097 1.000247 0.2648483 -0.7198669 -0.1141076 0.269631 0.3382323 0.8097519 0.6512434 0.1835633 -0.2531813 -0.5128053 0.4139597 -0.05413291 0.1297227 0.04066227 0.3989686 -0.5886342 0.1450769 1.014176 -0.7856363 0.09179405 -0.4584504 0.5206172 -0.6280081 -0.7782006 -0.9014117 -0.1382847 0.2502231 0.593621 -0.08783107 0.4312508 0.784136 -0.5527266 0.551163 -0.2737529 0.2539589
eval_DH_0171 -0.1276701 -0.06117747 2.253014 -0.8234821 0.8317738 -1.252469 0.7158474 1.763649 -0.3582128 -1.31805 0.05828506 0.4687366 -1.66051 -0.7732264 -0.5051715 -0.3524599 0.538148 0.1491597 -0.6893229 0.4766259 -0.3567523 0.1553296 0.670798 0.7192839 0.3551749 -0.3842079 0.02962259 0.519386 -0.192562 0.3116713 -0.6635479 0.7352334 -0.2566494 -0.3485982 -0.2998953 -0.378426 -0.4775889 -0.8794459 -0.6137028 1.266239 0.5875598 -0.01513613 -0.4129334 -0.2969171 -0.08883812 0.2660476 0.1445628 0.147783 -0.08452786 0.1243294 0.6374103 1.117691 -0.2343757 -0.1338957 0.7365853 -1.351254 0.5437527 -0.2608711 0.2133473 0.1606452 -0.6147025 0.1601361 -0.1687399 0.1841858 0.3129305 0.1071176 0.6536016 -0.5962968 -0.4562556 0.2985814 -1.029629 -0.4418025 -0.8366088 -0.01193582 -0.5106115 0.7243975 -0.2378358 0.8732938 -0.1692093 -0.1095802 -0.6730748 -0.09591915 -0.4343544 0.0865993 -0.6831063 0.3972004 0.5481009 -0.7929673 -0.2898106 -0.2005695 -0.3957544 0.3910545 0.4162628 -0.8160707 -0.07560369 0.1365199 0.5680102 -0.603388 -0.7081204 0.2741978 0.1656592 -0.6240391 -0.0901357 -0.5202693 0.6586257 1.121985 0.684444 1.052761 -0.2119671 -1.246593 0.178948 1.002802 -0.0565559 0.3601601 -0.7725696 -0.1007188 0.028766 1.159078 -0.1132933 0.4863458 0.5896456 0.3805883 -0.5416021 0.764201 -0.7309331 -0.7192097 -0.08481958 0.2528738 -0.1391614 -0.002113641 -0.7433908 0.2920838 0.5975513 0.05923362 -0.2676861 0.02358148 -0.4208829 -0.471029 0.2669879 0.1341265 -0.8124204 -0.8853127 0.207126 0.3405663 -0.3460459 0.5864451 0.4877158 -0.3806629 0.09088965 0.7182602 0.2600545 -0.2357865 -0.1667368 0.1706575 -0.420947 -0.5273725 -0.9158177 -0.2779333 -0.07376807 -1.142023 -0.2963917 -0.7430285 -0.3811113 -0.3230826 0.03067822 0.857688 0.1892342 0.6272542 -0.5915738 -0.1234709 -0.09384765 0.09015323 0.5665259 0.4070191 0.9311907 0.5508089 0.376665 0.2772094 -0.1336665 -0.3737507 0.3973957 -0.3827828 -0.2758807 -0.06332058 0.9157122 0.8043932 -0.4154541 0.1746977 1.00968 0.3863796 -0.2818709 0.0980313 -0.001185195 -0.6189578 0.6821916 -0.1272064 0.07674584 0.6356233 0.1114875 0.5619565 -0.7394829 -0.3358963 -0.2796654 0.03594057 0.2943224 -0.6234862 -1.163097 -0.5532099 -1.297664 -0.6655439 0.2025058 -0.06561435 -0.1151346 0.8791431 0.5027798 0.4105489 -0.1014996 -0.4715697 -0.1938821 -0.3527654 1.227561 0.2805668 -0.8011221 -0.07980324 -1.128943 -0.9330074 -0.1467089 0.7167008 -0.2648678 -0.1776371 -0.5401502 -0.02011439 0.5820503 -0.3628849 1.559433 -0.1950586 0.4966275 -0.1160185 0.07185273 0.4923241 0.2867343 -0.9526641 -0.2766703 0.6881127 0.1621932 0.1774484 -0.3095861 -0.0609983 -0.3092183 0.0756797 0.08402521 0.01519367 -0.1965113 0.2243165 0.4656926 0.1395138 0.4199573 -0.1226575 -0.8000298 -0.3343513 0.2397886 0.4562112 -0.02088716 0.5632646 0.006074299 -0.5167492 0.861276 -0.2465701 0.1875024 0.3366088 -0.6388811 0.001473727 0.4818696 0.07962752 -0.9324378 0.2720305 -0.2279014 0.0812194 0.318703 -0.2186604 -0.3668657 0.1739364 -0.08331012 -0.1115705 0.141718 -0.1055777 -0.4307793 0.5759516 0.943026 1.017049 0.8388171 -0.2526299 -0.1917826 0.09195563 0.1336935 0.02801229 0.4111617 -0.5793641 -0.4634869 -0.1644779 -0.5063436 -0.5337347 0.1521404 0.1888469 0.3644181 0.3757539 0.2806271 0.07543351 0.1974289 0.2647094 -0.2382203 0.2840705 0.2421182 -0.2303843 0.2917812 -0.3340498 0.07766423 -0.3472775 -0.1186928 -0.5394946 0.1102313 0.1448377 0.5708483 -0.1841906 0.1429912 -0.06975166 0.2846447 -0.7514198 0.5890587 0.215383 0.07549515 0.576385 -0.1781733 -0.005669316 -0.2081561 0.08502406 -0.05364111 -0.2579233 0.3998998 -0.2593364 0.4362395 -0.6465658 0.1952548 -0.682061 0.8783029 0.07974774 0.1644678 -0.2553158 -0.3005617 0.06912664 -0.9379404 -0.420997 -0.1776123 0.4042895 0.7182817 -0.06315576 0.1104925 -0.1558363 0.4224459 -0.233424 -0.4635529 -0.1729137 -0.005661794 0.1072724 -0.04875751 0.1734619 0.06242264 -0.465203 0.5268086 0.3029266 0.3012242 0.3311919 0.2533871 0.1758545 -0.3450968 0.5458939 0.6830831 0.2462521 -0.2005171 0.3567249 -0.3253748 0.1714025 0.0003852381 -0.06215005 0.0225182 -0.1929491 0.6470628 -0.1134631 0.1219229 -0.5309617 0.06427842 0.1391046 -0.2137038 -0.1293284 -0.004519998 0.1761669 -0.332406 0.3410432 0.4062572 0.1690207
eval_DH_0172 -0.8956211 -1.139313 -2.439322 2.100134 -1.176806 -0.5369141 1.065164 0.1017751 0.622411 1.537923 2.231664 -0.4455657 0.5775688 -0.9715227 1.081175 0.9403991 1.311081 -0.4279357 0.3315389 -1.642868 -0.7883258 0.5827716 1.408038 1.654291 -0.1373644 0.8264303 1.83545 -0.06788649 -0.3595499 0.9545665 -0.3936259 1.271105 -1.762877 -1.838871 -0.1099775 -0.505937 0.9587324 0.1541487 0.1378025 -1.507951 1.110577 -0.6562476 0.7932704 -0.6105116 0.2615466 -0.3036483 0.01837364 -0.06594078 -1.590305 -0.2170604 -1.777878 -1.306844 0.4129838 1.955264 0.1472412 -0.8285559 2.004905 0.4113588 0.6836039 1.08801 0.154089 0.2609937 -0.1324889 0.9824828 0.7179357 1.047268 -1.796451 0.850555 0.4713865 -2.077692 0.7920513 1.115795 -0.4363069 0.3478081 -0.7635632 -1.495444 -0.7397949 2.395373 -0.6862316 -0.5498228 -0.6129879 -0.379576 0.0343398 -0.2389839 -0.3080829 0.8021674 0.6786576 0.4154264 1.010486 -0.7266378 1.084947 -1.264445 0.4616123 -1.588238 -1.059574 0.5351738 -0.4228311 1.259543 0.01094364 0.05891913 -1.311028 0.220701 1.735469 -0.3904601 -1.594208 0.1786646 -1.094937 2.240008 -0.9547877 0.7813483 -0.2603851 2.77586 -0.792669 2.122774 -0.2264795 -0.303552 -0.7666847 0.9794606 0.03226959 -0.609542 0.8810643 1.26115 0.3341026 -1.454735 -1.090567 -0.05362734 -0.863712 0.2806716 0.5458797 0.2966439 -0.7790605 0.5939592 -1.430067 -1.798969 -1.456752 -0.009893242 0.8779348 -1.803926 -1.049274 0.6986849 0.2360563 0.4481443 -1.935609 -1.717407 -0.370281 -0.05941831 0.1141614 -0.07308582 -1.252607 -1.792712 -0.1674746 -0.2816984 -0.1833481 0.5359364 0.4621206 1.160345 -1.074942 1.307579 0.4654973 0.3245988 -0.6050253 -1.891818 0.353289 0.9672388 -0.8443946 -0.3250768 2.3303 0.1055908 1.09388 1.929833 -0.7136508 1.385854 1.6275 0.5981015 -0.4575773 0.9889758 1.118733 -1.401939 0.8929524 0.1303618 0.5002319 -0.7984394 -1.363939 1.17354 1.483922 0.6007257 0.8816082 0.3840548 0.9531435 0.2099752 0.4068338 0.8729351 -1.311246 2.11037 0.02127927 0.4395373 -0.6557868 -0.3250228 -0.6414377 -0.01616351 -0.2785926 0.9474183 0.6127045 -1.014308 -0.6484805 -0.9164593 -0.7015132 -0.9125019 0.4915105 -1.072774 -0.1295194 0.5034155 1.34812 0.05620159 0.9744093 0.6972253 0.03819849 1.046775 0.41983 -0.08721156 0.4658685 -0.1396391 0.2893683 -0.609183 -0.4592819 -1.772519 1.240974 -0.6056396 -0.4899458 0.3604528 0.2753799 0.8813726 -0.7825688 -0.01804559 0.5687298 0.35308 -0.05183714 -0.7986234 -0.1359322 0.7816899 0.1031564 -0.1702581 -1.288364 0.1081996 0.6324123 -0.3221571 0.07143843 0.1819611 0.4800317 -0.940944 1.420216 -0.7555418 -0.1077086 -0.5640514 -0.2893347 1.524511 0.8399145 0.5921988 0.09692551 -0.3117708 -1.114318 0.106186 0.9534439 -0.162358 -0.1294597 -0.1125163 -0.6019544 0.7175222 0.5733212 -0.02522797 1.230081 -0.1396131 -1.321472 -0.04115284 0.1368591 1.047321 0.983223 -0.4609782 0.299775 0.3079036 -0.684484 1.224345 0.5342247 -0.770475 -0.9303157 1.07783 -0.9852279 -0.2070343 -0.504438 0.5188233 -1.149356 -0.08412045 -0.6700799 0.8321027 -0.5340151 -0.3485025 -1.306382 -0.1351134 -0.3717248 -0.2960808 -0.3254959 0.9923543 -0.3931239 -0.567462 0.3079933 0.02945449 -0.00055003 -0.7314728 0.01189823 -0.2896477 0.4834961 -0.2847309 0.4933558 -1.166176 -0.0943789 0.1436753 0.02070289 0.5022652 0.04209955 0.1661709 0.5088136 -0.1082893 0.5598843 0.1539616 -0.3264586 -0.6615292 -0.03212193 -0.3524307 -0.5162141 0.6617208 -0.6453742 -0.842627 -0.89556 -0.492793 -0.5414727 0.1836725 0.5153772 0.7097031 -0.8254327 -0.2265644 0.8509794 0.01793567 -0.09867343 -0.7610824 0.3256674 0.6005703 0.2851723 -0.1246986 -0.2588182 -0.1180085 0.00494517 0.8972412 0.2183618 0.4007686 -0.6297079 -0.4202904 1.19713 -0.3010541 -1.084413 0.08140045 -1.149194 -0.3106458 -0.04269197 0.02079711 0.9095907 0.397541 -0.7595679 -0.2137285 -0.1457633 0.3438392 -0.006852123 -0.8920684 1.101152 0.3635772 -0.08147959 1.386809 0.002225983 -0.3355262 0.3867115 0.671703 0.2464817 -0.008904282 0.6922632 -0.4975108 -0.05672802 -0.6894569 0.05489102 -0.6867661 -0.4507802 1.01689 -0.7258131 0.1344818 -1.15192 -0.4382865 0.5379999 -0.3265495 -0.1048253 -0.1711274 -0.4376391 -0.0458606
eval_DH_0173 -0.7962809 0.5214056 1.386204 -0.7895998 0.3574038 -1.896815 1.021099 1.754389 -0.08575802 -1.411511 0.5281224 -0.2151347 -0.4477568 0.6461964 -0.8310178 0.556217 1.143562 0.913778 -0.8048903 0.3424018 -0.3694426 -0.5120487 0.1322938 0.2106028 0.1282573 -0.03283896 -0.2561406 0.3463226 -0.1899839 0.3293618 -0.4486827 0.2764161 -0.9235469 0.5647657 -0.01920287 0.6593493 -0.8449295 0.2418607 -0.2592439 0.1368326 -0.2167856 -0.4683702 -0.3455034 -0.3562432 -0.6410432 1.815667 0.7070307 -0.2949892 -0.3497076 -0.06101982 0.1909284 0.1203169 -0.01545564 -0.3354279 -0.6984365 0.3360422 1.517583 0.6967447 0.3947945 -0.5508553 0.4106427 0.1411825 -0.775216 -0.7297624 0.7251607 0.4076142 -0.1398122 1.26339 -0.3626161 0.0492827 -0.6844329 -0.4638041 -0.4553009 -0.8788707 0.4803323 0.6472384 -0.05815618 0.7238228 -0.4135834 0.2686293 0.2269759 0.04797275 0.8272489 -0.202437 -0.4861692 0.8261809 0.2640775 0.4634863 -0.5140024 0.9081542 -0.2168518 0.9944372 -0.1760747 -0.7625682 -0.5613059 0.1320094 0.05323973 0.4033186 -0.2068877 0.7428424 -0.1576111 -0.2143921 -0.315676 -0.4518255 -0.8925585 0.466377 -0.581557 0.02155544 -0.1920512 0.3121921 -0.261649 0.003163991 1.069243 0.5686675 -0.5091331 -0.02840096 0.5891147 0.3558203 -0.120351 1.493246 -0.2860469 1.138456 0.312128 0.09277763 -0.1817453 -1.368666 0.02504967 -0.1327104 0.05392132 -0.3960969 0.1646297 -0.08650772 0.9170259 0.2948046 0.4207694 0.4591444 -0.9116499 -0.1307304 0.4936978 -0.09825471 -0.715248 -0.322048 0.5546478 0.4241948 -0.7091907 1.20416 -0.1203082 -0.5912097 0.6556145 0.07516005 0.2189618 -0.01816423 -0.4728911 0.5144104 -0.5164428 0.2885857 -0.5321229 -0.09663538 1.071336 -0.6496837 -0.7602495 0.007936683 -0.2080572 -0.4264581 -0.7775776 0.7167308 0.6285822 0.7483228 -0.1230583 0.9160778 -0.08714928 -0.01320605 0.6752096 -0.3205231 0.2349524 0.239699 -1.02151 0.4925131 -0.1833395 0.2083284 -0.1257288 0.3873085 0.6171328 0.5835671 0.5985379 -0.06970657 -1.231222 -0.2867762 0.09316748 -0.552339 0.3487248 -0.03067524 0.01811318 -0.7755748 -0.05017161 -0.3179709 0.547114 0.3414193 0.5233595 0.4696393 -0.7688453 -0.7963119 -0.7440847 0.4757165 0.5566229 -0.5576606 -0.7586707 -0.5493192 -0.2808324 -0.3958479 0.1066073 -0.02349159 -0.2955859 -0.4237785 -0.4957297 -0.484314 0.209012 -1.659355 -0.08646366 0.06710412 0.2090629 1.220408 -0.0216037 0.02889652 -1.323864 -0.1385332 0.3529097 0.2772101 -0.05374164 -0.4231504 -0.406381 0.3550901 -0.3153732 -0.545105 0.03052055 -0.0499178 0.5801696 0.04217219 -0.04973224 0.4873783 0.3823574 -0.4845414 -0.2941892 0.191532 0.7561709 -0.740929 0.05096435 0.05634879 0.174234 -0.4307508 -0.4054753 -0.5367426 -0.4037025 -0.2597845 0.6455038 -0.1207577 0.3664993 1.021613 0.1164553 -0.1159971 0.5080431 0.2523013 0.3081962 0.2223389 -0.214469 0.1692363 0.4095111 0.509818 -0.7056423 0.1968107 -0.3942556 1.337457 -0.0218225 -0.04891287 -0.1403419 -0.1798989 0.3174654 -0.2851081 0.9169412 0.4019826 0.4011367 0.1474037 -0.5038523 0.04898119 -0.6899855 -0.3295385 -0.3599745 0.4406332 0.8876683 -0.2951231 0.5343731 -0.4933202 0.0595257 -0.00658695 0.1664889 -0.213801 0.2555223 -0.6725751 -0.1206609 -0.2893096 -0.1846306 0.7152004 -0.1377144 -0.13641 -0.4422966 -0.1263921 0.0337011 -0.2870751 0.1107315 -1.052549 0.3496031 0.07752171 0.714906 -0.6888612 -0.4059979 0.06596632 -0.2459762 -0.174219 0.2771641 -0.6808667 0.2652207 -0.2849047 0.2319689 -0.263897 0.8679773 -0.5803021 0.4872405 0.2481255 1.075039 -0.3853485 -0.1262384 -0.3437294 -0.3645691 0.7146214 0.08230146 0.05519275 0.725422 -0.3316162 0.1879331 -0.7768313 -0.8546925 -0.541324 0.3969235 -0.3762476 0.5654682 -0.02561045 0.1152673 0.5706081 0.6397242 0.2905707 -0.2394433 0.5315185 0.5171837 0.1243713 0.04780577 -0.3863449 -0.2010718 0.700496 0.09622596 -0.6253909 -0.05425381 -0.6935666 0.04792865 0.4689344 -0.07871966 0.4244401 -0.1109634 0.417665 -0.4480073 -0.06514426 0.5098675 0.3571671 -0.4941555 -0.3004744 -0.5464801 0.07890772 -0.09191838 -0.3269603 -0.5189904 -0.07757547 -0.08498717 -0.1829159 -0.3442725 -0.2643927 -0.01983837 0.6807295 0.3685466 0.3165776 -0.398932 -0.06048504 0.6961726 0.08778179 -0.1366537 0.05616185 -0.147832 0.4201514 -0.2435298 0.2758375 0.2402151 0.3221662
eval_DH_0174 0.8006054 0.08647774 -1.404224 0.4831784 -2.009958 -1.43647 1.099311 0.5927928 -0.9733186 0.8270157 -0.6747168 0.367005 0.641117 0.8548982 1.269374 -1.151531 0.005132194 -2.022584 2.318952 -0.7298269 -0.4577199 -0.6415032 1.135801 0.1382101 -0.8257955 0.8626986 0.2346507 0.2563722 0.5525687 0.9816617 -0.5217461 -1.539452 1.832777 -0.05311003 -1.085501 0.6717095 -0.6894012 -0.5773386 0.9476855 1.734186 1.301309 0.8775661 0.8319157 0.8792716 -1.044137 -0.2826587 -0.149062 -1.832905 0.5231683 -0.7391103 -0.7108411 1.579019 0.9263391 0.1045006 0.9461558 -1.306296 -1.17561 1.078563 0.2215019 0.9033127 -1.167093 -1.878445 -0.6490957 1.070734 0.704485 0.81256 0.1140789 -0.8654343 0.07140094 -0.06519224 1.267552 0.1602909 -0.7591754 0.1605494 1.236045 -0.7142838 -1.540611 -0.820388 0.3317607 -0.02048351 -1.339431 -1.633424 2.332058 -1.64872 0.7950347 0.4995602 0.3087443 1.408928 -0.8724031 0.4700552 0.9415535 0.4310994 -1.844365 0.7396438 -1.232819 1.412142 -0.7266997 -1.508987 -0.9122766 0.1191475 1.712974 0.04287093 -0.104091 -1.784484 -1.336403 0.4827145 -0.1529833 0.2732647 0.187941 0.4268689 0.5293106 0.3210769 -0.7933545 0.3259632 0.1813686 -0.1560708 -2.64627 -0.8696918 -0.382844 0.5264721 0.04187452 -0.00866878 -0.9383461 -2.010601 -0.4865123 -0.1954436 -1.47652 0.4567714 0.6056982 0.8142995 0.4808332 0.2138161 0.4137388 -1.150932 -1.350348 -0.1059479 0.7425998 0.05308378 -0.201371 -0.7217256 -0.8968699 0.5305659 -1.994792 -0.8590471 1.492041 0.4858993 -0.4280525 0.9292717 0.8384904 0.371092 0.008768435 0.2769144 -0.3197609 0.3719839 -0.6636553 0.7085248 1.369058 -0.835004 -0.1712994 -0.2334981 0.6092624 -1.96588 1.292539 -0.2031644 0.003111908 0.3569361 0.6371044 -0.7420987 0.9708475 -0.09589926 -0.695405 0.5390892 0.1903409 -0.8438934 0.05965051 0.518755 0.1344052 -0.553541 -1.42684 0.5804179 0.4167352 -0.06213354 -0.1949112 1.486565 0.5421939 -0.6654049 -0.2589953 1.577067 0.3008721 -1.529505 -0.665498 1.06147 1.020555 0.4848245 -0.9972296 -0.3703966 0.466685 0.984619 -0.3726298 0.7311042 -0.8348622 -0.2167241 -0.0747687 0.2817446 -0.1917117 -0.9121134 -0.8471681 -0.1056664 -0.9915147 -0.4522152 0.3120317 -0.9252761 -0.9414491 0.8852975 -0.951417 -2.132191 0.5238428 -0.1325817 -0.2099464 -0.04957121 -1.071927 0.1300751 -0.5956321 0.261041 0.2125102 -0.3271798 0.1471391 -0.42594 0.7638119 -0.1460274 0.3209428 -0.9411947 -0.04795922 -0.2730337 1.360638 0.13844 0.7963578 0.5765957 -0.8063993 0.1705991 0.2484438 -0.26943 -0.2387437 0.4831617 1.167345 -0.5583041 0.175082 0.2170699 0.1544038 0.9079755 -0.1938117 0.122918 0.07084945 -1.16663 0.5765086 0.6868742 -0.4360309 0.1327679 0.2992088 -0.5114169 0.71105 1.290859 0.9239614 -0.5885985 0.2583399 -0.3526224 -0.2126253 -0.2944732 0.003094582 0.5450709 -0.5957578 0.06949474 -0.6469738 0.5448247 -0.2170047 0.1959163 0.4553704 0.2718637 -0.8105431 -0.761305 -0.5888014 -0.5477751 0.4427404 0.5593866 0.6857272 0.340773 -0.01552331 -0.9399381 -0.4115716 1.802106 -1.017145 -0.281173 -0.4431537 -0.4626823 -0.6548132 0.07031719 -0.1890357 -0.2035175 0.2467868 0.3917405 0.458075 0.3738048 0.2264727 0.03482815 -0.749154 -0.2476704 -0.5986127 0.1550593 -0.2043937 -0.02248639 0.8650813 -1.054486 0.3630651 -0.3485357 -0.702278 -0.2068601 0.1828754 -0.6175283 0.3197966 0.3784209 0.7272179 0.9825075 -0.02576382 -0.7160696 0.001280348 0.3854303 0.2093842 -0.4776006 0.8090245 0.8221778 -0.1657288 -0.0540612 0.4746437 -0.4883722 -0.7535533 0.4912043 -0.2408758 -0.6408237 -0.7919886 0.1493242 0.4517595 -0.2917442 -0.7923784 -1.196603 -0.04920716 0.8455756 0.2128056 0.3253619 -0.5503632 -0.7297237 -0.01129294 -0.1304595 0.9676684 -0.4558588 0.1274143 0.07339951 0.2498226 0.6253618 0.3908195 0.09335738 0.266695 0.199205 -0.2146702 0.2924023 0.6641049 -0.4744223 -0.05802736 -0.2883793 -0.2492943 -1.052587 0.9868495 -1.440378 -0.4100778 0.7355527 -0.7235264 0.01290024 0.2797587 0.4829291 0.2639798 0.5117996 0.611901 0.5685284 0.1503605 0.2902851 0.3306229 -0.0196573 -0.4999637 0.7464391 0.3480538 0.9737046 -0.9616044 -1.137981 -0.293237 0.6583818 0.3419698 0.2441585 -0.02330826 -1.108245 0.3696065 -0.1133485
eval_DH_0175 -1.371944 0.7177042 1.599635 -1.279288 0.8720312 -1.71958 0.2960252 0.7065583 -0.1454212 -0.1284546 -0.4983947 1.305725 0.5451077 -0.2565446 -0.1842663 0.2261626 1.386137 -0.483513 0.9916353 1.28422 0.161027 -1.080456 0.5366399 -0.5244 0.3801568 0.4488464 1.243902 0.1450569 -0.5633891 -0.884069 -0.6977721 -0.06759055 0.1353251 -0.5552452 0.1978903 -1.109573 0.3803125 0.203574 0.8332964 0.6610297 -1.047025 -0.1137668 0.3329169 0.4544235 0.1826762 1.294291 -1.352442 -1.396238 -0.5588322 0.3734166 0.002572432 -0.5337124 0.2169868 -0.3014677 -0.3973221 -0.351206 1.229333 0.6650195 1.366408 0.141343 -0.6172866 0.4347142 1.321312 -0.2272556 -0.6450422 0.6253784 -0.77155 -0.4213632 -0.4343964 -1.120836 -0.2365166 1.288776 0.04513215 -1.430336 -0.3044038 -0.2235076 -1.507584 0.3114503 0.6946212 -0.1165296 -0.677988 0.1744379 0.2695439 -0.2307719 0.3906434 1.108976 0.3669799 -0.3338302 0.00386618 1.397161 -0.4109797 -0.01332652 -0.7985582 0.5924678 -0.5671145 -0.4615096 0.0008115618 -0.04992919 -0.4043065 -0.4760029 0.1008358 -0.3432449 -1.099236 1.142361 0.1649493 -0.1785852 0.2387359 0.125423 0.9658787 -0.3619089 0.2707225 -0.8843433 -0.6738145 1.648649 -0.2741312 -0.7134933 -0.5694706 0.4172333 0.8721489 0.5843536 0.1016864 0.2400153 0.06970146 -0.667187 -0.3561117 -1.055028 0.003475592 0.08467592 0.1896524 0.1060143 -0.897854 0.02546081 0.3243755 -0.003559398 -0.3730054 0.4085194 -1.041752 -0.4611383 0.6414025 0.26303 -1.30426 -0.1972906 -1.10298 -0.2576814 0.0412647 0.7997182 0.7932155 -0.6830156 -0.1616811 0.7760285 0.2983423 -0.6519852 0.7949138 -1.474564 -0.9379046 0.2757475 -0.4089738 0.5890395 -0.3085582 -0.6022393 -1.443344 -0.4948739 0.5694566 0.2927042 -0.4975182 0.085196 0.4496875 0.2202574 0.1789554 -1.171379 -0.6939531 -1.308051 0.9134852 0.4130805 0.02295901 -0.2515359 -0.7334154 0.696905 0.1852691 0.3732893 -0.337124 0.6904242 1.171795 0.4729051 0.9699185 -0.2338283 -0.3361602 0.6497784 0.2772877 -0.01863742 -0.2021155 -0.1460721 0.1787443 -0.7816592 -0.04893288 0.7129868 -0.3040258 0.5242403 -0.4374761 -0.4201335 -0.7389072 -0.4447473 -0.5788136 0.05970444 -0.5119254 -0.2710921 -0.06545376 -0.48198 0.1284127 -0.3050874 -0.4637537 -0.1407162 -0.500484 0.09431852 0.255165 1.253478 0.9285803 -0.8071616 0.08651873 0.09052984 -0.4186566 -0.162331 -0.49651 -0.4770857 -0.9859012 0.5380031 0.84455 0.02125014 0.2217306 -0.9826325 0.19262 0.03395611 -0.3058645 -0.4510709 -0.1900376 -0.6080473 0.08296359 -0.3609066 0.3163171 0.279998 0.6481429 -0.4432404 -0.5237183 -0.08639089 -0.04135543 -0.4035202 -0.7099906 0.4416909 0.2642018 0.1992409 -0.1976565 0.1925796 0.04212473 -1.142811 -0.3043435 -0.5572995 0.1515022 0.2923664 0.2287269 0.0534125 1.071676 0.3812313 0.9619372 -0.4416762 0.9702694 0.5146204 -0.05403446 -0.2499765 0.2769943 -0.3888135 -1.221387 0.08592515 0.06510662 -0.2306349 0.7128386 1.131967 -0.3442094 -0.3848091 0.1482637 0.1360429 0.6553003 -0.03431801 0.06562082 -0.4738725 -1.130203 -0.1328196 -0.4889806 0.2448164 1.029283 0.5078741 -0.2444167 -0.8006535 0.2391398 1.23487 -0.4283651 0.1041589 0.03249389 -0.2142174 0.3645303 0.07902573 -0.2735209 0.4216179 0.6025518 0.1634951 -0.4126329 1.204336 0.4092813 -0.09951491 0.2532957 0.4363404 -0.3768837 -1.31691 0.1542581 0.8805453 0.3431735 0.1844032 -0.7337394 -0.2374041 1.25003 0.1948304 -0.2624258 4.846519e-05 -0.3126493 0.7045946 0.9931815 0.244111 -0.438025 1.115245 -0.6174824 0.5237085 0.5198956 -0.5863182 0.1446095 0.1426457 0.5658212 -0.3272443 0.5229998 0.3545749 -0.3906091 -0.4681779 -0.6680667 -0.02763793 0.06939986 0.6774698 0.1952433 -0.170941 -0.2345263 -0.6182934 0.6978746 0.4500707 -0.1140994 0.7042396 -0.008669251 0.7679218 -0.0557581 0.1617811 0.137377 -0.2939372 0.6428405 -0.4783953 -0.07381583 -0.05171337 0.1146328 -0.3934235 0.4167187 0.2776878 0.1816336 0.1181145 -0.3870323 0.2003811 0.2782952 1.041256 0.1570375 0.1024177 -0.2772055 0.6483366 0.2963937 0.6804839 -0.2672924 -0.8057939 -0.08359133 1.085889 -0.1770841 0.07000421 -0.08239283 1.259954 0.05381032 -0.1726057 -0.7408436 -0.4401749 0.1760368 -0.1215083 -0.8482496 -0.1533003 -0.5371845 -0.6126747 -0.2917384 0.133641 -0.1406714 0.3066165
eval_DH_0176 -0.7538729 -0.9800029 -0.5234351 0.7525064 -1.795519 -1.231405 0.1986702 -1.213673 1.761586 0.8138598 0.6311144 1.184215 1.44919 2.272461 1.695693 1.233522 1.711662 -2.110368 -1.426506 0.4088818 0.6750568 -1.343595 0.09505586 1.715983 -1.013218 0.7349676 0.255254 0.1544581 0.2313148 2.537477 0.9747386 -0.2775478 -0.1521484 -0.8986111 -0.267873 -0.9844572 -2.370127 1.780916 0.8035567 1.758256 -1.559031 0.6532171 0.6024203 0.1822536 -0.5789657 -2.728516 0.5496758 -0.9402804 -0.03938791 -0.4776149 -1.029077 -0.01676081 0.5019612 -0.960732 0.3607827 -1.162465 1.620198 -1.25752 -0.5849312 0.517364 -0.6442789 -1.401712 -0.4146456 0.7364017 0.127073 -0.2625093 -0.02403431 -1.058153 0.9951651 -1.372068 1.848958 0.1423041 -1.736054 0.002002761 0.8038702 1.099314 1.47982 0.4410408 -0.1404205 0.652923 0.2144129 -0.4971181 0.7372182 -0.03742308 0.2337245 -0.1104441 1.413953 2.212841 1.339931 1.527421 -0.8118392 -0.3976376 0.1669591 -0.31137 -1.111373 -0.7227749 -0.4749668 1.157869 0.4534631 0.06408638 0.997068 -1.530051 -0.6475494 1.683717 -0.3520237 -1.175721 0.4745203 1.118598 -2.144421 2.14986 1.463651 0.8920431 1.620685 0.2727748 -0.4716952 -0.4822467 -0.01152286 0.3648799 0.4830848 -1.250001 -0.2256858 0.02310277 0.2477694 0.440555 -0.7683953 0.4679906 0.1759448 -0.1104979 1.676628 1.421891 -0.9519793 -0.05060627 0.6682445 -0.4182979 0.5567548 -1.92885 1.510051 -0.8240604 -0.4635746 -0.4606174 0.2431068 -0.2721284 -0.302828 -0.2734295 0.1993191 -0.8877231 -0.4538472 -1.246879 -0.3561004 -0.1081062 1.20177 -1.23242 0.5183071 1.783491 -1.374561 -0.05445224 0.254414 -0.7191394 -0.3046435 0.1773289 0.3983863 -0.059605 -0.5161191 -1.385198 -0.6750358 0.7751944 -0.1793618 0.6871976 -1.014997 0.2608333 0.2510439 -0.0002039076 0.3581145 -0.6366517 -0.05993554 1.144385 -1.05762 0.9443781 0.4601949 2.077153 0.3061357 1.059894 -0.6262352 0.1263188 -0.2106856 0.4332882 0.3404758 -0.2838404 -0.38765 -0.2817207 0.3037799 -0.1254265 0.7480589 0.8090167 0.9288064 1.013585 0.3502401 -0.4553171 0.001999134 0.0356182 -0.5131508 -1.174952 0.4695962 -1.235557 0.2844799 0.2273472 0.851951 -0.06056843 -0.04473464 1.113336 -0.3783136 0.6759195 0.7861399 0.06526594 0.08897108 2.352858 -0.1393518 0.3160406 -0.6738168 0.8069136 0.514731 0.543981 0.6220736 -0.4368885 -0.2330641 -0.6980159 -0.1974816 0.3900886 0.1912613 -0.1145119 -1.034851 0.4186322 -1.136375 0.7232196 -0.1098511 0.03647769 1.520235 -0.4550914 0.7883394 -0.5334468 0.5542146 0.3009014 0.7629031 -0.9186045 0.1636749 -0.1826009 -0.9993685 -0.1771506 0.4982132 0.1952156 0.1595526 0.323043 0.6988311 0.7493052 0.1412114 0.1537411 -0.8420331 -0.5252973 -1.18775 0.6592527 -0.09413821 0.2530713 -0.2314015 0.5455624 -0.8652924 0.7490768 0.161988 0.4218113 -0.4216793 0.1643169 0.9000983 0.1138721 -0.4189936 0.6781016 0.4664254 0.04691973 0.03917505 0.4609676 0.5318032 0.9369664 -0.7259444 0.7169921 1.091147 -0.7436857 -0.3466047 0.09639085 -0.481833 -0.4187744 0.7250383 0.003669323 -0.2038075 -0.2979814 -0.7615499 1.666016 0.0006824083 -0.4498863 -0.5564883 0.6467559 0.2023512 0.7381595 1.127694 -0.3223331 -0.6879069 0.2314383 0.5305622 0.6886138 -0.3851872 -0.03082463 -0.09833786 -1.396248 -0.4958587 -0.422202 0.2416778 0.2463298 0.1843722 0.7168469 0.5800205 0.4177139 -0.4991422 -0.7951946 0.6786457 0.5085806 -1.150453 0.07217736 0.5389976 0.116864 0.3658515 -0.3051217 -0.2518309 -0.337143 0.1263725 -0.1291901 -0.2905828 0.900857 1.283604 0.5958771 -0.697026 0.508777 0.7615599 -0.5450609 -0.1285336 0.6603156 -0.04594341 -0.440728 0.7534701 0.4589618 -0.3938174 -0.9469401 0.4267682 0.2966584 0.2621504 0.01910268 -0.6670576 0.02921781 -0.02387788 0.1357895 -0.8019787 -0.718406 0.1189354 0.2262338 0.1860722 -0.2152386 0.7302731 0.2789274 0.2919776 0.0167023 -0.06688376 -0.1312897 -0.06613035 -0.233708 0.04959134 0.04539873 -0.2773374 -0.1315984 -0.0399781 -0.06291314 1.397604 -0.1243083 -1.592732 -0.1155998 -0.350932 0.01115773 0.5015201 -0.3085031 0.2081221 -0.7477016 -0.2469584 0.4594845 1.034047 -0.01892307 0.5558628 -0.2948904 -0.3991271 -0.4342521 -0.3557786 -0.431165 0.3132347 -0.007286096 -1.327072 -0.3707241
eval_DH_0177 -0.3706815 0.2348176 0.4416217 -1.075323 -0.1525814 -1.766906 0.9772626 -0.3107193 -0.06137904 0.5250636 0.8966118 -0.02102646 0.4775558 0.8744441 -0.9031652 0.1810189 1.672312 0.7899094 -0.06353146 0.3808936 -0.5411565 -0.1474903 0.9092072 0.7875432 0.1008739 1.120766 0.6425889 -0.4882016 -0.6672717 0.3250298 -0.3284301 0.4796215 -0.4246916 -0.1971648 -0.7430825 0.3668289 -0.8559873 0.7792537 0.6711079 -0.6784378 -0.2741511 -0.1233631 0.2102065 -0.06052218 0.2241183 0.1232368 -0.03488936 -1.429601 -0.5513514 -0.1485388 -0.7510203 0.1872972 0.1546389 0.8637607 -0.1497364 0.4541416 0.3141907 0.05135528 0.7327083 -0.2899289 -0.3311244 -0.5255759 -0.6712236 -0.7808888 0.2177651 0.4601084 0.1447108 1.379929 0.582501 -0.06460774 0.2146223 0.081304 -0.3325466 0.5806787 -0.728919 -0.4254625 0.27821 0.9265601 0.5336441 0.2004135 -0.06970228 -0.08460238 0.3050331 -0.4389162 -0.2112234 1.027042 -0.6372912 0.4475628 -0.1064822 -0.641327 0.8583516 -0.1521786 0.06009755 0.2906618 -0.4038797 0.09910458 -0.0270991 -0.6986486 0.4189406 0.434209 0.4772453 0.1444113 -0.1004587 -0.3919103 0.4031098 -0.202703 -0.8486038 0.5738158 -0.8336203 0.3395803 0.3293255 0.06205018 0.3260017 0.3211863 -2.423121 -0.2870137 0.5700765 0.700286 0.09246136 0.663596 0.8251897 0.1691433 0.6950398 0.5848249 0.5395638 0.03552381 0.721981 -0.5037398 0.1237087 0.09779295 -0.3354846 0.168475 -0.3666918 0.6627036 -0.2330613 0.003652151 -0.1051141 0.4757687 0.1754091 -0.1030315 -0.3996966 0.6320541 0.1163014 -0.5348316 -1.40946 -0.1277664 -0.6568218 -0.09525542 0.6549016 1.111634 -0.4602804 -0.0009509146 0.3996125 0.8587623 -0.221043 0.833719 0.6064815 -0.1201351 0.8265979 -0.1037335 -0.4251043 -0.4368929 -0.8367285 0.7776709 -0.05069023 0.3399553 0.2176523 0.07242394 0.2260201 -0.3018291 0.09634396 -0.000162162 0.1720905 -0.1079417 -0.1184077 0.6653529 -0.7405309 0.3471516 0.5526627 -0.9068046 -0.172854 0.2018934 -0.03190662 0.2166388 0.5813425 0.5261697 -0.0541176 0.07845163 0.3212025 -0.2177928 -0.0002929887 0.2001463 -0.1488243 0.5042346 0.1654935 -0.7588693 -0.07047131 -0.08310603 0.770934 -0.2053072 0.4138444 -0.1056787 0.1657871 0.5068414 -0.1267087 -0.6152368 0.06106633 0.02484036 -0.5426096 0.332062 0.2122077 -0.1491363 0.115802 -0.2997949 0.2258948 0.2300853 -0.2275039 -0.2252693 0.09526318 -0.1003527 -0.04622962 -0.01186188 -0.3064704 0.2806737 -0.2310119 0.3180482 -0.4672695 -0.856337 -0.5490785 -0.4574348 -0.6313753 -0.3923083 0.9479234 0.3886538 -0.05033382 -0.03245547 -0.5678996 0.1310536 -0.3609214 -0.4162014 -1.050924 -0.5591407 0.3520924 0.02971029 -0.2251159 -0.1211969 0.2139355 -0.05767107 0.3879142 -0.0136542 0.1274193 -0.1695068 0.1426056 0.2818342 -0.1002473 -0.4398355 0.184227 0.3357436 0.01401601 0.05736422 0.3238454 0.2806495 -0.25203 0.04293049 0.3334234 -0.5052119 -0.140429 -0.3803206 -0.2430692 0.107093 0.07692691 0.575904 -0.002947989 0.3094706 -0.5364217 0.3359315 -0.09917329 -0.6373459 -0.04887401 0.3842189 0.008309077 0.2366959 0.685031 0.2193656 -0.2084245 -0.04283299 0.2576435 0.02514668 0.4256949 -0.04402793 -0.02078683 0.2424757 0.3045224 0.5283969 0.386609 0.7197073 0.3965602 0.7415977 0.6780276 -0.03266968 0.2334488 0.121327 0.305255 -0.1609224 -0.3620975 -0.09378575 -0.3385703 0.3154845 -0.5390673 -0.8068896 0.01492626 0.5056047 0.6409899 0.03228042 -0.3420593 0.2032306 -0.09034277 0.4294013 -0.264823 -0.4267178 -0.1677212 -0.5772416 -0.496287 0.09201897 0.6597855 0.2837144 0.4348114 -0.04887774 -0.3623235 -0.1006207 -0.6099222 -1.236083 -0.7573416 0.4309068 0.6959738 1.2633 -0.4647439 0.2536786 -0.4475095 -0.1496329 -0.2397232 -0.03029126 0.2785037 0.3662726 0.008523451 -0.1148755 -0.4298261 -0.3488572 -0.6534225 0.01420418 0.2565171 -0.6733894 -0.17915 0.353239 0.3853116 0.3003997 0.3307344 0.1886429 0.0002306528 -0.4408579 -0.782267 -0.8864849 0.08470847 0.2393475 -0.06383115 0.4656303 -0.01454408 0.4624662 -0.799531 -0.6417794 -0.09056029 0.02813596 -0.5347107 0.1242271 -0.4157036 -0.2766849 0.4499826 -0.04961637 0.354863 -0.4890884 0.1586068 0.6880977 -0.3141685 0.4571589 -0.4301034 0.2208727 0.2275472 0.1249335 -0.01566484 -0.03856845 0.02471182 -0.2204688 0.4179685 -0.3270439 -0.4356455 0.5483235 -0.4290882 0.5070964 0.07426599 0.6487038
eval_DH_0178 -0.6765926 -0.3422211 1.546233 -0.1794812 0.7398477 -0.8878729 1.480453 2.864652 -0.8418132 -1.065704 -1.26835 -0.5434223 -0.669307 -0.08401291 0.449555 -0.4295675 0.009007119 -0.4222647 0.8556623 0.8951322 -0.2937884 0.4734616 0.6669592 1.257112 -1.654875 0.2741208 -0.156455 -0.9834625 0.196173 -0.5418274 0.5405358 0.8478194 0.03921869 0.6384062 -1.061715 -0.2057654 -0.5174681 0.6438988 -0.7219955 0.0694318 -0.9799703 -0.3780901 0.1953807 -2.29067 -0.4081599 -0.1955827 -0.08371946 -0.6264732 -0.3833995 -1.830849 -0.01376815 -0.6909889 0.4194254 -1.24784 0.4893184 -1.630252 -0.4159648 1.675433 -1.04563 0.6001981 -0.3615102 1.353138 0.4136828 -0.5991652 0.8543982 1.317003 1.383298 1.682609 1.389803 0.3186305 -0.1237116 -0.5230874 -1.410952 -0.9178237 0.6647782 0.704962 0.417963 0.1408286 -0.9666346 0.2312381 0.6052063 -1.276362 0.7091315 0.2281557 1.304632 -0.01495074 0.5683686 -0.3963083 0.2777573 0.9038373 -0.2440004 -2.388591 0.2671621 -0.7168015 0.2306881 0.1601617 0.1413369 -1.172477 1.017207 -0.09764399 0.1400784 -1.442091 -0.8141853 -0.2517212 1.717176 -0.11959 0.3324793 0.852652 0.5585865 0.7103889 0.9738264 0.248952 -0.08324266 0.7071362 -0.8160411 0.04468458 0.8782061 0.3019876 0.03954415 0.8382957 -0.06471846 1.66999 -1.325948 0.7635331 -0.5450396 0.7841182 0.5103281 1.336719 0.3813221 -0.6962938 -0.1777938 0.5601855 -0.1169759 0.3429322 -0.08276737 -0.0179059 0.3215809 -0.9013564 -0.555818 -1.111981 -1.274058 0.01982796 1.307895 0.01822343 1.104225 -0.3908429 0.5255514 -1.089549 0.986103 0.4606711 0.825589 -0.7236716 -0.2809519 0.214722 0.008585468 0.7451817 -0.6787125 0.3177766 0.7922188 0.1727269 0.3674923 -0.03817808 -1.00736 0.3422737 -0.3818978 0.4880492 0.2678436 -0.3723898 0.7068675 0.6702074 0.0981538 -0.3962538 0.1601038 1.31757 0.2285268 0.405564 -0.506741 -0.05482449 0.09443709 0.115635 -0.9685346 -0.541593 -0.3849317 0.2573597 0.4395957 -0.7569977 -0.160686 0.02483721 0.9968123 -0.3400081 -0.1817529 0.216396 -0.3700945 -0.7548912 0.128671 -0.1626005 -0.1123317 0.8130033 -0.1877885 -1.234216 -0.09138674 -0.004027649 -0.538953 -0.003157031 0.08262578 0.2389079 -0.3106336 -0.155245 -0.1602537 0.1421101 0.4411213 -0.1099122 -0.07879298 -0.03541622 0.1248653 -0.2649948 -0.1657927 -0.7994528 0.04448144 0.4877104 0.5247056 0.3637916 -0.1493526 -0.2454465 -0.0835005 0.2329466 -0.2292815 -0.1295394 0.1481726 -0.6005866 -0.2063691 -0.1910419 -0.7043628 -0.2447252 0.8397234 1.111709 0.5193934 0.5794368 -0.3651506 0.1658135 0.3098498 0.74761 -0.1167209 -1.155216 -0.1596209 0.3065801 -0.8815625 -0.2933215 -0.7299175 0.08504049 0.07493273 -0.4630665 -0.4132265 0.2387954 -0.7386651 0.3062328 -0.07621744 0.918999 0.4522347 0.295539 -1.500069 0.8752053 -0.3923713 0.1803451 0.4702046 -0.1950907 1.374549 0.7238574 -0.6974728 1.182352 -0.7037195 -0.1392886 -0.112281 -0.6425617 0.1538585 -0.4426818 0.03903603 0.7493423 -0.7256579 -0.2412844 0.3443495 0.4513408 -0.5458779 0.3746455 0.09197971 -0.730738 -0.3351555 0.110427 0.8889238 0.4067488 -0.2657942 -0.7472344 -0.221206 -0.4526096 0.0780111 0.3303375 0.2656439 0.2823278 0.7431037 0.6180009 -0.1510955 0.01284586 -0.5238002 -0.4115109 -0.2984308 1.262785 -0.8650574 -0.691085 0.2514969 0.9620733 -0.06784891 0.7763406 -0.305175 -0.6128457 0.7099522 -0.4293132 0.2834206 -0.630768 0.4070474 -0.08584252 0.6301389 0.5103085 -0.4453247 -0.04429003 0.943287 -0.9398922 0.7757764 0.2225885 0.7677007 -0.2417166 -0.0267484 0.9328243 0.7353947 0.6973253 -0.2355531 -0.6318077 -0.1425167 0.09729221 -0.453742 -0.4458871 0.3054852 -0.5733156 0.6503156 -0.4386968 0.4069314 -0.02710773 -0.1513248 0.2627911 -0.7782303 0.08708208 -0.1682635 -0.8204673 0.284307 0.6911632 0.2642542 0.09388065 0.3687774 0.5596752 0.1716107 -0.9321428 0.2464353 0.3695976 0.3196044 0.08308642 0.4596514 -0.1196535 0.08039048 -0.01372001 -0.7690539 -0.05457111 0.08109049 -0.32706 0.1140552 0.1926025 -0.287706 0.2502005 0.2172884 0.8305811 -0.3228974 0.4956247 0.009547224 -0.6429837 -0.1631771 -0.9173738 0.1315241 0.3649417 0.7967125 -0.1264016 -0.2835061 -0.7305481 -0.7806969 -0.1549023 -0.03600924 0.03288957 0.1284037 0.6379406 -0.1639456 0.0761335 -0.1892885 -0.6389505
eval_DH_0179 0.1280709 -0.4453506 2.162983 -0.7122084 0.2394918 -1.854828 1.207264 0.7557815 0.03087954 0.3929813 1.049659 -0.4852559 -0.7535841 -0.1538072 -0.7478009 0.510686 -0.09530441 -0.6317933 0.1506649 0.7130403 -0.6526834 0.03018357 0.4221634 0.03086907 0.0772437 -1.064802 0.8673867 0.03555263 -0.4949052 0.3009713 -0.4676298 0.4173255 -0.6614712 -0.9039814 0.5945215 -0.2618383 -0.6279151 0.08123285 0.05287628 0.7295094 0.8943893 0.1318103 -0.3496329 0.312291 0.06302857 0.6364127 -0.1492215 -0.3945306 -0.2832502 -0.5560724 -0.7488925 0.7989124 -0.3141813 0.2414737 0.1968999 -0.5232886 0.6942899 -0.078832 0.6123881 0.1490356 0.03686117 -0.4123432 0.04895867 0.317668 -0.1111609 -0.3651692 0.04155073 0.05181723 -0.1652318 0.1505963 0.1225909 0.6486718 -0.9320289 -0.4573084 -0.1710765 0.08206014 -0.2925999 -0.2783121 0.4409334 0.05652728 -0.2533619 -0.3421011 -0.4717705 0.1137394 -0.5687324 -0.2317362 1.11911 -0.6828015 -0.2180757 0.336961 0.2671422 -0.3340391 0.2109576 0.07267334 0.2598606 -0.2860829 0.0384835 0.8206478 -0.4588252 -0.6427289 0.2525617 0.6648173 0.3417897 0.1905521 0.1777937 0.4783937 0.4603239 -0.08345029 -0.460331 -0.5888306 0.2253546 0.2005143 0.2973536 0.3364522 -0.3191842 0.05437471 -0.8929644 -0.4706441 0.02985185 -0.1439228 -0.729934 0.5106859 0.02738709 -0.3353659 -0.2854115 -0.1160804 -0.2395424 0.1347373 0.3877036 -0.5147972 0.6094201 -0.1179973 -0.5416427 0.3855313 -0.1309801 0.5518928 0.01693729 -0.3146181 0.1981346 0.005572157 -0.4015556 0.3971127 0.05078392 0.233234 -0.2359379 -0.1868752 -0.3255318 0.03256612 0.6361997 0.6386915 -0.4269431 -0.3257151 0.1464828 0.03385417 -0.3689255 -0.375859 0.2532596 -0.5742616 -0.2000577 -0.5572598 0.03940977 -0.1559793 0.2527755 0.07203966 0.0610012 -0.1964809 0.5755484 0.01401097 0.03280552 0.2400395 -0.2694314 0.3406719 0.3495144 -0.3094378 0.1691132 -0.03123893 0.0388336 0.5371538 -0.4329792 -0.5842544 1.022185 -0.3294096 -0.07358782 -0.175554 0.1432588 0.2721268 -0.1046098 0.4169612 -0.04953319 0.571728 0.7473543 -0.3027653 -0.5101203 0.09404931 -0.1470616 -0.2386607 -0.4490808 0.3361731 0.214728 0.424078 -0.3870319 -0.5407181 -0.1968168 0.03894222 0.0458402 -0.7972564 -0.5132218 -0.1936359 -0.1936303 -0.5400729 0.1122624 -0.4317606 -0.189019 0.2980565 0.2361849 -0.3411607 0.1269096 -0.1726514 -0.4148064 -0.4279007 0.06746271 0.0242314 0.7381589 -0.3105123 -0.5558578 0.1876983 0.06637987 -0.3280789 0.1540439 -0.04857291 -0.1835269 -0.2259733 -0.1259645 0.8259912 0.3530701 -0.4876426 0.1162788 -0.0009037007 -0.1815535 -0.3241795 -0.005846122 -0.1341913 0.09464107 -0.02113595 0.0646591 0.4618367 0.1188805 0.2779628 -0.09484561 0.1286607 0.05988765 0.5276932 0.2928759 0.2375588 0.1530934 0.05661722 -0.02629929 -0.279337 -0.08585622 0.453936 -0.1658555 0.4264058 -0.220198 0.3003723 0.1713433 0.1717694 0.04797286 -0.2262115 0.6515201 0.3784435 0.2369616 -0.2708538 -0.09475455 -0.1117203 -0.1233228 0.4817142 0.1313286 0.1207783 -0.1624458 0.2571092 -0.3342391 0.1875997 -0.2359302 0.193825 -0.06159552 -0.04499735 0.4649187 -0.07792924 0.2363336 0.5530385 0.3596701 -0.09194756 0.1271922 -0.02231917 0.2036741 0.02408159 0.1828319 -0.6026219 -0.3011434 -0.1289067 -0.7860468 -0.1595227 0.005678752 0.1203415 0.5243179 0.5407439 0.01473107 -0.3418247 -0.1316497 0.6753807 -0.1634635 -0.3064833 -0.09523045 -0.3459859 0.04619385 0.1458917 -0.3398693 -0.2389066 -1.00247 0.2365818 0.2000962 -0.03648638 0.06300205 0.5771966 0.2805763 0.03578391 0.2177084 -0.1868334 -0.06425504 -0.1002037 0.26689 -0.01665598 -0.1699985 0.3052832 -0.5395896 -0.3385834 -0.1809568 0.1781048 0.277914 -0.1808648 0.07100116 -0.1977989 0.2396283 -0.115687 0.3552161 0.1346236 0.1334088 -0.2827287 -0.2501335 -0.05194784 0.07713091 -0.1454822 -0.2975016 0.2418628 0.227942 -0.7857535 -0.001443734 -0.2031183 0.2914722 0.2872431 -0.1020193 -0.05401743 0.3582341 -0.0767577 -0.4368934 -0.131943 -0.4824477 -0.3479492 0.3995979 0.1366471 -0.1965577 -0.0005597363 0.3615093 -0.1845317 0.4199519 0.1755483 0.4042073 0.09031241 0.04881668 -0.09097324 -0.267364 0.0232469 0.1486781 -0.1795442 0.223022 -0.406327 -0.2030132 -0.1322016 0.1440259 0.02508888 0.3084603 0.2826692 0.2538993 -0.1793749 0.3481754 -0.00507496 -0.004009811 0.577328 0.1184582 -0.06324727
