dev_DH_0001 -1.797777 0.06394109 0.6110049 2.059658 -0.004588913 1.924416 -0.8071355 2.790508 2.927628 2.403009 1.972661 0.1689651 -0.8970891 -0.08703899 -2.996171 0.240319 -1.315325 0.01539274 3.740924 -0.575667 -2.659249 -0.4026203 3.080942 1.54113 -0.676024 -3.125945 -2.755124 2.143312 5.005841 -0.4924006 1.957736 4.385258 0.4293291 1.754851 -1.365421 -1.725294 -3.087308 -3.211043 -3.432505 1.446162 0.5689518 3.277939 1.848873 2.220037 1.706664 0.5880302 -0.9021831 3.27486 1.092385 2.796978 -1.372536 0.8041224 3.226925 -0.7355722 0.6266904 1.28244 -0.1940603 -3.775835 -0.1383989 1.924227 0.8569377 -1.845401 -1.14066 2.548759 0.01352879 -0.6387351 1.593949 2.507395 -2.512407 0.9396113 0.5508987 -0.653093 -0.3975157 -0.1627901 0.8695204 2.701277 3.286717 5.624507 3.662009 -1.016776 0.4801925 -1.328246 0.7940138 -1.465361 -1.20696 -2.230812 -0.2040551 0.1730847 3.024028 3.458057 -0.8110168 0.7676193 -3.906207 4.389945 1.035507 -0.9947864 0.6703659 0.7673607 2.738994 -1.432957 -0.8760715 -0.770725 3.151808 1.874838 -0.4783221 -2.221904 1.838673 0.3753818 2.719155 0.3408295 -1.310598 0.3426293 1.308046 2.521055 0.1937911 0.59946 1.737573 -0.5833929 -1.335948 0.09654396 -0.2947081 -3.966751 1.730904 -0.3801561 -2.659004 -0.645216 1.526088 2.205563 0.7657823 2.985287 0.6981882 2.625823 2.842315 3.094889 -1.067014 -1.668623 -0.5872025 -0.2017884 0.5377319 1.382481 -1.21681 -0.1666957 -0.5666956 1.454315 -1.090819 -1.761109 -1.898971 -2.545674 0.5421115 5.188611 1.541189 -2.434588 1.942097 -3.106166 1.748088 2.223847 -1.470217 -0.05945814 1.540636 -1.16812 -1.034304 1.057325 4.045515 3.206905 -0.8475758 1.904088 -2.164544 0.9304988 -1.212193 -3.421028 -0.9045844 5.091784 -1.687178 0.03971172 4.512956 1.865755 2.604679 -1.608512 3.322742 1.131431 2.446692 1.01341 0.5205536 0.0520029 -0.2500483 -2.173905 -0.01677328 -1.320785 -0.9097242 1.28082 -0.2531422 3.525684 0.4291616 -0.418072 -1.758096 3.287674 2.817654 2.367907 1.329057 -0.435349 5.306828 -0.7273843 3.205221 1.041723 0.8737001 0.9963738 0.394399 5.022469 0.5993471 -0.7949021 2.794595 0.1860179 -1.169736 1.375817 1.575828 0.5112132 -0.3973446 -2.737011 -1.327145 -1.254546 -0.69973 0.2435143 -0.379363 2.067808 3.685378 0.2789078 4.055474 -1.174687 -1.569951 1.807176 3.50948 -0.1999342 4.820025 0.4517056 0.43992 -0.3581432 2.053575 0.01099784 -2.457232 -0.9981354 -0.2510524 1.249537 -0.2170974 -1.978441 0.5985695 -2.231279 1.171558 -0.7660527 -1.5189 1.164714 1.332987 1.483784 -0.1213911 -0.7172296 -3.056881 2.936899 1.058558 0.2690072 1.157474 -1.036641 -3.97609 1.187864 1.45147 1.279235 -0.9216408 -2.43128 1.250905 -0.9584592 -1.675681 -1.495788 1.10371 -1.883466 -1.484852 -0.6145209 -0.20221 3.539804 -0.5901614 0.4373034 -0.4768395 1.822044 -2.323542 0.6367615 0.1423674 3.359354 1.005571 -1.599815 1.548076 -1.695232 -3.228822 2.718358 -1.24271 2.564406 1.619445 -1.497172 0.3595092 -0.8662251 2.742884 0.3832365 0.06329455 -0.1435854 -0.7393339 -2.946877 0.2348966 0.2979105 -3.287734 -0.1795225 -2.506484 -0.09201346 -1.613832 -0.7595811 0.5326622 -3.089887 -0.2474761 -0.2946844 -0.003730248 -1.383866 -2.466125 -0.2449461 0.09590449 -2.597596 1.838459 0.009531633 1.936083 0.5118513 0.4861871 -1.504165 2.934622 -0.4702168 -2.232444 -1.260397 2.72303 0.9542123 -1.679033 0.8218622 0.2579814 0.5796421 -0.4244975 -0.452817 -2.512939 -0.7959567 -0.06378372 0.5839912 -1.074063 1.48182 1.65255 -3.148338 -1.217373 2.077384 2.439399 0.6271633 -0.2288864 0.9277332 1.128153 2.769876 -0.7547294 1.028911 1.506621 -0.1941995 0.7111642 2.131872 0.06193956 -1.427725 2.359369 1.960738 -0.3081977 2.883824 2.77479 -0.193516 3.888435 1.861971 -0.04062085 -0.7617549 0.6096044 4.461587 0.2281474 3.540709 5.102227 -0.8965538 1.547157 1.737492 -2.364155 0.6981516 2.645119 -0.1319631 -0.05956413 0.7380075 -0.5405108 1.240851 -3.647877 1.699073 -0.1746575 -0.7700046 -0.8872851 2.050848 1.804493 -2.540718 0.7456894 -1.141648 3.672992 -0.6545902 2.877923 0.08919175 0.703205 -4.284108 -0.9272175 1.381038 -0.3723635 -1.233641 1.706987 -0.1645489 4.496096 -0.2435728 -1.56649 0.9898989 1.469996 -1.800853 2.223593 3.761026 -1.093831 3.14268 -1.594608 -3.786773 1.783257 1.708554 1.732044 2.699217 -0.5650345 2.773662 0.4043396 -0.2986795 0.451465 -1.317667 -0.6009798 -0.5633776 -1.261308 -1.66381 0.7156705 1.302286 -0.003618427 -2.250378 1.332306 1.52871 1.271413 -0.6374419 2.6899 1.271733 -1.380704 3.661402 2.916412 -0.2565814 -3.319307 -0.8422885 3.305235 -1.728914 2.613651 1.218145 5.486963 1.29103 3.784677 -0.3147956 1.242637 2.772148 -1.600488 -1.62208 4.585949 2.076094 -0.423684 1.166179 -0.2903816 1.741914 -3.997372 2.157699 3.814757 1.619049 2.244694 0.6801345 0.2803079 2.25562 -2.749608 -0.4099872 -1.230513 -1.802015 3.39228 0.2107931 2.378671 1.329641 2.844108 -2.463869 0.5297469 -0.9379385 -0.7709774 -0.2973121 1.361415 3.846936 0.2281835 3.096542 1.336763 4.432908 2.616785 -1.529049 -0.6586065 3.495591 2.708669 0.8919861 3.343768 -1.196056 0.9950325 -0.5633411 0.6309064 -1.312783 0.394021 -0.2269614
dev_DH_0002 -2.321903 0.8769827 -0.172986 -0.6560634 -1.321201 1.946267 -2.435769 2.559203 0.794974 1.510903 -3.228422 1.180921 -0.3387317 -0.9912966 -0.4582252 -0.7455475 -0.5312534 -3.076562 2.614961 0.5473311 -2.024465 1.090473 -2.61364 2.93855 -0.766147 1.544689 -0.909362 2.01269 2.537949 -0.1969888 1.094876 0.2410681 -0.4149266 -1.155449 -2.070356 2.224191 -1.33061 -0.7258637 -2.35053 -1.257417 -1.008852 -1.023166 1.025478 -0.2549742 0.6616832 -1.79939 -2.536597 2.820654 2.571541 -1.239604 0.2881245 -1.321542 -0.4935906 -1.728523 -1.339179 0.7372268 -0.9256597 -1.55073 -0.3018652 2.58502 1.064887 -0.4818822 -1.442214 2.362756 0.01042748 -0.2987988 1.459439 0.2296502 0.3124286 0.1764394 -1.779497 -1.943092 1.078854 0.6057073 0.291661 0.4941274 1.023948 3.333348 2.581786 2.099992 0.457843 -3.076621 1.052156 -0.7012959 1.36271 -2.180405 -0.477583 -0.8891749 1.204561 1.542757 -1.470002 -2.239238 0.6175507 2.008199 -1.215047 1.572848 0.2182939 1.071306 0.5844942 -1.627409 0.3219223 3.021791 -1.560488 2.442524 -1.484082 0.2845015 -0.0543878 -0.1130584 0.4042324 0.7370771 -1.316923 -2.427999 1.952705 0.7732715 -0.7038743 0.7411193 1.771687 1.413907 -0.584335 3.053179 -0.322541 -1.71705 2.20296 -0.2434658 -2.865986 -0.3076625 2.525769 2.243973 1.070422 0.3559932 1.340939 2.32013 0.560001 4.249811 -3.137528 2.189815 -0.2404909 1.575659 1.508495 2.52479 2.42005 -0.5247819 -1.156691 1.160927 -2.158313 0.707922 0.2265583 -0.110659 -1.422329 2.007175 1.346978 -0.5154507 -0.914869 -0.08786233 -0.1080322 2.483742 -0.4070219 -0.5513382 3.87267 -1.064861 0.4239844 2.709647 2.487728 1.603445 0.1865525 0.0109602 -3.166623 0.6171737 1.470526 -0.5342928 -2.046241 2.213033 0.742701 0.4989651 1.150979 0.1157164 0.3114629 2.166322 3.709309 -1.168027 1.723779 1.796386 -0.4751008 -0.4198101 -3.212774 0.3378814 -2.187723 0.8547281 -0.3020953 -1.324231 -1.348022 1.716802 0.008001476 -0.06376688 2.054414 2.205843 2.743447 0.1480203 0.2160566 -1.344586 4.451252 -2.32992 2.160229 -1.516119 2.826444 2.410275 1.464184 0.2244273 -0.5398397 0.7436761 0.6763104 0.9392554 0.7337651 1.625603 1.330179 -2.980293 -0.3301136 0.13256 -0.2277621 -1.268952 -1.94363 0.1573464 -1.741538 0.04745702 1.578227 -2.48504 2.458775 -2.338756 -2.354109 0.03488864 -0.0904732 -1.75009 1.740842 -1.319152 -1.026189 -0.6305571 1.406742 -1.137144 -1.98152 -0.9613712 -1.969732 0.9678184 -0.3349728 -0.9777763 -0.4235448 0.7716917 -1.754384 -0.6873138 1.397076 -0.06148073 1.684172 3.645997 -1.161069 0.2594467 -1.750773 4.3928 0.9644754 0.0613253 -1.297341 1.521623 -1.913246 -0.9214923 -1.525787 -3.08328 -0.03477454 -1.97491 0.2366036 -2.03046 -1.232994 -2.888514 -1.704131 0.1496147 1.03182 3.4833 -1.987536 5.147192 -2.170562 -0.8438203 1.259282 2.813779 -2.369857 -0.9722688 1.606285 2.834614 -1.386542 -2.403179 -2.723535 -1.957548 -0.1587213 -0.3982322 0.09593147 1.10539 0.5767164 -1.528756 0.6709207 -1.843635 1.840904 -0.1701388 0.09637809 -0.8388826 -1.167031 -0.711321 -1.809515 -0.5041948 -2.130805 -0.6685383 0.8646957 0.1305828 -0.1268512 0.5587429 -2.977991 -2.403059 0.1540281 -1.424218 0.224475 -1.020235 0.8612571 -0.5984773 -0.9679294 0.1167365 1.021485 0.1701047 1.177223 -2.894059 -0.5664833 -2.297698 2.451943 -2.553745 -3.046994 -3.153738 -0.6525996 2.528807 -0.4142039 -0.105006 0.2157989 -1.306053 -0.3042564 2.491975 1.02426 -0.571412 0.2807654 -0.2476157 0.2784126 -0.6347314 1.216264 -0.3763892 -2.106765 2.10927 -1.280162 -2.695009 -2.842591 1.465566 2.308529 -0.3325237 -1.109341 1.290133 3.984787 -2.270796 2.626283 2.492833 0.8983053 -0.67297 0.6637343 3.154143 0.1445528 1.477486 -0.08174883 -1.549976 1.329455 2.022818 -0.9397587 -1.775281 -0.03026479 1.775057 -1.866028 -0.04646923 1.718836 -2.073804 -2.339631 0.8237917 -0.2045178 1.793173 2.038563 -0.4768639 1.035877 1.109471 -1.795074 -0.2145978 0.09380699 -0.2789418 -0.8645594 0.4166914 0.2436613 1.28018 1.432755 -0.873492 -0.09682736 0.3415011 1.716336 -0.3915217 -0.1924009 -0.3831131 -1.254577 -1.328506 0.5092823 0.3106047 -0.1648673 1.287616 1.587073 0.2698737 0.9393693 -3.286733 0.01216392 -1.65605 1.219257 -0.5973939 2.306166 2.907543 -0.9174616 1.443755 -0.5793599 -0.5576897 1.0488 0.3034568 2.747199 0.7519634 -0.814945 3.815732 -1.885923 -0.1933184 1.006206 -0.1909609 1.642172 -0.1832726 0.7335036 0.4755295 -4.226045 2.658365 1.988239 0.6471528 -1.135913 2.287167 -2.20879 1.263107 -0.8039804 0.3205804 -2.031629 1.543036 -0.4977048 1.855052 -2.711174 -2.728295 3.475266 -0.3362845 0.4089785 -1.212688 -0.1165238 -0.09733684 0.1900133 -1.339019 3.612583 2.397633 2.1445 -0.9912519 1.838318 0.04097985 -1.947843 -0.7169007 -2.666724 0.7022687 -1.202861 2.766707 0.9844711 1.232997 0.7193247 -1.56772 -1.917282 1.635492 -0.5222625 -2.063401 -1.045701 1.83509 3.787475 0.2232991 2.533187 2.009685 2.992329 1.279052 -2.428525 2.876223 1.004533 -0.5636956 1.048757 2.791071 -0.487874 3.49164 -2.164697 0.2993076 0.1035357 1.309905 -1.429042 1.664781 2.795916 0.711009 0.2983799 0.5158265 -0.1172798 0.6578399 0.0639805 0.1554961 0.2806226 -0.2244875
dev_DH_0003 -1.761098 2.489063 1.281954 -0.629913 0.9343739 1.314388 1.798128 2.284916 2.064466 2.319941 0.3264514 -0.7479802 0.06754855 0.6762913 -3.074402 0.1610743 -0.6481403 0.807581 2.042345 1.06712 0.7935476 -1.343571 0.9093841 6.022191 -0.1908032 -2.591993 -3.253864 1.348938 3.049891 -1.884887 0.5074549 1.804075 -0.01291985 1.63843 -2.51895 -1.217027 -0.8925266 -3.090463 0.6214771 1.839338 0.1526404 0.5404682 0.3712783 2.700764 0.1198092 1.076829 -1.446493 2.939908 0.518953 1.0998 -3.26084 1.368879 2.263807 0.1843017 2.047136 -0.5882514 2.631731 -3.705254 0.8824306 2.321284 -1.739593 -3.106622 -2.255035 1.360283 -1.605512 1.91535 2.883963 0.04850293 -4.585474 1.927618 1.939358 0.9506893 1.444074 -2.704561 -0.52676 1.55334 1.314719 3.667651 3.476919 -2.878572 1.484524 1.238792 2.23127 -1.022746 -2.094222 -3.538827 -0.372656 -1.194031 2.832505 4.817513 0.1757318 2.297963 -4.200508 2.08485 0.1853646 -0.895323 1.112034 -1.493871 -1.646946 0.7407379 -3.33343 1.310726 -0.6481426 1.683008 0.5736269 -2.807274 -2.881469 1.591561 1.510381 -2.045965 -2.389217 -2.40059 -0.1944774 0.7580246 -0.4721105 1.61446 3.892897 0.4630511 -2.744066 -0.006760795 -2.064723 -2.507972 1.596556 -1.683947 -0.7928988 -2.132694 3.676319 3.9111 -2.870711 2.68296 -1.476273 3.161217 4.304251 4.995417 -3.309963 1.435377 -1.493502 0.0555405 -0.5721468 2.643417 3.099105 -0.9067579 -2.637771 -0.2880768 -2.189826 -1.608975 -3.760484 -1.016938 1.713018 3.947373 1.0536 -3.189392 4.68218 -2.608837 0.4213865 -0.8540927 -1.480334 1.607898 2.446166 0.9648558 -2.505263 0.7322572 2.419002 0.2901148 -2.209761 -1.118459 -3.420209 -1.634112 -3.658122 -3.41076 0.9587858 2.126914 -3.305726 -0.1695464 4.001597 0.3273604 2.14818 -3.788107 2.705811 0.7585649 0.920871 2.646438 0.7227676 0.3771953 -2.074611 -1.212688 2.082638 -2.270618 -3.94729 1.230272 1.127941 3.491117 -3.15543 0.4841645 -0.1131205 3.793376 3.91598 1.62753 -0.2664325 1.666886 2.773326 -1.540432 1.235666 2.21451 2.054347 2.58138 -1.717934 2.084182 2.189053 -2.083885 -0.4146875 -0.2799539 -2.387453 -0.03670079 3.205085 -0.005837655 1.066254 -0.663198 -2.976409 -0.2346538 -2.368348 -1.204277 -0.4157738 0.9962382 0.1895864 2.521142 2.150772 -2.670082 -3.301296 -0.2159346 2.665651 3.488583 1.525813 1.591124 -1.421765 -1.845354 0.9275022 -0.4395818 1.422619 1.855277 0.02908145 -2.397586 0.8468125 0.1386765 -0.953025 -5.479594 -0.203517 0.9853008 -3.884069 0.2345469 -1.578084 3.362228 -0.06763649 -1.567317 -3.715556 0.3572386 1.010429 -0.484602 1.911536 1.269109 -2.979985 1.773687 2.244216 1.743907 -1.694276 -0.6493757 -2.385873 -1.186709 -3.032847 -1.979279 -0.7171009 -1.372886 0.9243841 0.958521 1.623358 0.5970868 1.003336 1.415419 1.070179 1.348857 0.3078645 -2.099689 0.3395273 1.880403 2.712156 0.2011917 3.547605 -2.079597 -4.07539 1.041309 0.02709095 1.667997 -1.691467 -0.5467024 -1.997846 -2.467006 2.508275 -1.513044 -2.108863 -2.555166 1.264039 -1.984557 -0.8193748 -0.6616058 -1.770514 1.431794 -2.686284 -4.372096 -3.185205 -3.180824 1.555661 -4.694023 -0.3383794 0.3327474 -0.8918365 1.083659 -4.575216 1.287975 0.7254426 -3.128175 2.078163 -2.979913 2.219113 1.166406 2.424284 -1.313357 0.6783278 -0.9780146 -3.393887 -0.1304507 4.829612 3.767179 -4.043006 -1.82905 -0.9285731 1.488872 -2.819506 -1.340719 0.1401501 -2.85272 0.04202579 1.385899 -3.702649 -1.479301 3.127755 -3.146524 0.5040542 5.292499 3.007681 -0.06699124 -1.854992 2.036663 2.230133 -0.3169914 -3.159257 -0.3634454 2.392347 -1.218471 -0.4710548 1.816522 0.8272781 -1.780073 3.139232 2.220471 -1.01387 1.790963 1.427881 1.888466 0.8344346 1.727003 2.147849 0.9201396 0.376277 5.08639 0.6122159 1.886924 0.9149839 -2.723349 -1.708303 2.409555 -3.723897 -2.68884 2.191554 -0.9262286 0.1711065 0.6315038 0.8294514 1.522102 -3.78992 2.48042 -2.852847 -1.530292 1.326927 1.364019 -1.240653 -0.8864544 2.423961 -1.974459 4.507028 -3.347457 3.5279 1.861882 1.333742 0.7822027 -1.615605 -2.205366 -1.772071 0.3762322 2.270974 3.791915 -0.01724075 0.5272106 -0.707704 1.067369 3.17569 -0.3488296 1.904909 2.886664 -1.142889 1.374374 -1.248484 -2.91008 2.545184 1.07565 -0.7316244 2.459498 0.3106924 0.4355788 2.98733 -2.03638 -0.7223827 -0.5346329 -0.7365145 -3.806345 -1.774287 -1.32117 1.4927 0.6443045 -1.291134 -0.8118691 1.250453 0.2896816 1.334671 2.4762 1.306792 -1.439882 -0.3964843 3.006824 1.224012 -1.20138 -3.431986 -0.1030839 2.450317 2.525769 0.844877 1.927638 0.4665617 1.90824 1.555749 0.755675 0.9375243 2.428442 -1.979449 -2.496909 5.176298 1.231673 2.159959 -1.011642 -3.503484 2.439378 -2.164327 1.334791 0.7908821 1.525964 4.273128 0.8154899 0.7395258 1.249762 -4.458473 -1.143568 -2.129299 -3.896261 3.229143 2.042643 3.350818 -0.15579 0.1060791 -2.644691 2.169045 0.5903064 -1.414869 1.221806 1.170775 3.853272 0.3967727 4.855678 1.923195 2.598739 2.948772 -2.392784 3.508224 2.787791 2.364166 -2.601539 2.876438 -2.410911 3.442846 -1.986235 -3.031191 -0.4690425 2.623297 2.684852
dev_DH_0004 -1.413769 1.598151 2.860205 -1.543402 0.8489813 2.890506 2.079054 4.45359 3.296396 2.520578 -0.4349668 -2.356497 1.339348 1.424612 -3.199388 2.571746 0.5758491 0.08762185 2.04409 0.7652275 -0.2342033 -0.6776205 0.7007695 1.310552 -0.3911412 -2.267532 -1.59949 2.608078 3.245574 -1.648246 -0.3618281 3.352303 2.598849 2.269518 -3.335846 0.1517976 -1.38789 -1.949115 -2.079482 1.829604 -0.1694664 1.765772 1.834363 2.049257 -0.846615 2.092139 -1.158436 1.537481 2.389969 0.9513776 0.6497313 1.493467 0.9213192 0.5659968 1.339888 1.663654 1.626316 -3.812379 0.9393044 0.9754077 -0.318905 -2.04738 0.03822709 0.8062043 -0.5031981 1.317188 1.070358 -0.07140759 -2.476767 2.834555 0.162394 2.233233 1.755899 -1.045561 -0.9480222 3.039874 0.8521794 3.580094 4.006931 -2.705487 2.64203 2.106504 2.620196 -0.8163739 -1.537078 -3.652823 0.04130018 -1.121413 2.962482 3.662919 1.132437 1.447378 -3.888666 3.538826 1.436197 -1.997619 0.4759065 -0.01622664 0.3075894 0.0607129 -3.160492 2.098808 -0.8310089 1.996903 0.8275582 -0.3997808 -1.07025 1.584345 0.38072 -0.850557 0.649382 -1.404887 2.85441 2.476658 0.8967712 1.481481 3.61507 2.97197 -0.8389958 -0.3906118 0.2472064 -3.716574 3.335328 0.4714566 0.167731 -2.305876 2.728994 2.504779 -1.328557 2.861447 0.4938813 2.402621 1.46309 2.627486 -2.076952 0.4101209 -1.25392 0.1884756 -0.940229 4.698949 2.569495 -0.8617061 -1.375118 0.7004085 -2.45873 -1.809127 -2.243832 -1.136879 1.996881 2.234695 2.948823 -2.353872 2.328998 -2.890793 1.094743 1.851203 -1.03986 2.239748 2.177946 0.354934 -2.746968 1.532969 2.917651 2.955609 -1.991752 0.4850735 -3.748357 -1.733099 -1.670676 -3.418953 1.349846 4.25036 -4.127125 -2.137902 3.032325 1.420371 3.442739 -4.077912 2.845867 1.891732 1.692404 4.000083 1.302597 1.176137 -1.913857 0.2336753 0.8812212 -2.905304 -2.518001 -0.7553026 1.102782 1.617792 -0.4810045 0.2663575 -1.232184 3.356258 1.097168 2.542594 0.8604594 2.04618 4.101107 0.8794522 2.793081 2.490281 2.359546 2.174802 -1.985303 2.515995 1.201584 -2.502748 -1.460402 -0.09140783 -1.968189 0.2461375 3.507172 -1.397412 1.084617 1.724169 -1.112853 -1.564192 -2.006013 -0.4995418 0.4397246 1.872941 0.5020427 1.493685 3.306707 -2.2309 -3.468883 2.926672 0.4340308 2.7191 4.637887 1.010627 -0.752896 -2.079892 2.912556 0.8044876 -0.4404392 1.63775 1.642661 -1.528922 0.9257467 1.299823 -0.768564 -3.332388 -1.967579 1.912974 -2.658764 1.54919 -0.6288745 4.284331 0.2348704 -1.036387 -2.544198 3.728731 1.380795 -2.760807 1.491813 0.6654801 -2.728955 1.681191 2.950418 2.122612 -0.5200908 -0.5348521 -0.4719304 -0.1829835 -3.266265 -2.374762 0.1926549 -1.849471 3.085885 -0.08437823 0.6565886 4.366025 0.4943483 1.011394 0.06127137 1.437266 1.236042 0.01839755 -0.8869353 1.233303 2.370527 -0.952242 1.260376 -1.852494 -1.842712 2.500117 -2.948424 2.747297 -0.2454455 -0.1172129 -1.654465 -2.460074 3.014715 -1.599043 0.7739211 -2.36638 1.17661 -3.350768 0.3380928 0.1523378 -2.847643 2.290602 -1.428006 -3.676808 -2.233039 -2.227588 2.055916 -3.281784 0.4219035 1.213618 0.2993231 0.461023 -0.5059712 -0.523139 2.034593 -1.935948 4.270543 -2.261237 1.466882 3.275658 1.092364 -0.09653772 1.267864 0.992424 -3.901406 -0.3554956 1.454788 1.927763 -3.580634 -0.8614618 0.4481514 2.387748 -2.258478 -0.6277093 -0.4372723 -1.690451 -0.3202111 0.1168332 -1.494509 -2.820203 2.286365 -0.8165376 0.6970348 4.243011 2.061504 0.7814633 -2.183802 2.71648 3.267981 2.489916 -2.5677 2.135821 4.232082 -1.246789 1.87479 2.729747 -0.2097841 -0.9364222 2.404804 1.622396 -1.239147 1.889892 0.9085522 0.3311682 0.7093768 0.8062739 3.206512 2.184471 0.3993655 1.263505 0.5974295 1.556121 0.888634 -2.552682 -2.023547 1.938861 -3.812402 -2.803802 3.647055 -0.8858662 0.7641988 0.5564466 0.649717 1.699253 -2.369596 2.730156 -1.245116 -2.171956 1.460043 1.173424 0.5984554 -0.5139452 1.056823 -2.146056 2.975012 -2.349108 2.589769 1.300765 1.645587 -0.3729735 -1.47599 -1.287258 -1.538751 -0.03061992 3.129264 0.09991639 0.5391448 -0.62441 -0.5476838 1.230637 1.18037 0.3207648 2.468594 2.816142 -0.6446281 2.035239 -0.7783999 -3.014417 1.309498 -1.731381 2.01204 3.326298 2.266471 0.5470096 1.765127 -0.9234981 -1.179651 -1.198828 -1.444775 -0.546877 -1.360468 -1.023019 1.277728 2.430762 -1.826267 -1.903061 1.951349 1.664303 0.2985922 2.812228 3.009379 -1.671834 -0.9260761 3.326601 1.642 -0.6383091 -3.761471 0.954275 4.568985 1.779098 1.342635 3.086848 1.998895 0.6057141 0.799126 1.366907 2.141378 4.39255 -1.796178 -1.768054 4.665633 0.9821019 0.535085 1.340534 -4.155455 1.915176 -0.372832 -0.08967423 -1.476638 1.825399 2.064918 0.9018427 1.425837 3.39339 -4.301253 -0.9417873 -2.974852 -2.047764 1.575961 2.497629 3.05636 -1.416454 2.092804 -2.636635 4.159222 2.247593 -1.630115 2.170126 3.790609 1.843234 1.018058 4.129626 3.31104 2.361237 1.023408 -2.53569 2.062349 2.386099 2.162303 -2.602854 -0.8514882 -1.426311 3.341363 -1.803079 -1.976164 0.233023 1.984671 0.008121959
dev_DH_0005 -1.627785 0.931557 2.019412 -1.43913 1.021242 1.415019 1.379852 1.983135 2.157083 2.667944 -0.3329265 -2.120068 -0.839371 -0.188413 -1.851092 0.66529 -0.1119363 1.556201 2.546304 0.3324004 1.636819 -2.530795 1.38891 1.982393 1.476007 -2.338023 -0.3501917 1.325297 2.314827 -2.13663 -0.5582336 3.497924 1.340181 0.8716854 -2.930286 -2.497441 0.1261709 -3.001832 -0.4679835 3.504306 0.883529 0.540719 -0.4487335 2.025847 -0.5970647 1.306308 1.197349 4.06928 0.5398914 2.558207 -1.861323 1.677864 0.9788452 0.898988 1.879402 0.4925804 2.714928 -3.497936 0.8064538 0.9528829 -0.9852465 -2.09938 -0.7030182 -0.7049943 -0.1956531 1.548168 0.6804771 0.1544022 -4.028747 3.164161 2.013906 1.686746 -0.8068658 -1.708927 -2.588974 0.3403983 2.045626 2.19206 6.03873 -3.319246 2.076602 2.525638 2.030784 -0.598929 -0.6912031 -3.717694 -0.1780282 -2.148637 3.94732 2.975114 1.459982 3.001451 -2.882453 2.70609 1.153612 -1.400383 2.350167 0.4261121 -1.478993 1.15357 -2.415428 1.733685 -0.7494876 2.958409 0.1208669 0.4863799 -1.643249 1.965358 0.9466841 -1.423821 -0.6524387 -1.015045 4.006764 1.57942 -0.4912345 0.6537883 2.698115 2.961704 -0.6130404 -1.673836 -2.429298 -4.834741 1.412846 0.08139677 -0.4191395 -2.778689 1.660327 3.524978 -3.221856 2.109696 0.06258809 2.8443 2.477848 4.07473 -3.087729 1.909535 -1.247618 -1.12762 -1.980838 2.998093 1.782753 -1.009006 -0.4002678 -0.1597079 -2.973478 -0.9428991 -3.562461 -2.008292 0.2631461 2.072202 3.567542 -2.900419 2.904923 -2.467031 2.124971 -0.4922263 -2.217813 1.915618 0.542877 0.7720001 -4.337997 -0.08838381 2.804179 2.639786 -1.990651 -1.239772 -4.20228 -1.682532 -3.085253 -2.893028 2.529291 3.830259 -4.045774 -0.6667093 3.712844 0.4120231 1.310007 -4.472196 2.718353 0.84109 -0.2911715 3.853482 0.4981022 3.050642 -2.762981 -2.191946 1.911099 -3.140247 -3.520193 2.086335 1.283385 3.967521 -2.121954 0.1898565 -2.607636 3.220349 3.005735 2.604329 -0.3053449 1.412261 2.655209 -0.3822926 2.303748 1.950237 2.245762 3.120326 -1.391592 2.540413 2.159298 -2.807095 0.2808064 1.015016 -1.900547 0.8013173 1.238937 -0.6972899 0.8577712 0.6330052 -2.454619 0.1876916 -2.224766 -0.952414 0.417536 1.573034 2.55245 2.089715 3.372303 -2.668261 -2.976017 -2.649896 -0.2554153 3.338611 2.171916 2.248358 -1.823812 -1.379598 1.590538 -0.3557906 1.804437 1.303519 0.8601531 -0.4280905 1.030483 1.874158 0.08403591 -4.943391 -2.010491 1.068759 -3.338278 1.121886 -1.529432 4.140608 0.9044349 -2.059932 -2.757891 2.009633 -0.3532973 -2.466466 0.7537786 1.390664 -2.168642 1.324634 2.789729 3.783407 -1.189404 0.4153515 -1.445634 0.8063623 -2.422121 -1.595658 0.1891335 -0.3575254 0.7941995 -1.090017 1.870754 0.6368808 0.8809786 1.411063 0.06991014 1.639642 0.9007955 -2.462337 -0.4210538 2.256309 1.631619 3.401242 1.521328 -2.036414 -3.229637 1.745635 -2.496601 2.595479 -1.345485 1.168185 -1.660056 -3.221595 2.668061 -2.601087 -3.644289 -2.530208 1.988786 -3.533571 0.3262964 -1.643861 -2.044913 1.284333 0.5120028 -2.927661 -2.864648 -2.672004 1.381562 -2.798152 -1.532683 1.613285 -1.628175 2.373379 -2.183093 0.3427271 0.8165376 -1.910904 3.022118 -2.086392 2.039433 0.565739 2.905524 -1.773487 1.484476 0.6048762 -3.145169 0.09569586 1.770949 2.555225 -3.406232 -3.237207 0.2625965 3.60242 -2.064996 -3.41707 1.71537 -2.323195 1.080257 2.67286 -2.757743 -3.824022 2.653295 -0.8160484 -0.02888642 7.597105 2.186343 1.49189 -2.57815 1.584056 3.425605 0.6854787 -3.225754 -0.599518 2.243567 -1.313018 1.33069 1.839949 0.9010671 -1.163477 3.113686 -0.287571 -0.7361336 0.257874 0.3849491 0.6708011 0.411915 1.230357 1.931894 2.560313 0.2045017 3.343914 1.984751 2.734221 -0.5432288 -1.124647 -2.68075 2.111471 -2.542205 -2.519329 4.826042 0.1516748 2.073273 1.056038 1.513571 2.476788 -3.252714 0.9895115 -0.2968953 -1.182614 1.113727 1.040918 -2.843675 1.187762 1.505744 -2.490186 2.471834 -2.366278 2.36985 1.638806 1.734977 1.446418 -0.828485 -3.009308 -2.162189 -0.759629 0.9824024 4.193493 -0.4828843 -1.170478 0.4773788 2.192868 2.124008 -0.8652577 2.33346 2.857869 -0.8769302 3.117783 -0.9664372 -3.2224 -0.6988384 -2.274677 3.169481 2.499519 1.816738 1.970703 2.793539 -1.475095 -1.817723 -0.527627 -0.1560531 -3.765762 -0.7048605 -0.7003675 2.230695 0.15667 -1.723663 -2.459647 1.356364 -0.02966855 2.242633 3.453876 0.4416711 -2.430846 1.765993 4.268084 2.27155 -2.34846 -3.607089 0.2206696 1.350875 2.827786 0.06106612 1.558802 -0.07284252 2.158704 3.73817 1.149683 -0.1482943 5.440707 -1.135143 -2.313568 5.019207 0.4446158 0.9659725 0.9321998 -5.243109 2.796867 -1.838371 2.171867 1.896728 0.854432 2.365583 0.7305044 1.241536 0.57546 -4.174902 -1.063386 -0.8775151 -2.30916 3.366958 2.887045 5.624097 -1.782345 0.4110614 -3.284771 3.69942 3.162596 -2.064576 2.107671 3.041229 3.272885 0.828827 3.049824 1.321348 3.166907 1.445618 -2.468931 2.199907 2.505089 1.876014 -1.997865 3.234377 -2.248851 3.736136 -2.109952 -0.8880001 -0.1202938 2.776936 2.010642
dev_DH_0006 -3.348291 1.403673 -0.7390204 -0.02879093 -1.960031 -0.3268522 -2.627972 6.282065 -3.605345 0.4383916 -4.446476 -2.333431 -0.1254244 -1.504578 2.542419 -1.723978 1.399458 -2.12925 3.633001 -0.6861144 2.418512 1.546174 1.154029 0.2263099 0.3562436 0.7402337 1.688117 4.679736 1.87138 0.3387127 2.924718 -4.256087 -2.085825 -2.008513 0.2002074 2.135463 3.898387 0.5002864 -0.5352912 -1.816887 -2.900783 0.7065554 0.585511 -3.629767 1.434838 -2.491228 0.4446761 1.306514 1.520411 -4.919456 3.222094 -3.461091 -4.669144 -2.889247 -3.342821 -1.377228 1.974117 -2.819341 1.493903 1.965217 2.297798 1.0767 -1.191553 4.237331 0.3679763 -2.77147 -0.9820402 -1.188899 2.139954 -5.645084 -1.305951 -1.971683 3.898761 -2.927505 1.077324 1.414061 1.205972 2.368846 0.9794497 1.483127 0.8370016 -2.412591 3.795374 -0.2643973 2.960265 1.835763 2.309593 4.535571 4.709249 0.6171514 -1.029963 -3.956668 2.37686 -4.193348 -1.03043 0.3652118 1.208267 1.389813 -0.9338392 -1.057313 0.2613824 3.206105 -3.045426 1.755049 -1.597052 1.765088 -0.9621108 -1.299812 -3.062554 1.571558 0.5075169 -0.3379941 2.107585 3.55749 2.277246 -1.573851 2.093744 3.322641 -2.244719 3.906561 4.025832 -4.6713 3.703331 1.966081 -2.095473 -1.85716 1.767784 -2.636416 3.061192 -2.127892 -0.378935 3.510146 -0.5709875 3.392898 0.5532323 2.491831 2.51853 -0.5533816 -1.306758 4.107533 5.518595 -1.442531 -0.8721169 -3.651682 -3.269205 0.5658239 0.742526 2.420907 -3.785471 -2.792583 1.713906 2.310413 -3.455897 2.043505 -1.502353 -3.370545 0.896077 0.2235152 2.100322 -1.081582 0.9651799 2.713078 0.1202083 2.027319 0.1292802 1.568169 -2.600373 -1.06876 1.146065 0.8295498 -2.153519 2.553812 2.460808 -3.1835 -4.654624 -1.691836 0.7530102 2.174323 4.662012 -2.873248 2.360102 2.393728 -2.090777 1.001643 -3.834445 2.336066 -2.168744 -0.1887238 2.158684 -6.348776 -1.513309 2.221999 0.2068321 1.992997 -1.610083 1.402105 2.193009 2.622564 -1.875186 -0.9985522 3.650321 0.9847685 2.972847 -2.475143 2.87836 3.331947 1.357675 1.023229 -0.1164682 1.144089 1.545797 2.139578 -1.499604 -4.647281 1.212969 -1.772004 -1.197413 0.6457294 2.023417 0.00486502 -1.846051 1.324047 -2.524221 -1.105993 -1.111047 -3.662573 3.330316 -1.738225 0.1661972 -1.349537 -3.798921 0.05752694 3.397417 -2.477537 -0.04950403 1.995952 1.671299 1.448273 -1.995057 -3.388694 -1.707535 1.358464 -1.104324 2.490593 0.7380627 1.614656 -1.249578 -2.289784 1.395249 -0.961159 3.344316 6.731867 -2.705032 3.000021 2.187187 2.339215 0.2248856 1.715418 -3.249704 0.7676723 0.4402891 -1.591467 2.655776 -2.340318 1.046678 2.28271 -2.649437 -2.82261 1.857562 -2.583498 -0.6884674 -2.654733 4.567703 -0.9814098 -1.242866 2.719409 -0.8312454 -1.310068 2.190791 0.8630461 -4.524329 -1.91759 2.759853 -2.095497 -4.261269 -1.737658 -1.928328 0.08977919 2.225222 2.174657 1.682058 1.754053 2.742936 -0.9085842 -1.608163 -2.791673 -2.712693 -3.301732 -1.638043 2.701828 -1.878157 0.2677448 -2.88783 -0.657674 1.131142 -4.358258 -0.7501519 0.8407163 1.241794 2.055891 -2.843483 -0.1587469 3.043411 -1.750655 2.68906 -0.6230785 2.743651 -0.3124003 -0.8951369 0.9924386 2.626796 0.4942624 1.360509 -2.996333 1.494242 -0.18265 4.133392 -1.356939 -4.075097 -4.036361 1.589157 1.15409 0.9907132 -3.958781 -1.627314 -3.341732 1.867372 1.671496 -0.1181919 -0.8486503 -2.643708 2.863589 -3.122956 -1.822567 -0.5595464 0.7555075 -1.292554 4.019701 -4.001667 -1.511563 -2.01195 -0.923304 0.9380414 -4.797062 -0.7251239 0.4918398 3.694759 -0.7385782 3.628977 -2.566479 -2.373995 0.9256186 1.084473 -1.764365 1.058124 -1.217002 -0.3903325 -3.613967 -2.020534 2.752558 -1.680997 -1.951518 -0.3289705 1.407924 -3.381447 -4.301385 -4.887186 -0.8694202 -0.807453 1.373646 1.43351 0.2577166 -1.098196 1.003657 0.1169726 0.1465173 -1.635122 2.053027 3.37581 -0.8867134 -0.3746186 -0.1914817 -2.200797 -1.681878 2.925104 3.07515 -2.852881 2.164475 2.210309 1.218093 0.07006538 0.1246754 -0.9454326 -0.1863638 1.703419 -0.1394245 -0.1808097 0.5894227 1.499865 2.884385 -1.005198 -1.409165 -0.4602953 -2.902312 2.075352 2.891883 0.7686638 1.501473 1.342512 2.244075 -0.2950692 0.2602203 -1.263603 -1.972004 2.722356 -1.564123 -3.136451 1.563808 -2.479566 1.585094 2.279059 0.2788431 2.886643 -0.03038681 0.4442967 1.622935 -1.923911 -0.0668605 1.394728 -2.52665 2.939643 2.308431 -2.771654 1.630731 -2.259088 -1.427198 -1.106151 3.59675 -4.997604 1.853324 -1.914026 -1.335168 2.008464 1.649895 -1.947814 -2.290561 -1.576738 -4.604395 3.780243 -2.113304 3.839853 3.250267 4.254971 1.490041 1.820646 -0.7084532 -1.564323 1.591781 -3.121184 -3.113304 4.370425 2.641173 -0.3228091 0.6475097 4.813144 -0.7979918 -2.348902 0.9847451 -0.6261656 -1.603726 -0.2389787 2.573232 2.019857 1.945095 4.219551 -0.8337902 -0.2234308 0.3302554 -2.347747 4.93921 2.281802 -2.881978 1.052609 1.974769 -3.874775 3.687315 -3.463834 0.1345889 5.128898 -2.37803 -2.830148 -1.102374 2.429566 -2.377962 -1.901164 1.621997 -2.975614 -0.2965523 -2.186422 -0.8521153 4.84935 -0.9650854
dev_DH_0007 0.5490403 2.345327 1.816292 -0.3028099 1.624753 1.650428 1.076836 2.672756 -4.892684 2.652108 0.4952232 1.525543 -0.4788224 -1.348648 2.869061 2.098962 -0.966948 2.234437 0.5644983 3.316379 -2.466092 -1.607096 -0.9094105 2.667683 1.410867 -2.304765 -0.2911602 4.585656 2.321535 -2.689461 -3.257427 -0.08235279 0.9668282 1.938485 -3.332021 -4.436565 -0.8980941 -2.582081 0.2314935 4.202564 -1.613409 -2.386635 -5.483358 1.362881 -4.401217 3.135315 3.835355 1.230193 1.715767 1.972736 -3.823877 1.829136 -0.1545092 2.16223 1.102323 -4.901139 1.676601 -1.914882 1.753204 0.1024072 -2.775059 -2.588413 -2.176426 2.825586 -1.085484 1.903757 2.117965 -2.568537 -4.240101 2.523397 -0.6508989 2.468858 0.6673902 -2.415114 -3.99023 -3.232678 -1.202489 4.313377 3.461232 -5.124648 3.049448 2.190508 2.138112 -2.172604 0.2371353 -2.466396 0.739619 3.205988 4.981849 0.1291556 2.57765 2.155043 -3.126035 2.673696 -5.395235 -2.863508 -2.005547 -1.418787 -1.230207 0.7877513 -2.592102 1.808275 -3.077773 1.226412 2.059942 1.699026 -3.984374 -3.478485 1.674324 -2.243585 -1.265226 2.240917 2.326015 2.731563 -0.3679855 0.002923744 2.56854 2.050318 2.37175 3.878364 1.585175 -1.559765 1.74186 -1.562783 4.466608 -5.335444 1.908816 3.266634 -1.086581 2.16492 -0.9219838 3.115623 3.66766 5.530134 -1.912318 4.611244 -2.182609 -0.3793323 -3.847737 3.819382 3.607079 0.7037984 0.2272465 -1.92326 -3.584877 -3.689073 -4.130804 0.6878331 2.063874 3.253859 4.835436 -4.65007 4.360384 -0.8493364 -0.938472 -2.134183 0.9492284 0.007348014 0.4658151 1.345028 -2.220696 2.295424 1.540854 2.602722 -2.639842 -4.271752 -2.677032 -3.678727 -3.37982 -2.42516 2.496871 1.142803 -2.778368 -0.6792926 1.656657 -1.667948 -2.914233 -5.54537 1.801833 1.842916 -2.587192 2.549399 1.598251 1.406675 -1.633628 0.7911028 1.023772 -4.719655 -4.322322 0.3085121 0.8396708 2.580802 -2.424809 -0.9616936 -0.1650947 2.600497 2.706997 3.927046 -0.8660484 2.448113 4.790284 -4.79286 4.123786 2.070793 4.998342 4.31468 -3.086759 3.958771 1.687406 -3.081449 -1.660814 -0.03588275 -3.681494 -2.348128 -1.776435 0.6689522 2.286226 1.98856 -2.668745 -2.693632 -2.077572 -2.910651 1.946998 3.540279 0.4539919 1.803817 3.646527 -2.513258 -3.326915 -4.157156 -2.751538 4.924005 -0.1280221 1.87784 -1.162072 -3.506992 1.014532 1.229353 0.446643 2.103447 1.241242 2.014539 1.635156 3.849189 -2.581967 -6.139284 -0.7863297 1.010506 -4.239151 -2.292122 -4.363423 2.416781 4.865889 -3.229582 -3.177737 -3.181969 -1.09107 -3.481807 1.549 -1.813112 -3.11647 2.281691 2.466673 1.747706 -0.9029782 3.297287 -3.896018 -3.156177 -2.777328 -0.349731 1.772604 -5.549999 3.159273 0.3124258 1.990858 2.394166 1.894063 1.475789 -3.129224 0.7197412 2.118891 -4.824126 1.830923 1.175574 2.028732 3.966677 -1.278761 0.8338375 -2.595871 -3.761344 3.709576 2.784702 -2.743485 -4.202586 -2.830435 -2.445681 3.285889 -1.890374 -4.796067 -3.241208 1.824068 -4.843472 2.092928 2.347946 0.7093616 3.178973 2.942973 1.599805 -2.313162 -4.215529 1.599701 -1.251346 -2.450033 2.126061 -1.756072 -1.820104 -4.617037 -0.2090777 2.785569 -1.669875 3.595775 -3.699727 0.145698 0.8587344 1.954459 0.6080057 0.3007855 1.069828 -3.370189 2.662635 4.520111 2.401851 -2.252299 -1.761163 0.0873886 2.603392 -2.970423 -5.506724 -1.463874 -2.255267 -5.481032 -0.05868402 -4.585919 -4.498676 0.9491537 0.7480345 1.058389 3.793788 2.37599 1.393193 -2.209279 0.1751274 3.229711 1.246588 -3.457329 -1.644963 3.761836 -1.084638 1.256248 1.728204 1.329008 -1.303617 2.948565 -1.655069 0.7464841 0.6991888 0.112744 2.194803 -4.717668 0.7458806 2.856932 2.787709 0.8809773 3.162895 0.7219164 0.232011 1.233794 0.1578357 -2.123338 0.5303375 -2.450768 -4.640026 2.358323 -0.5815515 2.576768 1.455245 2.821022 2.780129 3.84626 0.9563221 -2.77486 1.476983 1.294359 2.29231 -2.440617 0.8334626 2.4744 -3.772298 2.437213 -4.212785 0.5731129 1.974958 2.766874 2.62938 -2.160183 -3.14584 -2.978302 1.170933 -1.226197 3.175506 -2.381404 -0.6150662 3.831878 0.6656272 2.508295 3.499076 2.597929 1.350329 -2.135456 0.6875991 -1.898786 -2.295501 -2.136465 -3.141006 0.04344768 2.76385 -0.03966317 1.684786 1.812869 -1.936506 -3.075372 -2.964824 0.6532714 -1.601255 -0.6987797 -0.1842621 3.492849 3.419968 -3.207744 -0.9583969 -1.054795 0.6639617 2.180826 1.185838 -1.535178 1.71593 1.508056 3.563359 -5.87012 -4.726849 -3.076344 2.07795 1.061045 3.669847 0.2408759 0.1812923 -0.1212609 0.1260874 2.266993 1.738254 -0.2291455 1.055872 1.499961 -3.255039 4.568519 2.941398 3.216541 0.6594543 -2.196492 1.192738 3.050126 5.055221 -3.493519 2.480678 3.900875 3.062749 0.747276 -4.591309 -2.271193 -0.848331 2.862442 -2.602891 3.78042 1.085702 0.7649432 -3.815368 1.844536 -3.424795 3.478205 1.893115 -1.511635 -2.359709 2.32392 1.777348 2.943287 2.148952 0.9939801 2.35933 1.783767 -3.593095 2.868386 -3.020896 2.004946 -1.001053 -1.088817 -1.775106 3.404821 -2.003839 -2.457563 -1.094239 1.07627 1.623596
dev_DH_0008 -1.7947 1.94124 1.915608 1.227235 1.311275 1.905233 0.667028 2.363825 -5.980826 2.836515 -0.2349938 3.454361 1.602204 -2.785206 1.967944 2.069984 -3.319092 1.04732 1.71631 2.313342 -1.296395 -1.962886 -0.8753343 0.9253721 1.772458 -3.867388 0.9469755 4.034679 2.93393 -2.936077 -3.973401 1.374959 1.861922 2.795338 -3.429549 -3.856684 0.7011194 -1.906822 -0.8689433 2.347103 -3.945898 -1.835058 -4.8808 1.354134 -4.023579 3.748641 2.488239 0.6067978 2.361289 2.74003 -4.657725 0.7805129 1.709772 0.9671798 2.130705 -5.625964 0.0224219 -1.895961 2.023578 1.140767 -3.16129 -3.671137 -1.142332 3.205634 -1.48618 0.263304 1.0168 -2.961712 -4.68633 -0.180453 -0.04279808 2.942812 2.074592 -1.481551 -4.584043 -3.900431 1.060052 2.91833 2.532463 -5.798657 2.075916 1.045032 0.6913968 -3.285123 0.5798053 -2.595142 1.964814 4.76863 1.535877 -0.6666762 3.492526 1.387988 -2.293047 2.518341 -4.324453 -3.903891 -2.439099 0.7753255 -0.4426735 0.6119165 -2.830887 -0.09037871 -3.380124 1.410139 1.14524 -0.13595 -3.0006 -2.765502 1.491718 -3.211672 -3.613706 -0.1050739 1.085129 0.2641768 0.3315739 -0.2275009 1.001038 0.6942267 0.4085262 3.786868 -0.9830748 -2.905628 0.07984262 0.2629519 0.1838728 -5.281175 0.6746104 2.379772 -3.030627 1.971299 -0.9203303 1.77571 0.9234677 3.862343 -3.018064 2.347619 -3.551826 -1.591224 -4.772184 1.734147 4.94271 -0.6271692 0.3779297 -1.085719 -4.401542 -4.449037 -5.178418 0.608065 1.52567 1.487322 4.599856 -3.867852 2.37552 -2.719834 -0.08421671 -1.73676 1.395798 -0.7534382 1.011111 2.397987 -0.9826653 3.974405 2.928327 3.089227 -2.961483 -1.860112 -2.763946 -2.769686 -4.352307 -2.425997 1.495479 0.6885456 -3.74844 -0.5498883 2.535114 -2.779005 -1.767636 -6.840772 1.830973 1.727687 2.396838 0.6285051 1.344883 2.342673 -2.98687 0.4617267 1.393762 -6.075633 -4.842381 0.6996682 1.680162 0.3642194 -2.983425 -0.5170414 -0.2043982 2.149739 0.6560512 2.579235 -1.235 3.155298 4.190252 -5.5518 3.784501 2.523365 1.978378 3.669123 -1.462602 2.417865 1.846004 -3.686716 -1.302333 2.351554 -4.556929 -4.714994 0.1107236 2.672738 1.878505 0.008006705 -4.466069 -0.1464079 -3.788916 -3.168552 1.740842 1.194895 1.319395 1.530694 4.430433 -2.525615 -3.585235 -4.709692 -1.534495 2.229995 1.114315 1.971383 -1.837803 -5.690123 1.323229 1.999401 -0.6343873 3.084385 1.971768 2.015048 1.762949 1.832151 -3.383611 -5.632744 -1.121402 1.961257 -6.767333 -4.664065 -4.095064 3.56897 0.5463328 -4.840285 -4.25172 0.1179629 -1.913765 -5.025359 4.09822 -2.492952 -4.92755 1.398147 0.5580875 1.185742 -0.7678134 3.525638 -3.156104 -5.809624 -4.241399 -1.391955 0.2508974 -5.752391 2.998693 -0.4195883 2.529277 2.86545 1.962268 1.915662 -3.526408 2.657072 2.301731 -5.836497 3.654279 0.9656556 1.942642 2.645778 -0.06098864 0.01733951 -4.433678 -1.899866 3.215949 2.827079 -2.328425 -5.185222 -2.268176 -3.312737 3.052711 -4.835409 -5.926037 -4.200984 1.642301 -4.802678 2.888754 0.485043 0.03573386 1.999778 0.727769 2.729885 -1.684181 -4.334229 1.711185 -1.880802 -3.303219 2.406287 -2.950713 -4.023811 -2.066165 -0.04015225 1.163239 -2.406544 -1.214148 -4.5384 1.520963 2.200604 2.121101 0.6010722 0.4538587 2.041213 -3.794628 1.11919 3.051875 3.050179 -3.112989 -3.623678 -1.001438 1.763728 -3.263377 -3.779351 -3.252779 -4.11454 -4.354629 1.418804 -4.628604 -3.067336 0.6751104 -0.470372 0.7659416 0.6938962 2.00875 1.180164 -3.299855 1.315655 3.856266 3.955812 -4.795842 -1.687038 2.088059 -1.373998 2.061206 2.632862 1.45537 -2.229895 2.903566 -0.43882 -0.2388249 1.288504 1.47474 3.069416 -4.309866 2.540991 2.014746 3.725015 1.388696 1.07633 1.421836 1.868623 2.420702 -1.752325 -1.886729 3.697075 -3.296292 -4.004625 3.660898 -0.6911315 4.379623 0.1358807 4.069476 1.640712 0.4846036 0.4664137 -0.6973933 1.623745 1.386099 2.982705 -1.178209 2.315233 2.339315 -4.82572 -1.067649 -4.582727 2.451293 1.507729 2.033403 0.8539454 -3.530073 -5.224438 -4.055124 -0.7489781 -0.3778852 3.646518 -2.088799 0.09315147 2.584464 0.559247 2.875543 3.447673 2.648425 0.3392018 -2.709792 -0.8078845 -1.427907 -2.957067 -2.471146 -2.463763 0.7034725 2.110285 2.166485 6.192889 1.876505 -1.213086 -4.343637 -3.742179 1.394242 -2.18479 -1.460947 -1.462157 2.79991 3.320832 -3.576131 -1.409044 -0.8104371 2.319157 0.4160155 2.987259 -3.631026 3.285136 0.3148446 1.629773 -5.554368 -2.111979 -3.543335 2.491571 1.196651 1.794043 0.3402675 0.1945864 -0.2616085 0.3431734 1.778055 0.9298713 2.350393 0.6269216 0.5171749 -3.340459 4.462658 1.628088 2.783668 -2.624919 -1.57662 0.8846625 2.647285 0.5170534 -0.5574713 0.130733 4.13419 3.689797 2.011567 -4.194025 -3.487211 -1.163365 3.4612 -2.574206 5.08901 -0.02123554 -0.1442208 -5.045966 0.8235546 -3.780152 1.633223 2.60623 -1.520775 -2.000359 2.691642 1.223766 2.725734 2.817301 1.085027 0.6609923 0.4102473 -2.838344 1.14088 -2.424683 3.677098 -1.010486 0.1319692 -1.689257 2.327162 -1.935888 -5.395247 -1.3356 0.06679921 -0.4584085
dev_DH_0009 -1.541543 -2.133837 0.3546163 -1.4854 -0.7981153 4.671541 -0.1584137 4.48088 2.466485 1.651868 -0.6268309 -0.5001892 2.054437 -2.789923 -3.377045 -0.01564432 0.9787673 -1.145429 4.096035 0.3374864 -0.3064757 0.3013133 1.351563 2.199596 -1.687426 0.3046701 1.442838 3.350154 3.596109 0.9817514 2.891768 0.6976203 0.001470332 0.3844624 -0.2418696 1.251871 1.379704 -2.132206 -0.7518665 -1.160948 -1.097711 3.880556 3.469761 -2.454504 1.701931 -0.9650577 -2.74613 1.079339 1.461581 -2.358335 1.656469 0.7060041 -1.258379 -0.1348543 -1.637609 1.825622 -0.01366255 -4.197432 -0.710919 0.6877918 1.200582 -1.275156 -0.1445878 1.002203 0.2452723 0.2181819 -0.05777085 -0.3154117 1.592339 -1.624371 0.6496014 -0.7772995 2.86865 1.060349 -0.4720486 3.41854 3.666664 2.355505 1.893959 1.073061 0.5818092 -1.281467 2.169336 -0.5771127 0.004173722 -2.197367 1.319952 -2.605967 3.544278 1.215444 -0.8595747 -1.591385 -0.8656316 2.511354 2.144693 0.7245399 1.510932 0.7772772 1.466708 -0.9611034 -2.225048 1.250031 0.2536077 1.190432 0.1162428 1.698198 0.7374646 0.5937952 -2.674203 1.233489 0.4339279 -1.999393 3.687163 0.6522533 1.27713 0.2370975 1.563396 3.804122 -2.624933 0.3760448 1.233793 -2.513909 5.848815 0.8709636 -2.364931 0.6520966 3.589807 2.747573 0.8748608 -0.07974822 2.107429 3.541314 1.95698 3.839717 -0.381727 0.0367112 1.232662 0.9967619 2.678224 1.866061 2.79981 -1.776309 -1.312091 1.073354 -1.06951 1.987277 -0.3594083 -1.346955 -1.003676 0.72326 3.529832 1.354982 -0.7108058 0.303743 0.7843282 1.280821 1.985601 1.997832 2.585256 -0.5084965 1.051803 2.844278 3.759436 5.036547 -0.6234146 0.4369587 -1.513724 -0.004140147 0.2645311 -1.72509 -1.067706 3.689643 0.8489133 -0.3199037 -0.7351027 -0.8469567 4.93392 0.4715118 3.496204 0.2614407 4.546948 2.178325 0.1778708 0.8434966 -2.356375 0.4103714 0.0902604 1.159674 1.263339 0.2920628 -0.6971782 0.1986576 -0.8211285 0.9600249 -0.8143532 4.85816 2.502358 3.493276 -0.7636682 -1.44404 3.519909 2.972209 3.488949 -0.7883644 2.613842 -0.5663041 0.8939757 1.744318 0.706573 1.55033 0.6867357 1.870464 -1.238115 2.448652 3.039997 -2.408951 -0.6251073 0.7103407 0.353786 1.48468 -1.689736 2.591747 -0.2349207 0.1535664 2.773076 -1.948525 1.794976 -1.559284 -1.677959 1.380687 0.8218417 -0.3752238 4.616057 -0.6827286 0.4064234 2.00468 2.305667 0.3445045 -2.595447 -0.7153714 -0.3254314 -0.1047202 -0.4875558 0.2889806 -0.5835158 -0.3901779 1.401177 -0.7720448 0.7576605 2.023594 2.378749 1.273982 -4.229143 3.718387 1.654347 4.066996 2.294779 1.046726 1.147854 2.607856 -1.130325 -0.7729484 1.159235 -1.017543 -0.1297366 -0.7600792 0.7014874 1.407108 -0.163725 -2.249493 0.4742447 1.541603 2.005949 -0.6702893 -1.28266 3.916333 -0.6328377 -0.2858213 2.493518 1.143098 -2.407723 1.964507 1.118214 1.317074 0.3401338 -1.684039 -0.3093564 -2.431953 0.1788882 3.265643 -3.532302 1.836509 0.6448668 0.7499683 0.01432355 -1.601689 0.2161105 1.079002 2.09639 0.3792055 -1.549254 -1.491551 -0.598456 -0.7683288 -2.415411 -0.03347945 -2.58131 0.8998752 -1.607586 -0.06933017 -0.09918553 -1.854664 0.5355573 0.6623503 1.084779 1.752787 0.6372703 -2.500985 0.5340306 -1.743012 2.153178 -0.2932569 1.662255 -0.4248558 1.286015 -1.575527 3.446143 -0.6058869 -2.96672 -3.19103 0.8480544 2.11298 -3.231886 -1.945283 -0.17674 -0.8147015 0.9835646 1.25884 1.787386 -0.9088306 2.594503 3.686792 0.5885653 -0.02116482 0.6052716 -1.374578 -1.783389 3.267046 2.223603 -0.003669198 -0.6560331 0.1367248 4.023674 -0.695625 0.8099087 2.517193 5.023669 -1.060149 2.962568 2.801849 -1.902976 -1.764961 2.703854 1.413836 -1.074821 1.474174 2.205115 -1.727589 1.439727 2.03768 0.5064877 -0.3817267 0.2573195 2.237686 -0.05130332 -0.2732959 1.628197 1.967643 -0.6974854 4.065716 -0.6464822 -0.08650023 3.22665 0.5984336 1.662877 -0.1575573 -4.412223 -0.6020253 -0.5419879 0.3351721 0.2488547 3.739962 -0.8695728 0.5465295 2.897823 -0.3270507 0.5968065 1.768599 1.856275 0.4927647 0.5021668 0.3363059 -0.1950574 0.8460621 -0.9121789 1.089447 -0.866982 2.440578 3.438625 0.8847809 1.357447 -0.5161964 -2.281099 -0.6580383 1.83629 -0.8619398 3.713539 3.958063 0.3103128 2.538016 1.0991 -1.479811 1.46954 1.440493 2.803135 1.987491 -0.3637581 3.681438 -0.2149036 0.8748192 0.8745883 0.3664341 -0.3045875 0.6086543 0.2999235 -0.3920926 -1.359344 0.09816194 0.1025914 -3.377743 1.360396 0.8702322 -0.7519954 1.157538 -1.188483 -2.195024 -0.4394129 4.72306 2.03331 1.254048 -2.801574 -1.136718 2.654659 4.081043 -0.9564354 0.1180515 2.3149 -0.3248445 2.678071 -0.9214128 3.35132 2.407442 0.4244088 0.1900641 3.249955 -0.2791643 0.2316363 1.257297 -3.353859 -1.612379 -1.581358 1.936585 1.907291 1.254089 2.967731 0.4688732 -1.193053 3.070976 -1.681922 -0.7147675 -1.848369 1.011793 1.283905 1.454303 3.222471 0.6957097 1.457384 -0.05592756 0.3614873 4.055027 -0.1935314 1.14019 2.102119 3.699484 -0.8190383 3.172434 -0.1246538 2.457898 2.100257 0.2711052 -0.6278277 2.480264 1.452821 -0.7519324 -1.123622 -1.144989 0.6200076 -0.9619743 0.009776685 -0.3318954 2.277244 -0.2986791
dev_DH_0010 -0.6216034 -1.357294 1.558146 -0.59038 0.0311916 2.657053 1.173808 2.106392 -1.794146 1.707434 2.740976 -4.660262 1.364524 0.2910194 0.9864332 2.232013 1.047148 0.3164732 2.107481 1.405154 4.045763 -2.529296 3.641813 1.650239 1.10575 -0.8564671 3.157232 2.91641 1.840439 -0.8188933 0.1308799 -0.06273901 1.041708 1.017245 -0.4622799 -0.6291497 2.227167 -1.195869 1.335551 1.663144 -1.371965 2.030688 -0.1387438 -1.446975 -1.924436 0.670213 -0.5231862 2.124355 0.1098386 0.005254844 0.4368227 -0.2344301 -0.4882981 0.7296144 0.6134668 0.4382019 2.977044 -2.794902 0.7266436 0.4834843 -0.7193962 -0.9808049 -0.363923 0.5439312 -2.13064 2.481048 0.8192443 -2.726102 -3.18345 -0.2376949 2.852439 0.913967 4.820969 -0.2043423 -2.469403 0.6989114 0.2369341 3.124023 3.625151 -2.71693 0.6233184 1.855202 1.992378 -1.844814 -1.49074 -1.96605 1.452467 -2.079135 5.149135 3.840991 1.49034 1.152243 -1.600169 1.445229 2.946842 -3.012064 0.879811 0.1352554 -1.004357 0.12916 -2.994434 5.295399 -0.600016 3.394703 0.990409 0.01604499 -1.572049 1.846266 -4.100101 -2.388553 2.373052 -3.326306 3.497257 -0.885335 3.13199 1.824144 2.794252 4.237405 -1.174909 2.235348 0.03230427 -3.15414 1.579041 -0.3168775 0.3877721 -0.8495813 -0.1520138 2.547834 1.38907 1.066111 -0.6859148 3.323403 0.4848708 1.215922 0.2048307 0.8988582 -0.5313697 0.3257235 -1.936915 2.587491 4.147972 -3.170252 -3.081671 -1.530525 -1.843359 -0.7969741 -1.381446 0.5045137 0.9062631 -0.298952 1.912852 -0.05826745 1.195901 -2.303895 2.551591 0.253261 2.415691 2.80497 2.969511 0.8754118 -2.061742 -0.9224485 0.8792138 3.346293 -2.069461 -0.442508 -2.410104 -2.012062 -2.244164 -4.14249 2.083712 0.7068716 -3.494448 -1.773681 0.9940873 -2.376704 2.773989 -3.450427 1.491423 0.915672 4.036658 2.717347 1.439325 -0.574183 1.081225 0.9904512 1.512352 -1.568635 -0.6201957 -0.8032943 0.968823 3.636474 -2.751155 1.100655 -0.1787189 4.778872 1.913453 2.013579 -2.769272 2.767893 3.230511 1.906285 1.25381 0.9548902 1.446578 4.005899 -2.632535 2.370078 1.300807 -0.6470792 -1.205042 0.5448376 -2.256131 -2.714589 4.04132 -0.9440024 1.028958 -0.03031044 -0.6335161 1.001553 -2.777056 -0.4158607 -0.3045475 -0.6959692 2.196611 1.633315 2.582723 -2.114248 -3.70707 0.2009793 0.8587911 2.779608 1.355642 1.215926 1.645934 -1.605115 1.398323 1.109326 0.2341272 1.661361 2.341854 -1.131001 0.2201974 3.377084 -0.7699003 -3.009139 2.366206 0.5032308 -2.893988 0.2552049 -1.10541 5.428933 -1.365604 0.3685227 -1.761266 1.626756 -0.4211999 -1.163346 1.370426 1.420224 -2.222981 1.66945 2.466769 3.132738 -1.040203 1.828292 -5.26756 2.07179 -2.333119 -1.745112 2.094541 1.458096 3.469023 -0.1187305 1.685185 2.190802 1.298842 0.2721171 1.131004 0.75315 1.10211 -1.278914 2.041208 -1.097552 1.926097 1.732661 2.450823 -1.319265 -2.162401 1.406561 -2.362422 4.269541 -0.1931359 2.279953 -3.859218 -0.4173793 2.314323 -1.776533 -0.1291686 -2.66178 0.7934956 -2.984735 1.25284 -2.496787 -2.206057 2.757568 -0.1038821 -1.945298 -3.236337 -2.505013 1.376813 -2.789988 0.4435649 1.282829 -0.8174511 2.492319 0.5156437 1.184452 1.68877 -3.248246 3.341274 -2.185456 2.173604 1.890526 3.895076 -0.3309138 1.843586 2.026382 -2.936558 -0.5165877 1.527818 3.019713 -4.376587 -4.555626 -2.069043 2.556505 -2.073261 -1.225421 3.957735 -3.456874 0.4472285 3.762926 -2.98406 -1.687262 0.4034757 -0.4468656 0.111967 4.794036 2.129915 0.4761454 -1.763577 1.44175 3.11887 -0.6214937 -1.042976 3.453441 4.437553 1.976892 0.7289458 2.342009 -1.083605 -1.678641 1.741673 1.60772 -1.597935 -0.6542739 1.223001 0.5004299 -0.502629 2.203684 4.291822 0.7379287 2.516727 2.330029 3.34994 -1.80399 -0.5592195 -1.115569 0.4474144 2.629942 -2.735754 -3.768214 2.293696 -0.1531222 2.427906 -1.663475 -0.6339846 3.383834 -2.395728 -0.07975321 -1.35766 -0.5340221 1.730319 1.473171 -1.551169 0.2509659 2.457275 -1.169901 4.038012 -2.268401 0.888759 1.443518 1.653135 3.540471 -1.650068 -1.63817 -1.485214 0.3506199 3.762815 4.076643 -1.545576 0.04560359 -2.210802 -0.03512598 1.79496 0.7424549 1.965222 1.439181 -0.5187787 2.834965 0.7272756 -0.592317 -0.7496202 -1.210435 4.502517 0.8883728 1.87094 2.729988 1.662461 -1.447194 -1.491561 -1.462717 0.3217645 -0.3391182 -1.965313 0.4312653 1.294866 0.6730943 -2.775742 -2.09692 2.884112 -1.791854 -0.2827757 1.525717 0.4184932 -2.181585 0.1550013 4.377375 1.043526 -0.1322817 -1.980404 -0.2146222 1.478743 4.776126 -2.12967 1.752365 -2.353483 -0.4167295 2.387195 1.521309 2.945476 2.247542 -1.140725 -1.785326 1.873405 -1.637077 -0.1758229 0.297463 -4.732478 0.4324369 1.449336 -0.969734 0.5585272 0.8226794 5.469118 1.462656 1.890078 0.9467747 -4.395873 -0.6790568 -1.610046 -1.004099 1.593491 0.6046144 3.011676 -3.244797 3.594808 -1.963577 3.775922 1.844055 -1.684519 4.026743 0.5754591 0.6133595 1.314664 1.973257 1.063788 1.625613 1.256114 -2.287238 1.603787 -0.5154818 3.188537 -1.88547 -1.579568 -1.541946 2.871923 -1.737067 -3.355244 -0.4279858 1.721171 0.6652828
dev_DH_0011 -2.287972 0.797259 1.997869 0.4224305 0.2831101 1.737066 2.16583 3.713929 2.777868 2.018723 0.03126737 -1.777498 1.749539 -1.517283 -2.523878 3.101676 -0.6294453 0.3568632 2.663486 0.8026894 0.5558732 -0.4106752 1.238065 3.789202 0.07050267 -3.14466 -1.622719 4.414289 3.82051 -1.523049 1.887003 2.3159 2.401875 2.134432 -2.70968 -0.5488379 1.322588 -2.884288 1.772953 2.561944 -1.910456 0.8346336 1.049941 0.4915546 -1.011327 2.880534 -2.172914 2.24909 2.842654 0.8307794 -0.4899066 2.931691 2.125335 1.343176 2.417566 0.1662854 2.447621 -4.840758 0.2120178 0.3028999 -0.9431361 -3.293015 -1.041899 1.780864 0.7909932 0.665382 1.164014 -0.3445565 -2.817855 0.3747317 1.5976 1.333888 2.430232 -1.22274 -0.190891 3.666667 2.892319 2.558009 2.405879 -3.497441 1.847292 2.007501 2.68293 -1.049654 -2.244806 -4.328869 1.779244 -0.6383317 3.955699 2.524501 2.381171 -0.4651263 -3.228664 2.103475 0.5087088 -3.258109 -1.041497 -1.275402 0.2510945 1.295604 -3.906418 2.631402 -1.7989 1.54993 1.123329 -1.567921 -2.260856 0.2775145 0.6679196 -0.04998007 -0.519398 -2.127527 1.889569 2.655385 1.887465 -0.4869 3.773268 2.733276 1.158839 0.5223504 0.9356383 -2.024688 3.538462 0.8007886 2.618345 -3.317581 3.192344 2.852208 -1.084893 2.189648 -0.4234786 2.219304 3.657358 3.560184 -1.942534 0.487965 -1.434607 1.293751 -0.138416 4.718199 3.306279 -2.04103 -1.33552 -0.127143 -3.037736 -1.968297 -4.291131 -0.5681792 1.71447 1.084837 3.642246 -1.282591 1.844807 -2.913015 0.3263393 2.397395 0.4350238 1.153931 1.714002 1.147128 -0.4683432 2.094189 2.542394 3.152673 -2.301762 0.06039266 -3.769293 -1.086841 -3.01858 -3.199957 1.5624 3.153852 -2.926391 -1.458721 0.851941 -1.767654 3.565508 -4.561793 1.856515 0.007715875 1.831069 3.582875 1.728986 0.5892519 -2.863908 -0.1623653 0.5114558 -2.614254 -2.550611 -1.511734 0.9277226 0.0001872841 -1.4172 0.6269187 -1.230775 5.143159 0.6969579 5.15086 -0.2835124 2.415518 4.761562 -0.864161 3.134831 2.504155 2.436146 0.6208587 -1.478989 2.805646 1.605331 -2.552823 -0.4000592 0.7102506 -3.214745 -0.6357709 2.924895 -0.4620325 0.9927394 -2.063697 -0.5912272 -0.02371688 -3.044511 -1.273151 0.989655 1.186959 2.078887 0.9460784 2.167423 -3.16494 -2.262405 3.81555 1.603752 1.70204 3.439986 1.287922 -0.7303109 -3.154451 2.942929 0.7566173 -0.5063678 0.0835727 1.610021 -1.424502 1.21942 1.395277 -1.779964 -4.252652 -2.694775 0.2441886 -2.405834 0.3710603 -0.9321825 0.5303315 -1.746908 -1.291367 -2.179244 2.192337 2.410439 -1.373876 0.9779609 3.312572 -4.385094 1.814162 1.702349 1.807634 0.1281083 -0.952493 -1.202182 -0.001334215 -1.835964 -2.738069 -0.01780306 -0.5735799 2.58461 -1.131991 0.8711012 4.346851 1.271132 1.189847 1.891651 -0.9737531 -0.07096601 0.669897 1.022608 1.551417 2.390734 -0.3011789 2.585638 -1.611651 -1.571655 2.314419 -1.898407 1.601531 0.7640237 -0.4281966 -0.4004043 -3.917316 1.713901 0.8468893 0.3538035 -3.140327 1.41541 -4.176667 1.241182 -0.3258967 -2.664094 1.895256 -4.689962 -1.609428 -2.560181 -2.303483 1.831033 -3.440649 -0.07664539 0.6339073 -0.4576015 -0.5416021 -2.456387 -1.937074 2.978308 -2.722877 2.082963 -3.304217 0.7555508 0.23637 1.686184 2.632798 2.323966 0.1905303 -3.781931 0.2368254 4.23989 1.622669 -1.780298 -0.8077624 -2.151348 1.469036 -1.462335 -1.228157 -1.271976 -2.563857 0.3949497 2.248114 -2.379804 -2.736277 1.912076 -2.998665 0.5828003 2.880544 2.418515 1.543025 -2.559673 -0.747918 3.458428 2.323639 -2.16131 2.175563 2.891238 -2.032248 3.492302 0.1549594 -1.718199 -2.028738 2.69992 1.814397 -1.607607 0.9061308 1.888286 1.388478 -0.04463591 2.021058 1.901168 2.352484 1.379938 3.92139 1.052323 -0.2904952 1.859847 -3.388052 -2.203682 3.492761 -3.288456 -2.325867 0.9268286 -0.4292695 0.5912864 1.05035 0.3853221 1.96859 -1.39036 2.771232 -2.843912 -0.6248755 1.136474 1.53378 1.680999 0.5806329 1.492714 -1.348262 3.982972 -2.134458 2.260375 1.748586 0.5191929 -0.4043065 -1.94268 -2.381459 -1.881335 -0.7447788 2.377579 1.791926 -0.5137665 -1.485133 -1.08766 1.791869 3.365786 -0.07012118 4.140512 6.463523 -1.490767 1.345458 -0.9082722 -2.854902 3.172202 1.13366 1.72914 3.10556 2.278017 0.8292422 0.5525776 0.2186902 -1.833514 -2.414747 -3.447561 -1.115419 -1.62781 -1.106205 2.15602 1.858461 -1.739487 -3.319743 3.198282 1.256649 2.166436 4.459161 0.77901 0.6682288 -0.7004122 4.396276 0.348631 1.409381 -4.188743 0.5312036 4.009258 2.419796 0.1478331 3.314715 3.648694 -0.0800485 1.493629 1.009458 3.620066 2.782495 -1.850676 -1.925334 5.887465 1.246388 1.577957 2.853829 -4.323376 0.7248259 -1.006516 1.429265 -2.773495 1.88908 2.027996 2.146706 1.174865 2.521225 -3.639446 -1.313053 -3.993896 -3.087498 2.802685 1.762887 2.475692 -1.144652 0.8914048 -2.324737 2.94312 4.572623 -1.576994 0.3809432 4.754472 3.158465 0.5020359 3.869781 3.36445 1.684141 3.46654 -3.153798 1.976851 0.8079554 3.599456 -1.408531 -0.9260949 -1.057001 2.254668 -2.945726 -2.849736 -0.6618115 1.81898 0.2319787
dev_DH_0012 -1.168787 0.2896201 -0.4852622 0.6239139 -1.056044 5.108598 -0.9392589 4.557017 -0.107189 -1.35695 -1.241035 1.586511 0.2605548 -1.221771 -0.7534478 -1.30094 0.3816395 -1.493451 2.979295 0.366571 -0.9708857 1.16576 0.4294747 2.50983 0.4265969 1.332982 0.121626 3.591329 2.015937 0.7695537 2.01106 -0.7507768 -0.9562764 -0.1398639 0.05267324 1.395327 0.3918777 0.9055926 -0.5412366 -2.302236 -0.7859491 2.014196 0.826641 -0.9841377 0.2502338 -1.429261 0.3749468 3.156599 1.081342 -0.4491752 0.2377017 -1.059477 0.6142691 -0.7525304 -1.812548 0.2127774 0.4798826 -0.4830922 0.1273227 1.820952 0.6624833 -0.3431711 -0.5965057 1.857108 0.2306839 -0.8016804 0.2782981 -0.4574653 1.069076 -1.855558 -0.7252994 -1.540347 2.104479 2.261611 -1.672176 0.1285712 2.713354 2.105458 2.803103 0.7278664 0.8159705 -3.601163 2.653038 -1.272683 1.428293 0.926845 1.29203 1.687974 2.874215 0.8001072 -1.193276 -2.707124 1.55241 -0.9609064 -0.792505 2.291157 0.8770201 1.218177 2.692674 -1.366127 -0.7827217 1.463144 1.74235 1.915472 -0.1498496 1.445767 1.190256 -1.035137 -1.192124 2.061666 2.411059 0.4787111 2.82043 -0.4427322 0.05218934 0.7528877 -0.1980011 -0.05263407 -2.725144 4.242529 2.138559 -2.439167 3.538465 0.1689847 -2.170609 2.227071 2.903954 1.741943 3.401008 -0.1403288 1.364316 2.956781 0.9778454 2.111049 0.4680293 2.228291 0.7568225 -1.018563 1.709099 1.898853 2.315534 -0.2613523 -1.437104 0.9595929 -0.1356676 0.8127018 1.482907 -0.1282415 -3.154727 1.113209 2.959635 -0.4044386 -1.518794 1.233517 -0.2639904 1.662056 1.166854 0.3239822 1.841771 -1.040999 1.405521 3.878895 0.05674543 3.783155 0.06710246 0.9703251 -1.121064 -0.3199162 1.16157 -0.3759108 -2.290989 3.079087 2.286655 0.3854864 0.1367842 -0.2854745 2.68598 1.745915 4.523882 -0.6489634 2.930553 2.712305 -0.896954 -0.2914641 -0.9148223 1.027943 -2.119671 0.3112371 3.41361 -0.4469455 -1.467658 3.083157 0.3830656 0.6932194 1.017869 1.61409 2.267186 3.874499 0.5810578 -1.587686 4.614287 0.7542893 1.575269 -2.083613 3.627718 2.117577 0.1919535 3.315708 -0.8560525 -0.5231301 0.06182901 1.714992 -0.5781621 -1.511899 1.376869 -1.324131 -1.281904 -1.433618 -0.4490918 -0.4144871 0.005466471 1.787898 -0.9413988 -0.5979596 1.173953 -3.083302 3.545294 -0.5406948 -1.188621 -0.1787661 -0.5520845 -0.2534952 2.807371 -0.9352911 1.221909 2.815555 1.005153 -1.41006 -1.241032 0.2094399 -1.417435 1.909609 -1.791137 -0.1835321 -0.06642722 1.313459 2.94774 -1.91151 1.871544 0.1976545 0.793743 0.8864366 -3.188476 3.672254 -0.5079656 2.507139 1.221045 0.8736386 0.5630438 1.126262 -2.368512 -1.321046 -0.5245514 -1.949729 -0.3654867 -0.4283473 -1.610359 -3.804957 -1.916135 -0.3332903 2.232571 -1.663791 1.564155 0.8345721 -1.024548 2.701497 -2.064729 -1.396329 2.174571 1.630714 -3.031282 1.263072 1.638796 1.922699 -1.326291 -1.287279 -2.670491 -0.3418649 0.8054056 2.60661 0.6435304 3.392981 0.9034333 -1.465355 -0.381316 -0.07147314 0.339477 -1.119601 1.369563 1.780162 -2.164734 1.740376 -0.9500589 -0.04568233 -1.065861 -0.1268749 -0.4954031 2.975678 -1.035134 0.8588465 -1.866927 1.595958 1.046284 -0.6080438 0.7055552 -1.802547 1.895365 -2.561248 0.1569934 -1.16777 3.666274 0.3651874 0.9277255 -1.477513 -0.1577038 -2.968868 2.208773 -2.032188 -1.980315 -2.678396 0.1849406 2.724786 -1.57766 -0.7515582 0.1760464 -2.166937 -1.373713 1.893276 -0.7026675 -1.514091 -1.349796 1.849262 0.314492 1.393785 -0.4408635 0.7938443 -2.491704 3.288384 -0.4742757 -2.121861 -0.3040433 1.731658 1.317457 -1.778534 1.841558 0.7082791 4.845554 0.870751 1.973424 2.215969 0.3208498 -0.8782351 3.814183 1.564507 0.2013151 0.7870677 1.807907 -3.045655 1.159112 1.599457 -0.8629343 -2.530023 0.2389074 2.954988 -0.8994722 0.663682 2.926231 0.8469419 1.473033 0.8590901 -0.1580629 -0.2020908 1.525426 0.4504382 1.823875 0.6383049 -1.566417 -0.7185218 -0.6256707 0.4318555 0.3640971 3.03693 -0.988301 2.187548 3.080709 -2.76896 -0.4015473 1.26219 3.677315 0.334415 -0.3215897 -0.5418321 -1.083762 0.4264888 -1.445485 0.006068849 0.5528772 2.238926 3.618841 0.753326 1.761132 -2.421757 -0.5148495 -0.567569 0.6827118 1.625067 3.388035 2.633433 -1.070994 1.421448 -0.4096376 -0.444361 1.213216 -0.04207524 2.01333 1.484463 -2.891212 3.184262 -1.060004 -0.1345938 0.564158 -1.476903 0.7704544 1.650194 0.1619049 -0.9223272 -1.787231 0.02324237 1.534061 -0.05338859 -0.8655317 2.321304 -1.860943 1.066418 -2.729319 0.1841714 0.6955677 3.179376 -1.629722 -0.6137064 0.3656264 -2.111086 3.18614 1.001247 0.3591452 -1.461564 1.954895 0.3517513 2.776456 -1.284698 3.942006 1.231505 2.291355 0.6826308 3.544009 0.9432579 -1.495601 2.388578 -0.4731703 -1.880304 0.875466 1.892174 1.247576 1.497945 4.535519 -0.09720737 -2.021758 0.2489666 -2.069467 0.7306518 -0.1425543 2.402811 0.6205112 -0.353434 2.655128 -0.557143 3.001907 2.338413 -1.130782 1.154262 1.443084 -0.5908369 -0.6439261 1.868743 -1.7303 2.816571 -2.001942 2.816511 1.846923 0.1731122 -1.102528 2.521252 3.559061 1.312366 -1.174038 -0.8505127 -0.8957882 0.6917124 -1.744413 0.5481908 -0.6353322 -0.03970989
dev_DH_0013 0.3522645 -1.378075 1.464065 -1.224322 0.8565302 3.640841 3.303287 4.801359 2.164139 2.011385 1.069352 -0.06506646 2.028591 -0.2120833 -0.1839014 2.319737 0.8032153 1.695465 2.643866 0.2609165 1.137619 -0.87309 2.858945 1.89474 0.8002646 -1.569787 0.7070774 2.139238 2.895157 -1.405023 -1.278432 2.89665 2.013173 1.752032 -1.52117 -1.44613 1.915703 -1.134021 0.1926015 1.584882 0.6971726 0.006760992 -1.424847 2.052787 0.08567239 2.022282 1.670304 2.69213 1.440049 2.328157 -0.7947342 2.997072 0.3621582 0.6045212 1.557025 -0.7761319 1.705644 -1.350004 0.8116376 -1.665056 -0.6941589 -1.19177 -0.1569657 2.29052 0.6658801 0.6410056 -0.1014848 0.009923731 -0.0003171838 0.7248698 -0.2413981 0.3714212 2.290353 0.9670359 -0.8547479 1.701196 2.821686 4.39046 2.550541 -1.3982 2.337513 1.765939 1.99657 -1.215181 0.7467889 -1.352406 0.3704631 -0.1159984 2.161783 0.6058888 1.563608 1.403504 -1.105541 3.245359 1.094311 -1.039314 1.496972 1.184497 -0.2603993 0.6484793 -2.977366 2.0556 -0.1571502 1.129711 1.052971 1.696189 -0.07861733 0.4639293 0.1686285 -0.4665131 1.705309 0.07875463 2.730972 2.321377 0.3993309 0.1636763 1.651572 4.301571 3.160339 -0.7412052 -0.06421408 -2.716337 3.878023 -0.514098 1.613389 -1.564296 1.90242 1.408471 0.9941923 2.146005 2.49309 3.158374 1.73902 3.943188 -0.4225524 0.002866657 -0.1871169 0.3101927 -0.9817585 3.592122 1.413638 -1.098639 1.372392 0.8145766 -1.334526 -1.053476 -1.19463 -1.290817 1.794233 2.196222 2.1716 -1.960048 1.584851 -2.41476 2.562339 -0.605181 1.311554 0.6444302 2.66049 0.4089418 -1.082944 1.852532 2.867168 3.627845 -0.4190377 -1.036833 -0.1666324 -0.4582542 -1.082147 -3.080951 0.8815518 3.830941 -1.383357 -0.925797 1.470212 -0.3375808 0.8028315 -3.142634 3.775664 1.567113 3.518021 3.585163 1.85282 1.679975 -0.5807821 -1.397008 2.287986 -1.18579 -1.715843 1.796898 1.280131 -0.226694 -0.9031031 -1.630967 -0.07957915 2.492975 3.027067 3.476696 1.205269 1.413087 4.815989 -0.4903289 3.447112 2.1979 3.647147 -0.3772123 -1.55174 3.709445 1.133405 -1.397445 -1.140438 1.828441 -0.3573453 1.666064 1.756581 0.8779352 1.146567 1.650393 -0.4163208 -0.5961408 0.1720245 -0.156811 0.6691282 1.15143 2.121755 1.811351 3.620639 -1.385893 -1.412772 0.3592569 -0.1122399 0.7439449 5.85447 1.116924 -0.5208449 -1.873774 0.7424912 1.80892 -0.3480566 0.6521465 0.6528922 0.0217015 0.8594593 0.09347288 -0.3193008 -2.348485 1.216633 1.313302 -2.099181 -0.2303985 -0.3334371 -2.709764 -0.4703707 1.186585 -0.09729651 4.148131 0.422646 -0.9970685 1.823661 2.678951 -1.511773 1.98674 2.09614 1.60567 -0.1957526 2.480211 0.1226381 2.848779 -0.9549966 0.3072279 3.02862 0.1552784 1.432757 -1.441148 0.650579 2.698444 -0.1133161 1.591006 -2.295876 0.4637776 0.727948 -0.123141 1.923554 1.872164 2.157112 -0.1955749 0.245992 -2.549061 -0.2958225 2.268238 -0.2997684 0.8470576 -1.269214 -0.4505861 -1.759401 -0.4134036 3.852994 -0.7499881 -0.2655751 -1.448725 0.8834997 -1.991812 0.6141092 0.4959729 -1.655847 2.11506 2.419033 0.8603676 -0.8409929 -2.098058 1.808691 -0.6577756 -1.256462 1.568114 -1.663785 0.4269797 -0.7561695 -1.694817 2.215533 -1.551671 2.551244 -1.645322 0.09469134 2.637259 2.283228 1.094509 1.617941 1.564839 -0.3504776 0.4844497 1.593952 2.841004 -1.274797 0.1657988 1.713441 0.8659424 -0.3066525 -1.825685 1.473996 -0.5618858 1.90825 1.071658 -0.6175291 -2.619393 0.7176605 0.3294577 0.6858619 5.08325 1.938187 1.638066 -0.4611225 -2.239886 3.218468 1.721728 -1.564926 2.19363 4.292218 0.4176407 2.057442 2.768177 0.04408146 0.1864377 3.794807 1.921737 -0.4392816 0.4041356 1.712742 0.6557955 0.06507272 0.6411247 0.8322428 1.926439 2.313169 0.1725786 1.711219 1.387252 2.516454 0.801571 -0.6260059 4.59989 -0.981922 -0.7883579 1.466318 0.07572822 1.359657 0.7411485 0.7611569 1.952821 -0.0560464 0.4608735 1.513896 -0.03011261 0.8314569 1.021323 -0.8448743 2.82061 1.640599 -1.130413 1.714742 -1.902992 0.2104251 0.7330875 1.821247 1.831527 -1.822203 -0.04785021 -0.6715238 1.133894 0.7448483 1.353638 0.03696253 1.220719 1.576203 0.3951776 -0.8377784 -1.676054 1.539938 4.281545 -1.671237 2.631795 -0.829822 -1.348754 0.08280165 -1.884413 3.222113 1.443025 1.181514 2.419943 2.09996 -1.078407 -0.8707352 -1.320422 0.0867652 0.01300052 -0.4224736 -0.7326371 2.404883 1.651492 -2.222276 -1.710097 0.4119248 -1.549581 1.357815 0.8805231 1.337135 1.167138 2.574197 4.276555 1.72112 -0.124939 -2.579624 2.157533 2.174791 1.3673 -0.4618286 1.28693 3.65537 1.411989 3.962016 0.3973549 4.338744 3.463463 -0.7191473 -0.9099049 4.347641 0.2283992 1.241319 1.570964 -0.8901647 2.620457 0.3188846 2.429739 -0.157767 2.20889 2.359079 1.740955 1.556728 0.9600769 -1.974813 -0.3193262 1.42065 -1.164989 3.430471 1.006073 0.9794126 -0.9433454 3.613321 -1.741399 2.455354 2.516937 -2.030515 0.9328545 2.8456 2.299172 2.77945 -0.01530747 2.429321 2.159353 3.363224 -1.880608 1.477778 1.20214 1.035887 1.013702 1.385808 -1.313115 1.954154 -2.67524 -1.385707 -1.189343 1.808091 -1.517357
dev_DH_0014 0.3242911 -1.067569 0.4920844 -1.377105 0.9180636 3.877091 3.367371 4.256742 2.424492 0.8536792 0.9001736 0.1091959 2.385322 0.7103361 2.216929 0.9638985 1.046893 1.378058 3.776707 1.382989 0.9249036 -0.2856506 2.177802 3.394507 0.2891659 0.3487089 -1.062664 2.280027 3.500652 -0.6486827 1.105163 2.960314 1.071861 1.30432 -0.2292426 0.06336482 1.644749 -0.1085918 3.259648 0.3204274 0.3260184 0.2374614 -0.5640206 2.210413 0.3957948 1.222258 2.01519 2.913934 2.296729 1.937693 0.4916424 1.538428 0.6912928 1.660814 0.7956547 0.6806321 2.457843 -0.3774128 -1.873647 -2.573046 0.8668184 0.3871814 -0.6367165 3.489158 1.101737 1.020821 -0.5375211 -0.708891 0.9315104 1.345035 -0.2359359 -0.2177463 2.718663 1.204709 0.3015062 2.172053 2.345884 4.102374 2.191292 0.082838 2.418811 1.543607 2.26957 -0.6329452 -0.3725093 -0.2600565 -0.7094004 0.8815014 2.463454 1.207376 1.520701 1.047927 -1.229372 1.731916 -0.3162526 0.947693 1.205914 0.4861912 -1.418807 0.9611968 -0.8718428 2.247498 0.5131732 0.7635296 0.8882912 1.525888 -0.09053899 0.08212227 0.5818588 0.06426442 2.792513 0.1641784 2.40681 1.319148 0.7587577 -1.175276 1.465554 3.791086 3.090977 0.3189033 0.8428581 -0.1757904 4.477401 -1.610935 2.139132 -0.2378229 3.010039 1.726199 1.597345 2.954191 2.009144 2.091534 2.135686 4.512989 0.08298844 1.408644 0.5161736 3.316697 -0.09061474 2.643067 1.74145 -0.8940153 1.954945 1.437325 0.0001958739 0.8390498 -0.03889936 -0.7578452 1.277301 1.761816 3.838289 -0.843521 0.7775256 -0.8765047 2.307777 -0.6801223 0.7842748 1.661597 2.635076 1.054058 -0.4356002 1.345996 2.379734 2.59411 -0.3312971 0.03165968 -0.1729665 -0.8510131 0.3700934 -2.069909 -0.1609747 3.695005 -0.6460928 -1.184796 1.766111 -0.2751395 1.929592 -1.846112 3.934722 1.215053 4.226769 4.991133 1.321143 2.014324 -0.1729234 -1.765244 1.573068 0.6653191 0.3107136 1.951594 0.1176321 0.752519 0.6393905 -0.7050549 0.2431525 2.448378 2.44035 2.668643 0.3132872 1.181153 3.586681 0.05276541 2.554465 0.6961201 2.39991 -1.87062 -1.083683 2.397316 0.569259 -1.139083 0.6104138 0.2776046 0.287867 1.62471 1.56614 1.824797 0.4974923 1.818089 0.4582858 -0.924287 0.7802473 -0.3949065 1.267622 2.03925 2.191725 1.301147 1.798048 -1.046257 -0.4763463 0.4246542 -0.008200763 2.385327 3.746684 0.5936583 0.3722653 0.4002972 -1.37027 0.1382475 1.027443 0.3651231 0.7489411 1.947601 0.545777 0.1026529 -0.2582074 -0.5452541 1.531186 1.597425 -0.5334142 1.862098 0.4422617 -1.034629 0.4311742 1.249316 -0.8543773 3.543592 0.6574479 0.3516209 2.160555 3.071578 0.2953568 0.7137666 2.824257 1.961728 -1.770903 2.465045 -0.36633 3.066961 0.5355372 0.2468771 2.863964 0.2109627 1.587896 -1.170142 0.5212852 3.367057 -0.5048757 1.354606 -0.7752025 -1.62453 1.105518 1.039741 1.1688 1.294252 1.573396 0.1587213 0.6332811 -1.249015 0.6504139 3.196384 0.01314807 2.415825 0.8519801 0.495769 -1.121374 0.1512881 2.034118 -0.2145502 0.003575878 -0.2956216 0.7905663 -0.4563641 0.530165 0.7973771 -0.7708167 0.7696462 2.299888 -0.1448576 -0.9937214 -0.7602915 1.28375 -0.009174373 -1.732666 0.7311413 -0.411185 2.103289 -0.7920464 0.306724 1.65681 -0.3697939 3.04092 0.3347896 -1.908993 2.13399 1.10759 1.510985 2.70195 1.312 0.07445202 0.94051 2.575783 3.111131 -1.771067 1.038084 2.272686 0.3565046 0.3399563 -0.9333291 2.143261 0.5599083 1.091753 1.309968 0.9009237 -1.4935 -0.602123 1.512001 0.438582 5.41819 1.093028 2.332011 -0.0393245 -0.7970711 3.384667 0.5752198 0.1448664 1.77014 3.884926 0.8669123 1.158652 1.411406 -0.4912008 0.5510091 3.396371 1.051583 0.5522098 -0.4664795 -1.545209 -0.07785494 0.1484024 -1.16562 0.9442763 1.892372 2.250965 1.878145 1.486054 1.518565 1.219436 0.9650525 -0.01968887 4.715169 -0.9677526 -0.08131137 1.29851 -0.314566 3.590867 1.697263 0.6476185 2.95194 1.43615 -0.5172984 0.7263927 1.294417 0.8899578 2.846954 0.7269869 1.928974 1.483715 0.6344362 3.288802 -0.5891817 -1.739338 -0.09632719 1.471449 2.135995 -0.4503629 0.7254022 -0.1944688 1.707531 1.314077 3.150253 -0.4252447 2.623899 2.656464 0.8922674 -1.729319 -1.556048 2.993046 3.977914 -0.581647 2.888409 -0.4357801 -0.8237286 0.7598914 -0.7418362 4.204673 -0.009823506 0.7474323 2.374682 1.94137 -1.155326 -0.4413893 0.1274921 0.7000642 0.2111748 -0.030812 -0.8717988 0.7641135 0.509705 -1.367641 -0.9949188 -0.3341347 -0.8903111 1.242145 2.817402 2.886585 0.6729718 2.388157 2.449227 1.468687 -0.2124056 -0.857828 1.248501 2.339833 1.208552 -1.295917 1.578873 2.574672 1.504292 4.385158 0.01803739 3.063156 2.310764 -0.6163875 -0.4390543 3.732646 0.8466858 0.5657868 1.389632 1.066502 3.334685 1.155113 1.607332 1.01035 4.209793 3.088014 0.9164658 0.587077 1.499006 -0.8322175 -0.8244665 1.212369 -0.2432157 4.101472 2.417266 1.917647 0.09743509 4.786966 -0.3203888 1.555859 4.145699 -1.636283 1.755757 2.189444 2.471998 2.194623 -2.365029 0.8730173 3.844363 3.532655 -0.8117543 0.5443182 1.532352 3.169763 1.157413 0.6663626 -0.9071963 2.585649 -2.38123 -0.1562983 -0.8156515 2.931479 -1.079223
dev_DH_0015 0.4826209 -1.172529 0.153957 -1.206937 0.5057043 3.668021 2.395165 4.111706 2.113868 0.6890705 0.6298099 0.7580616 1.775209 1.45821 2.010624 0.01302706 0.921342 1.017178 3.94738 1.086413 0.1551035 0.1416957 1.612976 3.590773 0.4010384 1.159481 -1.044923 1.821682 4.039141 -0.1732352 1.4953 2.669398 0.2722704 0.6390002 0.08472831 0.7902449 0.9925235 0.743912 3.287396 -0.302139 -0.04707394 0.3603151 -0.7648805 1.82175 0.5378036 0.4574984 2.041708 3.439813 2.615205 1.82708 1.008913 1.198115 1.52119 1.465566 0.1971605 1.307575 2.092762 0.2728699 -2.346912 -2.512824 1.593917 0.8966184 -0.6855074 4.261257 1.229643 0.6793919 -0.3328946 -0.2975443 1.447787 1.289383 -0.6552993 -1.015272 2.329085 1.709843 1.03281 2.131174 1.946436 3.755694 1.967732 0.8365586 2.298825 0.6546995 2.631037 -0.4724869 0.4550292 0.1568349 -1.131354 1.894358 1.808765 0.9653388 0.9744247 0.4635496 -0.8281938 1.726553 -0.6160057 0.9936584 1.638991 1.012617 -0.7303829 0.2212011 0.3640974 2.017676 1.145366 1.617643 0.6957455 1.362722 0.7660465 -0.5456567 1.050034 0.7199045 3.311374 0.8070333 2.654642 1.288822 0.3947544 -0.6817571 1.606873 2.985348 2.340478 0.9383181 1.299905 0.1431957 4.417304 -1.929933 1.51513 0.9257329 3.258172 1.598382 2.160805 2.825951 2.195297 1.924199 2.145657 4.213249 -0.04399478 2.018543 0.428052 3.767567 0.9691434 2.239686 1.070404 -0.3632489 1.849848 0.9914718 0.5166929 1.240887 0.8816462 -0.9983325 0.9196896 2.045702 4.275792 -0.1788921 -0.06711457 -0.2715118 2.244846 -0.1093306 0.6585855 1.66202 2.715017 0.2520373 -0.3146972 1.889605 2.38802 2.254699 0.2152681 1.32357 0.1142491 -0.2381622 0.826998 -1.985795 -0.8396659 3.238912 0.2510047 -0.638142 2.220054 0.2935713 1.673464 -0.5549541 3.322446 0.8304419 3.776692 4.448016 0.8089383 1.485388 -0.1431049 -1.834199 0.6813685 1.610468 0.9194605 2.07919 -0.2584372 1.047708 0.9641292 -0.8094819 1.154659 1.992499 2.539536 2.78325 0.6376386 0.8331253 3.080426 -0.07370839 2.283504 -0.08055297 2.112558 -1.860687 -0.386781 3.116934 -0.04514601 -0.3542708 1.223102 0.5007499 0.6552492 1.27646 1.674452 1.712364 0.2568067 1.318688 0.642944 -0.8057613 1.544781 0.3590983 1.20572 2.605216 2.2908 0.5467218 1.808921 -0.4287715 0.02996851 1.063524 0.3178135 1.792315 3.599702 -0.05839657 0.763177 0.7075434 -1.496349 -0.4129735 0.3085557 -0.5143332 -0.06430779 2.396333 0.4927782 -0.7078552 0.5306935 0.5397809 1.839967 1.801369 0.459429 2.144578 0.7119573 1.208127 0.6757723 2.03548 -1.114917 3.79895 0.8850685 1.009428 2.024184 3.019961 0.7588277 0.2781426 2.06908 1.15443 -1.448631 1.806778 -0.1047465 2.102816 1.525392 0.640231 3.717753 -0.07410166 1.394558 0.1387096 0.8024476 3.347627 -0.5597876 0.4546148 -0.5548624 -1.58184 0.6999798 1.701584 1.940305 1.548565 0.7127531 -0.3547451 0.2626491 -0.7825298 1.435113 2.583332 0.1675274 2.309584 1.774475 -0.1851558 -0.3467293 0.6108324 1.838978 0.3369333 0.63254 0.4584838 0.1416402 0.1815953 0.1976683 2.156577 -0.6847687 0.05901862 2.332944 0.5864426 -0.1916777 0.3886694 0.1151446 0.4319249 -1.458144 0.03336896 -0.1791018 1.835336 -0.316979 0.2685009 1.294581 0.2027943 2.633242 1.448252 -1.284776 1.64157 0.2064017 1.127494 2.51809 0.2020831 0.6325685 0.9311979 2.459595 3.16302 -0.9965495 1.744537 2.568127 -0.4291139 0.6655091 -0.07860778 1.830912 0.906683 0.2282933 0.8625355 2.006963 -0.2202336 -0.7342147 1.421347 0.1773139 4.293866 0.1938715 1.766997 0.260905 -0.5497819 2.866678 0.1270637 0.7388079 1.809652 3.645281 1.224649 1.760994 1.899446 0.006483844 1.228126 2.722195 1.805835 0.8883694 -0.3420335 -1.841009 -0.43789 0.617331 -1.16406 0.2184722 1.000303 1.640211 1.947809 0.8285967 1.735388 1.931341 1.504255 0.6118485 4.663476 -0.1071873 1.256913 1.647061 -0.3392336 3.750043 1.8979 0.7275606 2.432985 1.601212 -0.8679626 1.087408 1.740161 0.503508 2.879842 1.509292 1.183982 0.7958465 1.428315 3.550288 0.2511974 -2.313105 -0.4988815 0.6794052 1.657278 0.6544781 0.9937621 0.3576485 1.984683 2.093758 2.510982 0.02911886 2.480685 2.772532 0.09166043 -1.775892 -0.8585041 2.991111 3.598606 -0.2937474 3.202919 -0.8126739 -0.1174711 0.6472628 -0.5463377 3.673126 -0.2520644 0.6237683 1.971907 0.5361801 -0.7321805 0.1939275 0.4404526 1.084476 0.4545063 0.5609754 -1.042862 -0.1743752 0.7906058 -0.5578967 -0.1422056 -0.802289 0.2381996 0.9768372 2.602611 2.248832 1.041397 1.996628 2.785086 1.082633 0.004918112 0.158054 0.2890159 3.304251 0.5222778 -1.084516 0.9390233 2.24202 1.571878 5.378332 -0.2278777 2.645176 2.041655 -0.1159146 -0.05413115 3.380505 1.200605 -0.1019432 1.70206 2.243216 3.041778 1.283617 2.062636 1.635763 3.985909 2.695108 1.11577 -0.216777 1.285774 0.1375166 -0.913353 1.263292 0.2460478 3.795987 1.830215 1.311605 0.5011616 4.900835 0.6234964 0.9376212 3.876216 -0.9595319 0.9875573 1.382966 2.266977 1.948556 -3.035933 -0.4478148 4.309656 3.386047 0.3669298 0.006039415 1.594018 3.607373 1.130523 0.6062691 -0.7561733 1.507155 -2.023837 0.8222809 -0.9814516 2.174069 -1.177681
dev_DH_0016 0.7529085 -1.237576 0.9001643 -1.484194 0.8510581 4.351735 3.147431 3.963825 2.257906 1.488687 1.119863 0.4919648 1.838332 0.7424459 1.402134 1.439156 0.9309676 1.269493 3.996912 1.316651 1.391781 -0.2570646 1.742492 3.076045 0.4560634 0.2276222 -0.3909291 1.993962 2.881444 -0.8201121 0.8604493 2.538913 1.345738 0.838531 -0.8527113 -0.05364294 2.339161 -0.2894994 2.291325 1.137257 0.2076552 0.6022642 -0.6679329 2.717364 0.09742276 1.851991 2.044704 3.010792 2.095879 1.853192 0.05993192 1.806649 0.8641424 1.695154 1.376341 0.6827726 2.174888 -0.6548569 -1.496285 -2.610902 0.4033822 0.2920419 -1.109625 3.626422 0.9700636 1.095073 -0.2553917 -0.6493967 0.5410021 1.178485 0.1892544 -0.4737874 2.674902 1.705621 -0.09379204 2.863211 2.858576 3.91466 2.321346 -0.5930291 2.555898 1.398317 2.294203 -0.9327596 -0.08343593 -0.7443592 -0.4193795 1.448927 1.905461 1.137929 1.823116 0.9779929 -1.426076 2.397859 0.1042918 0.265482 0.7449409 0.9524786 -0.7546028 0.5708925 -1.216523 2.393857 0.6704042 1.484912 1.279072 1.341012 0.1656787 -0.461897 0.7974148 -0.08941981 2.479041 0.0766701 2.680034 1.094226 0.4511027 -0.2158946 2.243332 3.32338 2.309819 0.4388677 1.108533 -1.190832 4.456834 -1.940913 1.460141 -0.5022022 2.637347 2.269722 1.129571 2.599321 2.303205 1.901095 2.36062 4.123499 -0.0007300171 1.897776 0.1658367 3.305018 -0.05564492 2.538998 1.24399 -0.8069992 1.606235 0.9935825 -0.515429 0.6683972 -0.3856506 -0.7457095 1.631641 2.193226 3.20795 -0.7963703 1.541947 -1.254125 2.509254 -0.5342107 1.23557 0.9292478 2.68025 1.149087 -0.7203907 1.313048 2.738638 2.724779 -0.6189585 0.2010706 -0.1268081 -0.7907341 -0.5092567 -2.752882 0.2466789 3.586549 -0.7355665 -0.7400706 2.723497 -0.06002088 1.526938 -2.372253 3.872198 1.395911 3.640371 4.478045 1.823924 1.727132 -0.5149949 -1.774718 1.31907 0.1120372 -0.3176156 1.81726 0.6228426 0.8244992 0.01392736 -1.100346 0.9192213 2.293447 2.69956 2.466919 0.7059821 1.202904 4.209566 -0.8585201 3.012336 1.273726 2.385815 -1.044288 -1.405714 3.542898 0.5269542 -0.8349901 -0.1673397 0.9425153 -0.01511266 1.507586 2.221013 2.00019 1.213864 1.166711 -0.1451264 -0.99028 0.7173633 -0.5310881 1.159913 2.252202 1.956201 1.527291 2.366291 -1.197991 -1.424282 0.8932881 0.7837523 1.217982 3.801417 0.9423355 0.1118281 -0.7618824 -0.6018285 0.9986328 0.7167547 0.1920262 0.9089509 1.170003 0.9449113 0.04504508 0.2108103 -1.333333 1.90865 1.927844 -0.6899214 0.7684128 -0.05357185 -0.7510294 0.1383806 1.206925 -0.4823132 4.051688 0.8053957 -0.01133439 2.629775 2.62564 -0.08974735 1.453073 2.615141 1.46767 -1.450349 2.165843 -0.3070498 2.849602 -0.7638514 0.3257102 3.552253 0.07073511 1.278375 -0.01370156 0.72016 3.769311 0.09763461 0.6560466 -0.8061248 -1.232463 1.126851 0.9506156 1.832643 1.128066 1.073886 0.277378 1.43787 -1.737256 0.3626771 2.66316 0.4777482 2.121821 0.594822 0.2837208 -1.389881 0.2616647 2.982353 -0.4579013 0.213973 -0.7762606 0.5666921 -0.9445129 0.6495137 1.751795 -1.163441 1.1514 2.216685 0.7912259 -1.004629 -1.103349 1.18388 -0.3568387 -1.567305 1.018055 -0.9330648 1.811051 -0.983552 0.004934274 1.920662 -0.7492394 2.80803 -0.07616155 -1.070863 1.959186 1.345598 0.9604725 2.560567 1.184152 0.09765051 1.05308 3.107671 3.278747 -1.580863 1.042536 1.895091 0.6709295 -0.2712483 -0.9887692 2.231982 0.1182732 1.650159 1.164582 0.401563 -1.423354 -0.5931653 0.8943999 0.6299888 4.392234 1.312077 2.155044 -0.419483 -1.60747 3.310375 1.078809 -0.1539311 1.945484 3.507982 0.5583631 1.512485 2.122639 0.1554033 0.5405802 3.535334 1.673584 0.4085783 0.00689619 -0.6715347 0.5426898 -0.06425587 -0.6982815 0.7072615 2.0885 2.505274 1.428537 1.324324 1.345528 1.675325 0.6812319 -0.134181 4.87114 -1.178975 0.05528657 2.102921 0.0201248 3.472006 1.802086 1.143065 2.376531 0.6729146 -0.1898974 1.03755 1.207843 1.43209 2.714571 0.270481 1.728106 1.775094 0.07759461 3.167602 -0.7267913 -1.280155 0.1576661 1.691422 2.258548 -0.6805602 0.4455177 -0.3486819 2.308248 1.766171 2.987283 -0.2215432 2.573823 1.990771 0.07824053 -1.489744 -1.609457 2.948686 3.925035 -0.9386435 2.694988 -0.587299 -0.3584769 0.7891927 -1.071736 3.305439 0.4747406 1.454282 2.03186 1.487633 -0.9805741 -0.5334417 -0.4033161 0.7271169 0.07839461 0.04574494 -0.7510031 0.8428317 1.514813 -1.759397 -0.650044 -0.08066038 -0.7953557 1.176524 2.158292 2.154397 1.308585 2.147599 2.818318 1.570866 0.2337455 -0.851901 0.7955347 2.312066 1.444332 -1.125401 1.4292 2.821164 1.818207 4.584116 0.07989731 3.076359 2.60131 -0.4931342 -1.073247 3.563052 0.8260824 0.9902627 2.095454 0.4577621 3.256953 1.248629 2.459237 0.5754392 3.350095 2.868417 1.644776 0.840681 1.569458 -1.612749 -0.8267164 0.5267143 -0.4395125 3.88022 2.121242 2.108118 -0.09471594 4.573397 -0.1296222 1.68774 4.10466 -1.390171 0.9626868 1.693175 2.569921 2.469629 -1.90414 1.09323 3.903684 3.785865 -0.4029564 0.5888339 1.38895 2.516881 1.13362 0.9768538 -0.9251503 1.817639 -2.65438 -0.5329821 -0.9067575 2.475744 -0.9277339
dev_DH_0017 -0.3299362 -1.194676 1.174799 -1.093158 0.6981502 4.730064 2.862188 3.547822 1.210284 1.725198 1.026777 0.1866419 1.843441 -0.4670165 1.088726 2.000105 0.9018423 1.285228 3.727875 1.232998 0.9396868 -0.5110022 2.736855 4.022432 -0.1069815 -0.6580379 0.4468991 2.005611 2.123186 -0.7794282 0.8490806 1.90403 1.419437 0.8261377 -0.9854556 -0.2803233 2.009521 -0.7852836 1.572824 1.07362 -0.2333136 1.006592 -0.5640817 2.03141 0.6822825 1.771245 1.215771 2.915479 2.112723 2.002846 -0.7155464 2.114555 0.1002853 1.305322 1.849998 -0.06859548 1.994068 -1.469797 -1.058722 -2.457496 0.05030608 -0.67914 -1.347876 3.728641 0.9336221 1.528011 0.09553301 -0.61427 0.2631083 0.4218007 0.4520343 -0.3499685 2.786094 1.113908 -0.6151612 2.060241 2.883412 4.280066 1.569777 -0.7997931 2.097257 1.593581 2.849576 -1.490069 -0.1029234 -1.589409 0.1776226 1.07025 2.810954 1.127723 1.932314 1.502446 -1.448938 2.323801 0.4307674 -0.09836379 0.4579329 0.8486462 -0.1093714 0.5666338 -1.93093 1.999566 0.4652334 1.239373 1.333604 0.2293781 -0.07650264 -1.142225 0.02347573 -0.3975369 1.416477 0.1125285 1.525017 1.186963 1.460887 0.3465168 1.59048 3.422744 1.839246 0.4031596 1.085344 -2.532653 3.980855 -1.785477 1.177148 -1.437407 2.132659 2.078733 0.7010996 2.336556 2.427908 2.473708 3.103169 3.509157 -0.201309 1.148479 -0.3371772 1.896321 -0.1943774 2.923754 1.570091 -1.482805 1.062051 1.203875 -0.8867012 0.422751 -0.7987271 -0.544592 1.673078 2.509935 3.057906 -1.182018 2.322221 -1.67647 2.199855 -0.09325995 1.772272 0.5918443 1.75127 0.7943377 0.01655058 1.193338 2.934528 2.191814 -0.7332754 -0.5434651 -0.1210867 -0.8157043 -1.329517 -2.942613 0.4848394 3.194545 -1.022936 -0.9070263 2.771791 -0.4525691 2.028631 -2.598556 3.737304 1.394385 3.601496 4.524706 1.924739 1.581079 -0.7336481 -1.262378 1.484721 -0.5778655 -1.058755 1.211705 0.565703 1.220353 -0.405737 -0.7265379 0.1450411 1.931053 3.41643 2.866673 0.8193235 1.512905 4.37961 -0.5236312 2.608841 1.288142 2.175576 -0.655968 -1.301163 3.757769 0.4467858 -1.203365 -0.1010398 1.388834 -0.623354 1.009525 2.011252 1.23735 0.9117987 0.450889 -0.2887717 -0.1385567 -0.4183376 -0.2871259 1.097779 1.973909 2.414907 1.043581 2.40384 -1.338086 -1.698602 1.513439 1.213594 1.342979 4.459701 1.158229 -0.3609651 -0.6237827 -0.004986071 1.228265 -0.1259528 0.2158574 0.9431306 0.9597388 0.6237658 0.8343925 -0.2252605 -1.449228 1.622174 1.405054 -1.031944 0.2415113 -0.053082 -1.225505 -0.5984761 1.282668 -0.2268116 4.167657 1.120419 0.3084902 2.587484 2.970361 -1.056912 1.673489 1.735678 1.50643 -0.8738436 1.895249 -0.3920415 2.598879 -0.5216864 0.04119457 3.41046 -0.4200855 1.206422 -0.8012287 0.9817311 3.863929 0.3275621 0.9250786 -0.5513679 -0.761126 1.128303 0.9637225 2.560468 1.617782 1.487359 0.2634178 1.892706 -1.993516 0.04797682 2.763172 0.6852096 2.179264 1.063383 -0.547658 -1.267707 -0.02606695 2.638944 -0.6836015 -0.07651195 -1.358448 0.9772952 -1.070369 0.7116775 2.120489 -1.412174 1.581537 1.474895 1.174636 -1.092543 -1.466711 1.676626 -0.4302774 -1.36096 1.191745 -0.9853107 1.111082 -1.87027 -1.051489 1.820461 -1.106193 2.61657 -0.5993207 -0.5539594 1.73061 1.680762 0.8245737 2.801532 1.652153 0.005526229 0.7387018 3.490974 2.777329 -1.808011 0.7371332 -0.1181564 0.9188872 -0.7409512 -1.264638 2.108969 -0.5202788 1.628796 1.974559 -0.4829383 -1.136607 0.1678021 0.5358635 0.6406603 4.874828 2.264459 1.699163 -0.7457329 -2.016404 4.274685 0.6027579 -0.3498798 1.608984 3.700146 0.3584458 1.014981 2.384851 0.07997974 -0.03941126 3.987669 1.439479 -0.09949045 1.011421 0.435264 0.5618654 0.001950253 -0.5330847 0.6007779 2.080116 2.738511 1.848872 1.719773 0.8549905 1.933761 0.6222706 -0.09485368 5.027021 -1.809236 -0.6143714 1.743014 -0.03646312 2.603784 1.535849 0.7363705 1.814838 0.3153505 -0.682856 1.096098 1.337234 1.200001 2.302194 0.2608199 1.168692 2.249186 -0.3372181 2.402711 -1.333054 -0.1953323 0.357295 1.822551 1.39735 -1.200938 0.177025 -0.3781288 2.293159 2.39906 3.082235 -0.07700541 2.149522 1.047807 -0.01591576 -0.6889057 -0.7384496 2.802937 3.637687 -1.421628 2.899085 -0.2192848 -0.7271794 1.031621 -0.8494805 2.797116 1.088361 1.5039 2.072444 1.415007 -1.06833 -1.135019 -1.224834 0.2963259 0.02355119 -0.5912655 -0.7706679 1.515608 0.8069871 -1.848848 -1.385698 0.1356819 -1.545777 1.563851 2.007863 1.211154 1.393806 2.74285 2.928622 0.7121811 0.4369203 -1.831053 1.294464 2.393085 1.793564 -1.17552 1.315602 2.88481 0.9460974 4.22066 0.08229168 3.333449 1.702962 -0.1657899 -1.380327 3.328367 0.9701473 1.957276 2.012635 0.4229581 2.206691 1.316673 2.630149 0.9589246 3.242943 3.417719 1.269448 0.9290839 0.4495022 -2.17415 -0.4996932 0.6432391 -0.6098762 3.633377 1.623593 1.358763 -0.3031996 3.931393 -0.2911918 1.297003 3.244646 -1.51858 0.9867194 1.81661 3.62921 2.611705 -1.140414 1.792103 2.960312 3.137261 -0.8492278 1.384997 0.980549 2.442282 1.454186 0.7228162 -1.134608 2.004352 -2.391564 -0.9841033 -1.280868 1.915569 -0.5192418
dev_DH_0018 0.6932281 -0.9249548 0.516844 -1.546884 0.694615 3.780434 2.655995 4.604213 2.316925 1.533102 1.039948 0.3146794 2.30459 0.6613039 1.390833 1.154235 0.8057293 1.23561 3.593411 1.163529 0.883139 -0.3775381 1.80424 2.994761 -0.09395295 -0.1196231 -0.6743759 1.700728 2.792899 -0.9156367 1.106218 3.099445 1.092692 1.537324 -1.091484 0.3398074 1.324797 -0.4662093 2.191019 0.3905746 0.2049252 0.632679 -0.2188828 2.120375 0.563045 1.596332 1.408369 3.506469 3.070394 2.335518 0.8173186 2.04701 0.5869696 1.983647 1.387951 0.9333805 2.154767 -1.098284 -1.563058 -2.382584 1.113366 -0.03755161 -0.821869 3.539309 0.7405962 1.126018 -0.2201319 -0.5320904 0.8804272 1.393143 -0.2528781 -0.4169621 3.73344 1.131724 0.2411605 2.16837 2.706877 3.290557 1.383418 0.3846996 2.167325 1.68356 2.55755 -0.8719102 0.06292116 -0.8046241 -0.4217134 0.5214972 2.235111 0.8479603 1.448084 1.154544 -1.268505 2.0209 0.2363943 0.5701497 1.590808 1.103794 -1.100078 0.7822132 -0.9261875 1.8404 0.5146922 1.181359 0.840986 1.425129 0.09543903 -0.6355489 1.057058 0.4689561 2.079892 -0.2522909 3.224276 1.194429 1.071032 -0.727046 1.558854 4.005439 2.000698 -0.01489971 1.230603 -0.8276287 4.240452 -1.501618 0.9207719 -0.2578181 2.47943 2.211551 1.569829 2.086315 2.279599 2.395912 2.530239 4.359251 -0.5026203 1.177927 0.1577967 2.72714 -0.003931746 2.571309 1.160039 -1.222131 1.653367 1.163404 -0.7476814 0.2460377 -0.5599408 -0.5504892 1.843571 1.895289 3.167715 -0.9309918 0.5612183 -1.39961 1.520556 -0.283406 0.6075069 1.7311 2.350611 1.086158 -0.198719 1.817651 3.216068 2.568958 -0.2552138 0.8689284 0.06947649 -0.8797642 -0.197902 -2.521782 -0.1243368 3.606038 -0.6029484 -1.19116 2.092937 -0.2359031 2.096629 -1.82468 3.774745 1.763844 4.08264 4.234428 1.057936 1.812522 -0.4118135 -1.843049 1.381712 0.3237487 -0.3545574 1.852 0.4224755 0.7264335 0.4012966 -0.6643018 -0.1018537 2.365562 2.470771 1.758627 0.8961118 1.175931 3.092962 0.02048536 3.31743 0.831916 2.379896 -1.719824 -1.480457 2.433978 0.5426015 -0.9870536 -0.2656212 0.9529405 0.3537357 1.359132 2.546819 1.417482 0.4645449 1.745908 0.5712687 -0.7510397 0.5201972 -0.2248835 1.045282 1.892132 2.028193 0.9457613 2.452072 -1.366881 -1.30845 1.144254 0.3845048 1.953098 3.576751 0.943341 -0.09973044 -0.4939803 -0.5334427 0.6045798 1.180874 0.4484607 0.332174 1.056314 0.644301 0.2725053 -0.02430969 -1.316517 1.520006 1.596833 -0.4415047 1.025188 0.4667654 -1.111815 0.2225575 1.799138 -0.3188964 4.015912 0.4769816 0.9452397 1.923335 3.118266 0.331531 0.701352 2.526526 1.770284 -1.512547 1.942725 0.1050398 2.974988 -0.717002 -0.30613 3.159209 -0.2873945 1.38849 -0.894987 0.8668602 3.554192 -0.3155278 0.6951227 -0.6951655 -1.08441 0.9766164 1.811155 1.541619 1.764338 0.8573816 0.02001127 0.6582694 -1.41041 0.4502064 3.094763 0.2951374 2.497721 1.306996 0.3327247 -1.323653 0.05298902 2.166088 -0.3853089 0.1543292 -0.5896419 0.3754357 -0.7096616 0.7054129 1.17609 -1.347272 1.169197 2.146953 0.2977912 -0.8818753 -0.5196624 1.184867 -0.3263552 -1.432929 0.7492762 -0.8704363 1.934677 -0.9940323 -0.3104329 1.573426 -0.5662333 2.952311 0.205979 -1.885341 1.475212 1.192134 1.272966 3.257135 1.763668 0.4552854 0.6740871 2.658618 2.810575 -1.826628 0.7974287 1.549741 0.3042822 0.03311282 -0.8190671 1.926746 0.8551512 1.229989 0.6235887 0.1586642 -1.083355 -0.3557086 1.046348 0.4407446 4.855807 1.170135 1.621408 -0.1485863 -1.685282 3.548846 0.525107 0.005286312 1.543563 3.827358 0.7376728 1.788241 2.367168 -0.1112415 -0.04314026 3.059599 1.179412 0.3839031 -0.1749181 -0.9158635 0.1960938 0.1495262 -1.298087 0.6951832 1.900819 2.568633 2.331292 1.408021 1.32549 1.441243 1.278828 -0.6699561 4.453436 -1.086567 -0.02060311 1.480251 -0.2892856 3.343215 1.942507 0.9354407 2.401271 0.7857015 -0.4080745 1.444802 1.553296 0.9167463 2.869151 0.4365143 1.478634 1.826387 0.6923518 2.706722 -0.6289644 -0.624522 0.09144856 1.85308 1.601028 -1.033007 0.2041653 -0.3071403 2.107512 1.762881 2.880718 -0.2053772 0.9765322 1.446779 0.4682803 -1.613579 -1.477174 2.854965 3.932347 -0.5648239 3.137321 -0.7125667 -0.8846385 0.4458281 -1.117543 4.19069 -0.02898302 1.091508 1.793555 1.598329 -1.202274 -0.4485763 -0.3246528 0.6981245 0.1609437 0.2295283 -0.6837357 0.1818291 1.063762 -1.628221 -0.8199784 -0.5300083 -1.094603 1.241158 2.642298 1.991568 0.6822311 2.010023 3.053499 1.754804 0.2553016 -1.290579 1.184238 2.461222 1.071916 -1.187132 1.955559 2.505729 1.73738 4.856342 0.2187269 3.106626 2.85832 -0.1921086 -0.1782372 2.843764 1.00869 0.2249847 1.880954 0.8912299 3.315158 0.9495113 1.175771 1.379512 3.560651 2.876301 1.025374 0.1133898 1.257149 -1.115761 -0.8764429 0.2605701 -0.2267411 4.230789 2.531673 1.689044 -0.1973998 4.209467 0.1526196 1.06191 4.45473 -1.76312 1.32352 2.370574 3.336303 1.980828 -1.638243 1.086158 4.508394 3.558754 -0.573817 1.027366 1.527366 2.847459 0.5339586 1.218668 -0.860885 1.816385 -2.515572 0.1896532 -1.173989 2.656253 -0.6282101
dev_DH_0019 0.4579182 -1.558274 0.6093457 -0.9947215 0.1748782 4.210786 2.671605 3.908318 0.9919211 0.9073206 1.034562 0.5664046 1.414925 0.2146434 0.5871037 1.27622 1.521868 1.289117 3.642327 0.8221446 0.8472815 -0.1193972 2.768118 3.716451 0.5208333 0.1284105 -0.02524214 2.301717 2.282024 -0.004822004 0.5512478 2.114112 1.17612 0.2195587 -0.1076666 0.3838995 1.948348 -0.2799688 1.342723 0.6475394 -0.08658863 0.5758351 -0.5990014 1.849779 0.9046605 1.352587 1.563689 2.910294 2.891244 1.828373 -0.6621235 2.070718 -0.3510481 1.015935 1.396492 0.7542787 2.174676 -1.256422 -1.353294 -3.06084 0.2044299 0.1736709 -0.9684802 2.810164 1.014615 1.120691 -0.4523023 -0.2586468 0.7752286 0.5090994 0.231442 -0.979338 2.13643 1.787694 -0.3159009 2.673837 2.657424 4.342538 1.768182 -0.2105186 2.567203 0.8620597 2.61402 -1.402351 0.3262301 -0.5778126 -0.3346746 1.086214 2.791583 1.612859 1.957158 0.700718 -0.884626 2.266378 0.5427836 0.3719033 0.9542716 2.136816 0.1768268 0.1512933 -1.666747 2.518231 1.333592 1.780473 0.9738402 1.268744 0.2337663 -0.596055 -0.479157 0.3275795 2.041401 0.4530141 1.694855 1.237535 1.31237 1.03207 1.259975 3.537818 1.787949 0.7595332 1.255208 -3.015198 3.786535 -1.875614 1.431015 -0.09444498 1.944421 1.731945 1.759344 2.210237 3.438181 1.892505 2.425157 3.310214 0.3418845 1.664826 0.3287676 2.611263 0.4173532 2.412865 1.661373 -0.9526478 1.307788 0.8478665 0.003460496 1.301921 -0.3327224 -1.472071 1.089792 2.759986 3.70408 -0.601827 2.043971 -1.025833 2.966299 -0.7251405 1.520283 1.1771 1.891835 0.7278675 0.2255035 1.425744 2.544463 2.603598 -0.2467936 -0.03057653 -0.1746761 -0.7641737 -0.4642181 -2.985112 0.1839156 3.407534 -1.065508 -0.866226 2.242904 0.4029402 2.129076 -1.92345 3.776716 1.221119 3.569121 4.455284 1.953444 0.9636909 -0.2413509 -1.126911 0.8300033 0.0697502 -0.5984793 1.108315 0.34485 0.9027403 -0.3085328 -0.6872994 0.5707817 2.16594 3.005951 3.458987 1.244902 1.211601 4.398554 0.4775467 2.330715 0.9814954 2.211962 -0.4348389 -1.182521 3.816049 -0.2154104 -0.5533229 0.3827021 1.322193 -0.2984886 1.332075 2.228598 0.7621458 0.7967864 0.7411169 -0.4489641 -0.1110946 0.1900092 0.1277074 1.070158 1.907096 2.317006 0.9403135 2.293257 -0.4192407 -1.104266 1.207058 0.8144873 1.738946 4.32334 0.515016 0.692816 0.1753061 0.2282626 0.9128746 -0.8770018 -0.2787425 0.5110098 1.424346 0.5501803 0.2460691 0.8469276 -0.7877821 2.524132 1.675301 -0.1788947 0.3859233 0.3541767 -1.598282 -0.5142495 1.708824 0.1038276 3.905174 1.772989 0.2335934 2.898356 2.637645 -0.32253 1.100934 2.070373 1.420251 -0.637801 1.956529 -0.5155358 2.826344 0.330225 1.251874 3.176425 -0.5172489 1.10463 -0.7367324 0.9986245 3.759627 -0.6809989 0.6410716 -0.8476102 -0.6715797 0.7438933 0.9841038 2.235003 1.485022 1.051338 0.4455524 1.442291 -2.216791 0.7718575 2.401209 0.6523419 1.762166 0.9430807 0.05631974 -1.01705 0.9338803 2.87064 -1.028682 1.009531 -0.4888054 0.4355618 -0.4751689 0.5145869 2.384789 -1.52888 0.4401353 2.01869 1.338923 -0.7639443 -0.9469201 0.8514026 0.05431556 -1.064764 0.6704891 -0.6684907 2.302846 -0.7216119 -0.8275396 1.872159 -1.234383 2.771786 -0.07169031 -0.143606 1.279919 1.563634 -0.1378506 2.538563 1.085314 0.807533 0.4420109 2.75762 2.442872 -1.332975 0.6923204 0.7538998 0.4809823 -0.1609405 -1.372046 1.946645 -0.3787573 1.405682 1.622891 -0.05633226 -0.6843758 -0.4224964 0.6843764 0.08307699 5.675108 1.556674 1.612787 0.1552999 -1.52071 3.471283 -0.2688297 -0.1294797 1.870951 3.620039 1.3264 0.4501928 1.457765 0.4956753 1.099576 4.154869 1.91254 0.4965263 0.4592863 0.614619 0.121258 0.3263187 -0.9282979 0.2977678 1.320097 3.0315 1.322804 1.057828 1.124167 1.846302 1.436391 0.8932064 5.236773 -1.292766 -0.3241105 2.211429 0.4111319 2.381707 0.7770569 0.5650534 0.8110548 0.446826 -0.5169232 1.006579 1.030102 0.9956427 1.827519 0.6757855 1.226565 1.613288 0.1909202 2.916227 -0.766528 -0.8616676 -0.2604649 1.8324 2.174103 -0.1854168 0.01361977 -0.08339501 2.584105 2.77031 2.371229 0.6229004 2.111445 1.613554 -0.7506022 -1.43073 -0.6741111 3.036057 4.670096 -1.205623 2.57648 -0.8237031 -0.7675571 0.8026503 -1.471955 2.399402 0.5616505 1.51708 1.696583 1.436015 -0.6216757 -0.3098136 -0.5953026 0.660644 0.41904 -0.3010838 -1.010765 1.174974 0.388291 -1.094663 -1.355744 0.1566167 -1.036103 1.371708 1.669129 1.558991 0.6666597 3.022219 3.132081 0.4331178 -0.276122 -0.6726601 0.9037444 2.676911 1.661006 -1.002454 0.9596913 2.998832 0.6500794 4.315152 -0.2156911 2.779987 3.046172 0.2748784 -0.8121312 4.009692 1.129395 1.523281 1.765529 -0.07085472 2.168721 1.699733 2.650318 -0.01040798 3.099146 3.275105 0.9229542 0.6358781 0.9800578 -1.9531 0.5021902 0.919382 0.02649954 3.425943 1.812053 1.182549 0.06917049 3.381001 0.5320189 1.397606 2.982517 -1.093872 0.2249979 0.943271 3.598982 2.561114 -1.495749 1.482441 3.375911 3.409076 -0.4222037 0.8270336 1.868837 2.691746 1.872785 0.09811197 -0.5706669 1.599986 -2.344768 0.153128 -0.4516404 2.779507 -0.2775308
dev_DH_0020 0.5253584 -1.346439 -0.12845 -1.459251 0.7338993 4.172049 2.66626 3.299765 2.05962 0.7921652 0.6643453 1.179011 2.125009 1.028413 1.707799 0.2491283 0.9851924 0.7586423 3.237383 0.7893243 -0.277782 -0.0831354 2.00828 3.343739 -0.03068841 0.7064283 -1.04568 2.197635 3.566218 0.4324541 1.657077 2.374468 -0.1641074 0.4164709 0.4633093 1.367491 1.389173 0.9771892 2.773843 -0.548088 -0.2204596 0.9368665 -0.6431422 1.668908 1.126638 0.143253 2.120545 2.122201 2.65466 1.688469 1.343313 1.407215 0.8793475 1.505891 -0.01709333 1.79525 1.839722 0.1455331 -2.431074 -3.116206 2.073189 1.040268 -0.6888472 3.614817 1.118168 0.3418127 -0.3227626 -0.6517746 2.108164 0.2759532 -1.079704 -1.599656 2.519659 1.72262 1.083903 2.217723 2.330331 3.369915 2.132784 0.9998484 2.550526 0.9153843 1.935421 -0.7153534 1.156066 0.2139666 -0.7914895 2.292451 1.684898 0.6131316 1.070005 0.4808535 -0.7217575 1.155724 -0.5695637 1.403188 1.878485 1.475847 -0.5851364 0.1781803 0.6118052 2.229736 1.629792 1.277445 1.096175 1.698982 0.897387 -0.640335 0.7333163 0.6254634 3.290049 0.651733 2.980876 1.46328 0.9308017 -0.7242892 1.642462 2.875467 1.525949 1.466837 1.835889 -0.5952875 4.102962 -2.193563 0.8486417 0.6326359 3.161748 1.743177 2.370153 2.436656 2.907844 2.170192 2.005407 3.893464 0.5780418 1.807424 0.8976153 3.594965 1.214862 2.815988 1.120157 -0.9367574 1.973033 1.492581 0.8113051 1.390445 1.453757 -0.924045 0.708041 2.05091 4.164784 0.4510047 -0.06686415 0.06037696 2.648484 -0.1678416 1.377218 2.039612 2.591397 -0.1590174 0.1131201 1.885623 2.959857 2.721278 0.475266 0.9642615 0.5456386 -0.3673536 1.498524 -2.065742 -1.448857 3.262911 1.127591 -0.9487993 2.112867 -0.1169117 2.383965 -0.07723615 3.502252 0.985692 3.848068 4.329666 0.7405511 2.020879 -0.07393974 -1.267432 0.4584219 1.919436 1.456731 1.961801 -0.852239 0.7750553 1.160313 -0.9815523 1.550333 1.823208 2.699454 2.20986 0.4462792 0.8158343 3.479079 0.8036325 2.299661 -0.1604013 2.103947 -2.1754 -0.4009492 3.196983 -0.2571259 -0.2443629 2.032633 0.5996597 0.4124512 1.72029 1.805051 1.412472 0.3260545 1.870679 0.4065844 -0.6711415 1.144724 0.9968683 1.302086 1.695971 2.233463 0.2838483 1.280041 -0.005637203 0.3207168 1.044092 0.5120171 2.009893 4.122164 -0.5280756 0.7931593 1.704493 -1.285574 -0.1528228 -0.4048524 -0.7535934 -0.1499414 2.493314 0.2649276 -0.6529335 0.5999674 0.5177462 2.212561 1.209465 0.8473063 2.388616 0.7859766 -0.003238591 0.312231 2.611417 -0.4002732 4.187221 0.8337504 1.24928 1.451169 2.648019 0.8063089 -0.150475 1.505334 1.48945 -1.226652 2.135729 -0.3382007 1.981302 1.369817 0.6234954 3.316346 -0.11364 1.710021 -0.1623874 0.3119269 4.057525 -0.8912946 0.3191428 0.03036956 -1.433994 0.583409 1.944724 2.512191 1.463801 0.9266983 -0.4874371 0.2700353 -0.948666 1.587531 2.815403 0.08172894 2.431288 2.382393 -0.6662298 -0.1984864 0.4042761 2.048589 0.3168933 0.8573761 0.6547592 -0.3024666 0.6894886 -0.1804697 1.966843 -0.637717 0.1840269 2.337765 0.8704538 0.4397375 0.3712596 0.1882784 0.7462532 -1.219024 0.2181577 -0.2040712 2.343094 0.09897542 -0.6974837 1.281875 0.1148417 2.918342 1.579851 -1.624585 1.377551 0.4181762 0.5228841 2.62226 0.9479662 0.7130488 0.2929407 2.28207 3.475876 -1.674538 1.972745 2.421872 -0.4845136 1.427133 0.02880184 1.903897 1.131154 0.4890558 1.175356 1.829318 -0.1112871 -0.7810336 1.218986 -0.1706231 4.662253 0.3119271 2.130237 0.1124556 -0.9676139 3.429668 -0.3660982 1.905395 1.962668 4.224337 0.7751408 2.037763 2.175422 -0.09356657 0.9847077 3.102119 1.064895 0.7229809 -0.1120774 -1.662847 -0.9000031 0.8835229 -1.902771 -0.08347531 1.120285 2.059927 1.558672 0.5901713 1.213278 1.794217 2.115335 0.7935093 4.100317 -0.1324089 0.6363223 2.067742 -0.5671218 3.44713 1.830475 0.3266064 2.080097 1.783983 -1.374878 1.525218 2.70699 0.3782937 2.693155 2.554744 1.493809 0.5328104 1.342055 3.385997 0.7788875 -2.461702 -0.7518839 0.8301547 1.214938 0.8350638 1.389691 0.54932 2.108276 2.046613 2.410824 0.2519653 1.886812 2.330157 0.05418352 -2.511786 -0.8948181 2.866539 3.783514 -0.6178505 2.882663 -0.7169734 -0.1050476 0.5610377 -0.4183257 3.75998 -0.6866504 0.2866457 2.301189 0.6861474 -0.5798963 0.4395529 0.8887407 0.8494991 0.8702222 0.7305573 -1.170596 -0.4007068 -0.04475375 -0.4935245 -1.015261 -0.4215273 -0.3341835 0.5676738 2.849836 1.869258 0.5042956 2.045086 3.392935 0.8687584 0.3795708 -0.2456194 0.7245176 3.030419 1.02786 -1.504263 0.7747327 2.591576 1.032528 4.827722 -0.6699611 3.006408 1.253748 0.3233722 0.1912397 3.91635 1.508572 0.1069544 1.680216 1.536231 2.216603 1.24916 2.32086 1.732543 3.420458 2.691741 1.210967 -0.3830635 1.350989 0.03546369 -0.695559 1.78891 0.4842926 3.070544 1.987913 0.8424489 0.5115094 4.928948 0.8308609 0.8953844 3.813345 -0.7302657 1.05045 1.679662 2.656685 2.693799 -2.897674 -0.3367317 4.117146 2.95079 0.7042224 0.09642751 2.202622 3.116547 1.399086 0.5622891 -1.001057 1.482849 -2.148164 0.7566362 -1.435688 2.63783 -1.163034
